{"learner":{"attributes":{"best_iteration":"585","best_score":"0.547186"},"feature_names":[],"feature_types":[],"gradient_booster":{"model":{"cats":{"enc":[],"feature_segments":[],"sorted_idx":[]},"gbtree_model_param":{"num_parallel_tree":"1","num_trees":"600"},"iteration_indptr":[0,1,2,3,4,5,6,7,8,9,10,11,12,13,14,15,16,17,18,19,20,21,22,23,24,25,26,27,28,29,30,31,32,33,34,35,36,37,38,39,40,41,42,43,44,45,46,47,48,49,50,51,52,53,54,55,56,57,58,59,60,61,62,63,64,65,66,67,68,69,70,71,72,73,74,75,76,77,78,79,80,81,82,83,84,85,86,87,88,89,90,91,92,93,94,95,96,97,98,99,100,101,102,103,104,105,106,107,108,109,110,111,112,113,114,115,116,117,118,119,120,121,122,123,124,125,126,127,128,129,130,131,132,133,134,135,136,137,138,139,140,141,142,143,144,145,146,147,148,149,150,151,152,153,154,155,156,157,158,159,160,161,162,163,164,165,166,167,168,169,170,171,172,173,174,175,176,177,178,179,180,181,182,183,184,185,186,187,188,189,190,191,192,193,194,195,196,197,198,199,200,201,202,203,204,205,206,207,208,209,210,211,212,213,214,215,216,217,218,219,220,221,222,223,224,225,226,227,228,229,230,231,232,233,234,235,236,237,238,239,240,241,242,243,244,245,246,247,248,249,250,251,252,253,254,255,256,257,258,259,260,261,262,263,264,265,266,267,268,269,270,271,272,273,274,275,276,277,278,279,280,281,282,283,284,285,286,287,288,289,290,291,292,293,294,295,296,297,298,299,300,301,302,303,304,305,306,307,308,309,310,311,312,313,314,315,316,317,318,319,320,321,322,323,324,325,326,327,328,329,330,331,332,333,334,335,336,337,338,339,340,341,342,343,344,345,346,347,348,349,350,351,352,353,354,355,356,357,358,359,360,361,362,363,364,365,366,367,368,369,370,371,372,373,374,375,376,377,378,379,380,381,382,383,384,385,386,387,388,389,390,391,392,393,394,395,396,397,398,399,400,401,402,403,404,405,406,407,408,409,410,411,412,413,414,415,416,417,418,419,420,421,422,423,424,425,426,427,428,429,430,431,432,433,434,435,436,437,438,439,440,441,442,443,444,445,446,447,448,449,450,451,452,453,454,455,456,457,458,459,460,461,462,463,464,465,466,467,468,469,470,471,472,473,474,475,476,477,478,479,480,481,482,483,484,485,486,487,488,489,490,491,492,493,494,495,496,497,498,499,500,501,502,503,504,505,506,507,508,509,510,511,512,513,514,515,516,517,518,519,520,521,522,523,524,525,526,527,528,529,530,531,532,533,534,535,536,537,538,539,540,541,542,543,544,545,546,547,548,549,550,551,552,553,554,555,556,557,558,559,560,561,562,563,564,565,566,567,568,569,570,571,572,573,574,575,576,577,578,579,580,581,582,583,584,585,586,587,588,589,590,591,592,593,594,595,596,597,598,599,600],"tree_info":[0,0,0,0,0,0,0,0,0,0,0,0,0,0,0,0,0,0,0,0,0,0,0,0,0,0,0,0,0,0,0,0,0,0,0,0,0,0,0,0,0,0,0,0,0,0,0,0,0,0,0,0,0,0,0,0,0,0,0,0,0,0,0,0,0,0,0,0,0,0,0,0,0,0,0,0,0,0,0,0,0,0,0,0,0,0,0,0,0,0,0,0,0,0,0,0,0,0,0,0,0,0,0,0,0,0,0,0,0,0,0,0,0,0,0,0,0,0,0,0,0,0,0,0,0,0,0,0,0,0,0,0,0,0,0,0,0,0,0,0,0,0,0,0,0,0,0,0,0,0,0,0,0,0,0,0,0,0,0,0,0,0,0,0,0,0,0,0,0,0,0,0,0,0,0,0,0,0,0,0,0,0,0,0,0,0,0,0,0,0,0,0,0,0,0,0,0,0,0,0,0,0,0,0,0,0,0,0,0,0,0,0,0,0,0,0,0,0,0,0,0,0,0,0,0,0,0,0,0,0,0,0,0,0,0,0,0,0,0,0,0,0,0,0,0,0,0,0,0,0,0,0,0,0,0,0,0,0,0,0,0,0,0,0,0,0,0,0,0,0,0,0,0,0,0,0,0,0,0,0,0,0,0,0,0,0,0,0,0,0,0,0,0,0,0,0,0,0,0,0,0,0,0,0,0,0,0,0,0,0,0,0,0,0,0,0,0,0,0,0,0,0,0,0,0,0,0,0,0,0,0,0,0,0,0,0,0,0,0,0,0,0,0,0,0,0,0,0,0,0,0,0,0,0,0,0,0,0,0,0,0,0,0,0,0,0,0,0,0,0,0,0,0,0,0,0,0,0,0,0,0,0,0,0,0,0,0,0,0,0,0,0,0,0,0,0,0,0,0,0,0,0,0,0,0,0,0,0,0,0,0,0,0,0,0,0,0,0,0,0,0,0,0,0,0,0,0,0,0,0,0,0,0,0,0,0,0,0,0,0,0,0,0,0,0,0,0,0,0,0,0,0,0,0,0,0,0,0,0,0,0,0,0,0,0,0,0,0,0,0,0,0,0,0,0,0,0,0,0,0,0,0,0,0,0,0,0,0,0,0,0,0,0,0,0,0,0,0,0,0,0,0,0,0,0,0,0,0,0,0,0,0,0,0,0,0,0,0,0,0,0,0,0,0,0,0,0,0,0,0,0,0,0,0,0,0,0,0,0,0,0,0,0,0,0,0,0,0,0,0,0,0,0,0,0,0,0,0,0,0,0,0,0,0,0,0,0,0,0,0,0,0,0,0,0,0,0,0,0,0,0,0,0,0,0,0,0,0,0,0,0,0,0,0,0,0,0,0,0,0],"trees":[{"base_weights":[3.0138193E4,4.1955523E4,2.451842E4,1.1562098E3,2.725495E4,3.0197303E4,1.2852836E4,8.399526E3,3.0192607E4,1.5860387E4,3.1390736E4,1.0279149E4,2.4938648E4,4.79916E1,2.0726346E2,2.3732422E2,3.1898238E4,3.9359055E2,1.5465756E2,3.067542E4,1.0388483E3,1.6245664E4,7.0395054E3,1.9541971E2,5.943434E2,7.162007E2,4.1633817E2,6.5163403E2,4.6995377E2,2.1740222E2,3.902512E2,4.223032E1,1.863431E2],"categories":[],"categories_nodes":[],"categories_segments":[],"categories_sizes":[],"default_left":[0,0,0,0,0,0,0,0,0,0,0,0,0,0,0,0,0,0,0,0,0,0,0,0,0,0,0,0,0,0,0,0,0],"id":0,"left_children":[1,3,5,-1,7,9,11,13,15,17,19,21,23,-1,-1,-1,25,-1,-1,27,-1,29,31,-1,-1,-1,-1,-1,-1,-1,-1,-1,-1],"loss_changes":[3.8618497E10,4.2942104E10,2.6574602E10,0E0,5.3408727E9,4.1732014E9,3.9428362E9,1.5185805E8,2.3409295E9,5.617398E8,2.0965622E9,2.0698563E9,1.3766482E9,0E0,0E0,0E0,2.6790216E9,0E0,0E0,2.586706E9,0E0,4.7278797E8,8.2214246E8,0E0,0E0,0E0,0E0,0E0,0E0,0E0,0E0,0E0,0E0],"parents":[2147483647,0,0,1,1,2,2,4,4,5,5,6,6,7,7,8,8,9,9,10,10,11,11,12,12,16,16,19,19,21,21,22,22],"right_children":[2,4,6,-1,8,10,12,14,16,18,20,22,24,-1,-1,-1,26,-1,-1,28,-1,30,32,-1,-1,-1,-1,-1,-1,-1,-1,-1,-1],"split_conditions":[-3.4117407E-1,8.263622E-1,-1.8316418E-1,1.1562098E3,-2.5682676E-1,-1.0960424E0,6.506503E-1,-1.2323168E-1,-5.0194246E-1,-7.452299E-1,-6.7834154E-2,4.4883946E-1,9.8783076E-1,4.79916E1,2.0726346E2,2.3732422E2,8.8033855E-1,3.9359055E2,1.5465756E2,-6.21695E-1,1.0388483E3,-1.0945709E-1,-7.778982E-1,1.9541971E2,5.943434E2,7.162007E2,4.1633817E2,6.5163403E2,4.6995377E2,2.1740222E2,3.902512E2,4.223032E1,1.863431E2],"split_indices":[3,31,31,0,23,26,4,1,34,8,1,31,15,0,0,0,27,0,0,31,0,13,30,0,0,0,0,0,0,0,0,0,0],"split_type":[0,0,0,0,0,0,0,0,0,0,0,0,0,0,0,0,0,0,0,0,0,0,0,0,0,0,0,0,0,0,0,0,0],"sum_hessian":[5.96E2,1.9E2,4.06E2,9E1,1E2,2.72E2,1.34E2,1.4E1,8.6E1,2.2E1,2.5E2,1.12E2,2.2E1,4E0,1E1,8E0,7.8E1,1.4E1,8E0,2.44E2,6E0,3.8E1,7.4E1,6E0,1.6E1,5.6E1,2.2E1,1.9E2,5.4E1,1.6E1,2.2E1,2.4E1,5E1],"tree_param":{"num_deleted":"0","num_feature":"36","num_nodes":"33","size_leaf_vector":"1"}},{"base_weights":[2.9848422E4,2.3929613E4,4.3337914E4,2.9632521E4,1.2474723E4,1.1325198E3,2.8635281E4,1.6759264E4,3.1023986E4,6.318081E3,1.8629023E4,1.8410878E2,3.1621316E4,3.9777136E2,1.519081E2,3.0070748E4,1.0578125E3,8.755471E3,3.2460703E3,1.425222E4,2.4174535E4,1.2649976E2,3.372933E4,6.411644E2,4.567775E2,1.4642441E2,3.408821E2,1.6451315E2,4.5511673E1,3.1603546E2,8.936811E1,5.602156E2,3.4596637E2,7.485257E2,4.0438882E2],"categories":[],"categories_nodes":[],"categories_segments":[],"categories_sizes":[],"default_left":[0,0,0,0,0,0,0,0,0,0,0,0,0,0,0,0,0,0,0,0,0,0,0,0,0,0,0,0,0,0,0,0,0,0,0],"id":1,"left_children":[1,3,5,7,9,-1,11,13,15,17,19,-1,21,-1,-1,23,-1,25,27,29,31,-1,33,-1,-1,-1,-1,-1,-1,-1,-1,-1,-1,-1,-1],"loss_changes":[4.6149435E10,2.661004E10,3.3349665E10,4.406067E9,5.1489833E9,0E0,4.756488E9,6.80554E8,3.558015E9,5.032036E8,1.3301965E9,0E0,3.786031E9,0E0,0E0,2.7029996E9,0E0,3.3884493E8,1.4075734E8,5.509719E8,2.8044186E8,0E0,2.6894828E9,0E0,0E0,0E0,0E0,0E0,0E0,0E0,0E0,0E0,0E0,0E0,0E0],"parents":[2147483647,0,0,1,1,2,2,3,3,4,4,6,6,7,7,8,8,9,9,10,10,12,12,15,15,17,17,18,18,19,19,20,20,22,22],"right_children":[2,4,6,8,10,-1,12,14,16,18,20,-1,22,-1,-1,24,-1,26,28,30,32,-1,34,-1,-1,-1,-1,-1,-1,-1,-1,-1,-1,-1,-1],"split_conditions":[1.3426712E-1,5.164311E-2,8.263623E-1,-1.0654067E0,9.158984E-1,1.1325198E3,-1.010084E0,-7.165243E-1,-7.003392E-2,7.544107E-1,5.1040536E-1,1.8410878E2,-8.1233555E-1,3.9777136E2,1.519081E2,-6.1914986E-1,1.0578125E3,-6.8179496E-2,-7.683662E-1,1.6089965E0,1.1685419E0,1.2649976E2,8.8033855E-1,6.411644E2,4.567775E2,1.4642441E2,3.408821E2,1.6451315E2,4.5511673E1,3.1603546E2,8.936811E1,5.602156E2,3.4596637E2,7.485257E2,4.0438882E2],"split_indices":[7,32,32,26,26,0,26,8,0,27,18,0,34,0,0,32,0,2,5,28,8,0,27,0,0,0,0,0,0,0,0,0,0,0,0],"split_type":[0,0,0,0,0,0,0,0,0,0,0,0,0,0,0,0,0,0,0,0,0,0,0,0,0,0,0,0,0,0,0,0,0,0,0],"sum_hessian":[5.9E2,4.12E2,1.78E2,2.74E2,1.38E2,9.2E1,8.6E1,2.8E1,2.46E2,7E1,6.8E1,1.2E1,7.4E1,2E1,8E0,2.38E2,8E0,3.8E1,3.2E1,4E1,2.8E1,6E0,6.8E1,1.84E2,5.4E1,3.4E1,4E0,4E0,2.8E1,3.4E1,6E0,1.6E1,1.2E1,5.2E1,1.6E1],"tree_param":{"num_deleted":"0","num_feature":"36","num_nodes":"35","size_leaf_vector":"1"}},{"base_weights":[2.8765283E4,2.3158143E4,4.1920016E4,2.8810785E4,1.0577867E4,1.1087756E3,2.7919404E4,1.6402617E4,3.0217275E4,8.065053E3,2.1808E4,7.842619E3,3.102712E4,3.92335E2,1.755077E2,2.9295844E4,1.0388646E3,5.1828706E3,1.384603E4,1.179652E2,2.4846979E4,4.0871433E1,2.0385797E2,8.2964703E2,2.7488709E4,6.170177E2,4.0581973E2,5.07326E1,1.4372716E2,3.2399057E2,1.049415E2,5.702337E2,2.8983023E2,2.0398555E2,5.7121356E2],"categories":[],"categories_nodes":[],"categories_segments":[],"categories_sizes":[],"default_left":[0,0,0,0,0,0,0,0,0,0,0,0,0,0,0,0,0,0,0,0,0,0,0,0,0,0,0,0,0,0,0,0,0,0,0],"id":2,"left_children":[1,3,5,7,9,-1,11,13,15,17,19,21,23,-1,-1,25,-1,27,29,-1,31,-1,-1,-1,33,-1,-1,-1,-1,-1,-1,-1,-1,-1,-1],"loss_changes":[4.2031514E10,2.8922184E10,3.1196054E10,4.443259E9,3.4643958E9,0E0,5.184848E9,5.878149E8,3.5430728E9,1.7110518E9,9.654774E8,1.5635078E8,1.6343122E9,0E0,0E0,2.8047114E9,0E0,3.6879462E8,6.2331494E8,0E0,3.0786458E8,0E0,0E0,0E0,8.021893E8,0E0,0E0,0E0,0E0,0E0,0E0,0E0,0E0,0E0,0E0],"parents":[2147483647,0,0,1,1,2,2,3,3,4,4,6,6,7,7,8,8,9,9,10,10,11,11,12,12,15,15,17,17,18,18,20,20,24,24],"right_children":[2,4,6,8,10,-1,12,14,16,18,20,22,24,-1,-1,26,-1,28,30,-1,32,-1,-1,-1,34,-1,-1,-1,-1,-1,-1,-1,-1,-1,-1],"split_conditions":[1.1578836E-1,5.1643237E-2,8.263622E-1,-1.0654067E0,6.627209E-1,1.1087756E3,-2.5682676E-1,-7.165243E-1,-7.003392E-2,9.5615107E-1,8.938142E-1,-1.11546114E-1,-9.227346E-1,3.92335E2,1.755077E2,-5.021341E-1,1.0388646E3,-7.778982E-1,1.3772411E0,1.179652E2,1.3896801E0,4.0871433E1,2.0385797E2,8.2964703E2,-1.010084E0,6.170177E2,4.0581973E2,5.07326E1,1.4372716E2,3.2399057E2,1.049415E2,5.702337E2,2.8983023E2,2.0398555E2,5.7121356E2],"split_indices":[2,31,31,26,4,0,23,8,0,26,15,0,27,0,0,31,0,30,8,0,31,0,0,0,26,0,0,0,0,0,0,0,0,0,0],"split_type":[0,0,0,0,0,0,0,0,0,0,0,0,0,0,0,0,0,0,0,0,0,0,0,0,0,0,0,0,0,0,0,0,0,0,0],"sum_hessian":[5.82E2,4.1E2,1.72E2,2.82E2,1.28E2,8.6E1,8.6E1,3E1,2.52E2,1.06E2,2.2E1,1.2E1,7.4E1,2E1,1E1,2.44E2,8E0,7.2E1,3.4E1,4E0,1.8E1,4E0,8E0,1.6E1,5.8E1,2.06E2,3.8E1,3.2E1,4E1,2.6E1,8E0,1.2E1,6E0,4E0,5.4E1],"tree_param":{"num_deleted":"0","num_feature":"36","num_nodes":"35","size_leaf_vector":"1"}},{"base_weights":[2.895336E4,4.1647055E4,2.3445396E4,1.077995E3,2.8100387E4,2.8785994E4,1.1680651E4,1.6151519E4,3.3902324E4,3.0629648E4,2.2356883E4,9.317429E3,1.9308316E4,1.14123924E2,1.9536574E4,3.5046478E2,3.5425934E4,6.161187E2,3.3423453E2,2.0196447E4,9.1942316E2,1.7246535E4,6.210135E3,6.2562555E2,1.3783748E4,2.7136456E2,4.6167786E2,4.686486E2,7.534035E2,4.819832E2,3.2325424E2,2.0750763E2,4.0633707E2,4.002041E1,1.7149008E2,3.1673087E2,6.452708E1],"categories":[],"categories_nodes":[],"categories_segments":[],"categories_sizes":[],"default_left":[0,0,0,0,0,0,0,0,0,0,0,0,0,0,0,0,0,0,0,0,0,0,0,0,0,0,0,0,0,0,0,0,0,0,0,0,0],"id":3,"left_children":[1,3,5,-1,7,9,11,13,15,17,19,21,23,-1,25,-1,27,-1,-1,29,-1,31,33,-1,35,-1,-1,-1,-1,-1,-1,-1,-1,-1,-1,-1,-1],"loss_changes":[4.160268E10,2.886035E10,2.6492486E10,0E0,5.622481E9,2.7881472E9,2.2535864E9,9.8461645E8,8.515789E8,3.724083E7,2.5917235E9,2.4798904E9,1.6193311E9,0E0,1.7373594E8,0E0,5.438546E8,0E0,0E0,6.337495E8,0E0,4.0100352E8,7.491374E8,0E0,4.473641E8,0E0,0E0,0E0,0E0,0E0,0E0,0E0,0E0,0E0,0E0,0E0,0E0],"parents":[2147483647,0,0,1,1,2,2,4,4,5,5,6,6,7,7,8,8,9,9,10,10,11,11,12,12,14,14,16,16,19,19,21,21,22,22,24,24],"right_children":[2,4,6,-1,8,10,12,14,16,18,20,22,24,-1,26,-1,28,-1,-1,30,-1,32,34,-1,36,-1,-1,-1,-1,-1,-1,-1,-1,-1,-1,-1,-1],"split_conditions":[-4.1874853E-1,8.263622E-1,-1.8316418E-1,1.077995E3,-9.029098E-1,-6.1914986E-1,5.971516E-1,-2.715754E-1,2.5337455E-1,1.0834912E0,-7.003392E-2,3.2732743E-1,-1.288868E0,1.14123924E2,-9.8390985E-1,3.5046478E2,1.7861755E-1,6.161187E2,3.3423453E2,-6.6068816E-1,9.1942316E2,-1.09523684E-1,-7.778982E-1,6.2562555E2,1.0551447E0,2.7136456E2,4.6167786E2,4.686486E2,7.534035E2,4.819832E2,3.2325424E2,2.0750763E2,4.0633707E2,4.002041E1,1.7149008E2,3.1673087E2,6.452708E1],"split_indices":[3,31,31,0,30,31,6,23,17,28,0,31,33,0,26,0,7,0,0,25,0,13,30,0,30,0,0,0,0,0,0,0,0,0,0,0,0],"split_type":[0,0,0,0,0,0,0,0,0,0,0,0,0,0,0,0,0,0,0,0,0,0,0,0,0,0,0,0,0,0,0,0,0,0,0,0,0],"sum_hessian":[6.08E2,1.82E2,4.26E2,9.4E1,8.8E1,2.92E2,1.34E2,3E1,5.8E1,2.24E2,6.8E1,1.04E2,3E1,8E0,2.2E1,6E0,5.2E1,2.2E2,4E0,6.4E1,4E0,2.8E1,7.6E1,8E0,2.2E1,1E1,1.2E1,1E1,4.2E1,3E1,3.4E1,1E1,1.8E1,2.8E1,4.8E1,1.8E1,4E0],"tree_param":{"num_deleted":"0","num_feature":"36","num_nodes":"37","size_leaf_vector":"1"}},{"base_weights":[2.7831703E4,4.014784E4,2.2403156E4,1.0589904E3,2.521684E4,2.79007E4,1.1143476E4,7.620694E3,2.8317168E4,1.7667744E4,2.9244447E4,8.57556E3,2.1296525E4,3.793258E1,1.9059483E2,2.9465771E4,1.1768245E2,2.0820918E4,1.6643932E2,2.8602678E4,9.6890796E2,1.6634918E4,5.912955E3,1.5215944E2,2.4536666E4,6.33093E2,3.385652E2,4.641535E2,3.0478946E2,6.014304E2,4.427534E2,2.0385652E2,3.720734E2,4.1129696E1,1.555173E2,5.7759924E2,2.9143063E2],"categories":[],"categories_nodes":[],"categories_segments":[],"categories_sizes":[],"default_left":[0,0,0,0,0,0,0,0,0,0,0,0,0,0,0,0,0,0,0,0,0,0,0,0,0,0,0,0,0,0,0,0,0,0,0,0,0],"id":4,"left_children":[1,3,5,-1,7,9,11,13,15,17,19,21,23,-1,-1,25,-1,27,-1,29,-1,31,33,-1,35,-1,-1,-1,-1,-1,-1,-1,-1,-1,-1,-1,-1],"loss_changes":[4.1555853E10,3.5555148E10,2.7111014E10,0E0,4.748595E9,3.5672392E9,3.6499763E9,1.4583712E8,1.8106491E9,9.1707494E8,1.8305188E9,2.4552438E9,1.0995558E9,0E0,0E0,1.4674862E9,0E0,6.004736E6,0E0,1.755775E9,0E0,1.7817702E8,6.377756E8,0E0,5.7464525E8,0E0,0E0,0E0,0E0,0E0,0E0,0E0,0E0,0E0,0E0,0E0,0E0],"parents":[2147483647,0,0,1,1,2,2,4,4,5,5,6,6,7,7,8,8,9,9,10,10,11,11,12,12,15,15,17,17,19,19,21,21,22,22,24,24],"right_children":[2,4,6,-1,8,10,12,14,16,18,20,22,24,-1,-1,26,-1,28,-1,30,-1,32,34,-1,36,-1,-1,-1,-1,-1,-1,-1,-1,-1,-1,-1,-1],"split_conditions":[-3.4117407E-1,8.263622E-1,-1.8316418E-1,1.0589904E3,-2.5682676E-1,-1.0654067E0,6.506503E-1,-1.11546114E-1,2.7371687E-1,-7.165243E-1,-7.003392E-2,3.2732743E-1,-8.192584E-2,3.793258E1,1.9059483E2,9.022704E-1,1.1768245E2,-7.55775E-1,1.6643932E2,-6.1914986E-1,9.6890796E2,-1.0969798E-1,-7.778982E-1,1.5215944E2,1.3187482E0,6.33093E2,3.385652E2,4.641535E2,3.0478946E2,6.014304E2,4.427534E2,2.0385652E2,3.720734E2,4.1129696E1,1.555173E2,5.7759924E2,2.9143063E2],"split_indices":[3,31,31,0,23,26,4,0,0,8,0,31,16,0,0,27,0,8,0,31,0,13,30,0,31,0,0,0,0,0,0,0,0,0,0,0,0],"split_type":[0,0,0,0,0,0,0,0,0,0,0,0,0,0,0,0,0,0,0,0,0,0,0,0,0,0,0,0,0,0,0,0,0,0,0,0,0],"sum_hessian":[6.34E2,1.92E2,4.42E2,1.02E2,9E1,2.96E2,1.46E2,1.4E1,7.6E1,3.6E1,2.6E2,1.18E2,2.8E1,4E0,1E1,7.2E1,4E0,2.6E1,1E1,2.54E2,6E0,2.8E1,9E1,6E0,2.2E1,6E1,1.2E1,1.6E1,1E1,2.04E2,5E1,8E0,2E1,3E1,6E1,1.4E1,8E0],"tree_param":{"num_deleted":"0","num_feature":"36","num_nodes":"37","size_leaf_vector":"1"}},{"base_weights":[2.798479E4,3.9655664E4,2.2560201E4,1.0465739E3,2.5498004E4,2.7305662E4,9.968618E3,6.595745E3,2.868363E4,5.8561676E2,2.1527096E4,8.1216177E3,1.8201203E4,2.8039917E1,1.9804913E2,3.3291438E4,1.9273375E4,1.9487818E4,8.176769E2,1.0571912E4,2.9006646E3,1.129703E4,5.2303064E2,7.196561E2,3.227104E2,2.3337988E2,4.7909506E2,4.7613605E2,3.2448978E2,2.6180524E2,1.1634941E2,1.5314168E2,3.9611317E1,2.6715945E2,1.0655814E2],"categories":[],"categories_nodes":[],"categories_segments":[],"categories_sizes":[],"default_left":[0,0,0,0,0,0,0,0,0,0,0,0,0,0,0,0,0,0,0,0,0,0,0,0,0,0,0,0,0,0,0,0,0,0,0],"id":5,"left_children":[1,3,5,-1,7,9,11,13,15,-1,17,19,21,-1,-1,23,25,27,-1,29,31,33,-1,-1,-1,-1,-1,-1,-1,-1,-1,-1,-1,-1,-1],"loss_changes":[3.8673842E10,3.4011546E10,2.5361793E10,0E0,5.5312835E9,2.919301E9,1.6616387E9,2.4372909E8,2.8705628E9,0E0,2.4795832E9,1.2358277E9,8.5726E8,0E0,0E0,1.8665636E9,7.528397E8,6.990029E8,0E0,7.2606E8,1.2925405E8,8.87543E7,0E0,0E0,0E0,0E0,0E0,0E0,0E0,0E0,0E0,0E0,0E0,0E0,0E0],"parents":[2147483647,0,0,1,1,2,2,4,4,5,5,6,6,7,7,8,8,10,10,11,11,12,12,15,15,16,16,17,17,19,19,20,20,21,21],"right_children":[2,4,6,-1,8,10,12,14,16,-1,18,20,22,-1,-1,24,26,28,-1,30,32,34,-1,-1,-1,-1,-1,-1,-1,-1,-1,-1,-1,-1,-1],"split_conditions":[-2.84831E-1,8.263622E-1,5.1643237E-2,1.0465739E3,-2.5682676E-1,-6.1914986E-1,6.506503E-1,2.6596314E-1,2.6771826E-1,5.8561676E2,-5.707716E-1,7.39844E-1,1.3373042E0,2.8039917E1,1.9804913E2,9.022704E-1,5.263095E-1,-3.8433594E-1,8.176769E2,5.125335E-1,-7.683662E-1,9.047071E-1,5.2303064E2,7.196561E2,3.227104E2,2.3337988E2,4.7909506E2,4.7613605E2,3.2448978E2,2.6180524E2,1.1634941E2,1.5314168E2,3.9611317E1,2.6715945E2,1.0655814E2],"split_indices":[3,31,31,0,23,31,4,7,8,0,2,27,25,0,0,27,25,25,0,23,5,4,0,0,0,0,0,0,0,0,0,0,0,0,0],"split_type":[0,0,0,0,0,0,0,0,0,0,0,0,0,0,0,0,0,0,0,0,0,0,0,0,0,0,0,0,0,0,0,0,0,0,0],"sum_hessian":[6.24E2,1.96E2,4.28E2,1.02E2,9.4E1,3.1E2,1.18E2,1.4E1,8E1,2.28E2,8.2E1,9.8E1,2E1,6E0,8E0,5.2E1,2.8E1,7.6E1,6E0,6.6E1,3.2E1,1.2E1,8E0,4.4E1,8E0,1.2E1,1.6E1,3E1,4.6E1,4.2E1,2.4E1,4E0,2.8E1,8E0,4E0],"tree_param":{"num_deleted":"0","num_feature":"36","num_nodes":"35","size_leaf_vector":"1"}},{"base_weights":[2.6572521E4,3.8523875E4,2.1769146E4,1.0293362E3,2.5435678E4,2.6800578E4,1.1660251E4,8.1530786E3,2.8092186E4,2.2310045E4,2.946526E4,9.541326E3,2.1449434E4,7.38088E1,1.9452826E2,3.1768643E4,1.8398945E4,2.551841E4,1.3953347E4,2.8581348E4,9.3697284E2,1.5627845E4,6.7796484E3,1.0485321E2,2.4286781E4,7.54487E2,4.927263E2,1.8652257E2,4.5232062E2,3.1161877E2,5.283735E2,1.8319833E2,3.2512515E2,5.855344E2,3.5755585E2,1.8512685E2,3.8207394E2,4.3485508E1,1.7111906E2,5.56647E2,2.6439163E2],"categories":[],"categories_nodes":[],"categories_segments":[],"categories_sizes":[],"default_left":[0,0,0,0,0,0,0,0,0,0,0,0,0,0,0,0,0,0,0,0,0,0,0,0,0,0,0,0,0,0,0,0,0,0,0,0,0,0,0,0,0],"id":6,"left_children":[1,3,5,-1,7,9,11,13,15,17,19,21,23,-1,-1,25,27,29,31,33,-1,35,37,-1,39,-1,-1,-1,-1,-1,-1,-1,-1,-1,-1,-1,-1,-1,-1,-1,-1],"loss_changes":[3.3662829E10,2.765824E10,2.1609103E10,0E0,3.765244E9,2.7768259E9,2.8030095E9,5.537984E7,2.0882473E9,2.619986E9,1.3806797E9,1.927937E9,1.0222756E9,0E0,0E0,1.3219471E9,6.69077E8,2.951291E8,2.1537331E8,7.49355E8,0E0,6.425825E8,6.767424E8,0E0,4.5609267E8,0E0,0E0,0E0,0E0,0E0,0E0,0E0,0E0,0E0,0E0,0E0,0E0,0E0,0E0,0E0,0E0],"parents":[2147483647,0,0,1,1,2,2,4,4,5,5,6,6,7,7,8,8,9,9,10,10,11,11,12,12,15,15,16,16,17,17,18,18,19,19,21,21,22,22,24,24],"right_children":[2,4,6,-1,8,10,12,14,16,18,20,22,24,-1,-1,26,28,30,32,34,-1,36,38,-1,40,-1,-1,-1,-1,-1,-1,-1,-1,-1,-1,-1,-1,-1,-1,-1,-1],"split_conditions":[-3.4117407E-1,7.599043E-1,-1.8316418E-1,1.0293362E3,-2.5682676E-1,-6.125015E-1,6.627209E-1,4.0192977E-1,1.9527273E-1,-5.2591795E-1,-1.4920351E-1,4.4883946E-1,-8.192584E-2,7.38088E1,1.9452826E2,9.255885E-1,4.913658E-1,-7.775856E-1,-3.4032768E-1,-1.0689619E-1,9.3697284E2,-1.09523684E-1,-7.778982E-1,1.0485321E2,1.3187482E0,7.54487E2,4.927263E2,1.8652257E2,4.5232062E2,3.1161877E2,5.283735E2,1.8319833E2,3.2512515E2,5.855344E2,3.5755585E2,1.8512685E2,3.8207394E2,4.3485508E1,1.7111906E2,5.56647E2,2.6439163E2],"split_indices":[3,31,31,0,23,2,4,6,8,31,1,31,16,0,0,34,25,6,19,13,0,13,30,0,31,0,0,0,0,0,0,0,0,0,0,0,0,0,0,0,0],"split_type":[0,0,0,0,0,0,0,0,0,0,0,0,0,0,0,0,0,0,0,0,0,0,0,0,0,0,0,0,0,0,0,0,0,0,0,0,0,0,0,0,0],"sum_hessian":[6E2,1.7E2,4.3E2,8.4E1,8.6E1,2.86E2,1.44E2,1.2E1,7.4E1,1.1E2,1.76E2,1.2E2,2.4E1,4E0,8E0,5.2E1,2.2E1,7.8E1,3.2E1,1.7E2,6E0,3.6E1,8.4E1,4E0,2E1,2.6E1,2.6E1,8E0,1.4E1,8E0,7E1,1.2E1,2E1,1.58E2,1.2E1,1.4E1,2.2E1,2.4E1,6E1,1.4E1,6E0],"tree_param":{"num_deleted":"0","num_feature":"36","num_nodes":"41","size_leaf_vector":"1"}},{"base_weights":[2.638631E4,3.7348258E4,2.133042E4,2.4926012E4,4.412335E4,2.5425846E4,1.2647864E4,8.534845E2,2.0440873E4,4.798248E4,1.7692045E4,1.4599356E4,2.6472469E4,7.208163E3,1.9532764E4,7.0485713E3,2.4637234E4,1.0058036E3,7.89064E2,1.3958516E2,4.580179E2,4.4946234E2,1.0101287E4,2.709223E4,6.5221E3,1.7408145E4,5.773263E3,1.6029619E4,3.336196E4,1.617362E2,6.7094215E1,5.845644E2,3.1792828E2,1.1072032E2,2.1899236E2,5.583438E2,4.179299E2,1.9835005E2,3.6445152E1,1.5448085E2,4.722119E2,2.0400568E2,5.0022835E1,3.6011752E2,1.0491183E2,8.2334735E2,3.1523962E2],"categories":[],"categories_nodes":[],"categories_segments":[],"categories_sizes":[],"default_left":[0,0,0,0,0,0,0,0,0,0,0,0,0,0,0,0,0,0,0,0,0,0,0,0,0,0,0,0,0,0,0,0,0,0,0,0,0,0,0,0,0,0,0,0,0,0,0],"id":7,"left_children":[1,3,5,7,9,11,13,-1,15,17,19,21,23,25,27,29,31,-1,-1,-1,-1,-1,33,35,37,39,41,43,45,-1,-1,-1,-1,-1,-1,-1,-1,-1,-1,-1,-1,-1,-1,-1,-1,-1,-1],"loss_changes":[3.2623067E10,1.4806745E10,1.4435303E10,4.6203167E9,1.149331E10,2.7976172E9,4.915196E9,0E0,3.02968E9,8.260813E7,7.8878874E8,7.292416E8,2.9762191E9,1.02646374E9,2.3235113E9,3.0396608E7,1.2609147E9,0E0,0E0,0E0,0E0,0E0,1.2965376E7,6.791168E8,1.2554726E8,3.582144E8,9.740032E8,9.4983475E8,8.6223974E8,0E0,0E0,0E0,0E0,0E0,0E0,0E0,0E0,0E0,0E0,0E0,0E0,0E0,0E0,0E0,0E0,0E0,0E0],"parents":[2147483647,0,0,1,1,2,2,3,3,4,4,5,5,6,6,8,8,9,9,10,10,11,11,12,12,13,13,14,14,15,15,16,16,22,22,23,23,24,24,25,25,26,26,27,27,28,28],"right_children":[2,4,6,8,10,12,14,-1,16,18,20,22,24,26,28,30,32,-1,-1,-1,-1,-1,34,36,38,40,42,44,46,-1,-1,-1,-1,-1,-1,-1,-1,-1,-1,-1,-1,-1,-1,-1,-1,-1,-1],"split_conditions":[-3.4117407E-1,-9.5654595E-1,-6.2954885E-1,-3.4723634E-1,2.2048737E-1,-1.0960424E0,9.158984E-1,8.534845E2,-1.010084E0,1.4153742E0,5.263095E-1,-7.55775E-1,-5.1981892E-2,-1.0202638E0,1.173682E-2,-5.7541776E-1,8.707475E-1,1.0058036E3,7.89064E2,1.3958516E2,4.580179E2,4.4946234E2,-4.438906E-1,1.0834912E0,8.9284277E-1,1.53823E-1,-4.5121804E-1,1.4694535E0,-8.709985E-1,1.617362E2,6.7094215E1,5.845644E2,3.1792828E2,1.1072032E2,2.1899236E2,5.583438E2,4.179299E2,1.9835005E2,3.6445152E1,1.5448085E2,4.722119E2,2.0400568E2,5.0022835E1,3.6011752E2,1.0491183E2,8.2334735E2,3.1523962E2],"split_indices":[3,26,6,8,8,26,26,0,26,29,25,8,7,28,7,28,27,0,0,0,0,0,21,28,8,0,6,28,27,0,0,0,0,0,0,0,0,0,0,0,0,0,0,0,0,0,0],"split_type":[0,0,0,0,0,0,0,0,0,0,0,0,0,0,0,0,0,0,0,0,0,0,0,0,0,0,0,0,0,0,0,0,0,0,0,0,0,0,0,0,0,0,0,0,0,0,0],"sum_hessian":[6.02E2,1.88E2,4.14E2,6.8E1,1.2E2,2.8E2,1.34E2,1.2E1,5.6E1,1.04E2,1.6E1,2.6E1,2.54E2,7.6E1,5.8E1,1.4E1,4.2E1,7.8E1,2.6E1,6E0,1E1,8E0,1.8E1,2.46E2,8E0,8E0,6.8E1,4.8E1,1E1,1E1,4E0,2.6E1,1.6E1,4E0,1.4E1,2.14E2,3.2E1,4E0,4E0,4E0,4E0,2.8E1,4E1,4E1,8E0,6E0,4E0],"tree_param":{"num_deleted":"0","num_feature":"36","num_nodes":"47","size_leaf_vector":"1"}},{"base_weights":[2.5618172E4,3.6242953E4,2.0686578E4,9.818239E2,2.3021074E4,2.5679879E4,1.0148058E4,6.9162812E3,2.5654217E4,1.5362971E4,2.6744121E4,6.7910464E3,1.5029582E4,2.7881056E1,8.797623E3,9.324993E3,2.7271666E4,4.1076047E2,9.163713E3,1.435451E4,2.7507105E4,3.1506534E2,5.3475454E3,1.7151354E4,4.9832695E3,2.1944398E2,1.1975075E2,2.3097798E2,1.04721344E2,4.2358777E2,6.361445E2,1.16730995E2,2.146661E2,3.1368164E2,1.6053394E2,5.3709845E2,9.0944293E2,8.082774E1,2.8373453E2,3.6061932E2,1.3016495E2,5.5658997E1,1.1686033E2],"categories":[],"categories_nodes":[],"categories_segments":[],"categories_sizes":[],"default_left":[0,0,0,0,0,0,0,0,0,0,0,0,0,0,0,0,0,0,0,0,0,0,0,0,0,0,0,0,0,0,0,0,0,0,0,0,0,0,0,0,0,0,0],"id":8,"left_children":[1,3,5,-1,7,9,11,13,15,17,19,21,23,-1,25,27,29,-1,31,33,35,-1,37,39,41,-1,-1,-1,-1,-1,-1,-1,-1,-1,-1,-1,-1,-1,-1,-1,-1,-1,-1],"loss_changes":[3.1369658E10,3.1656313E10,2.1893267E10,0E0,3.9359652E9,2.7183514E9,2.1429955E9,1.4357267E8,1.9378545E9,7.4215526E8,2.0345815E9,9.895255E8,1.0869074E9,0E0,1.52E6,2.1368064E7,1.3987308E9,0E0,1.5687168E7,1.7132288E7,1.602519E9,0E0,7.854761E8,3.0392832E8,4.547232E6,0E0,0E0,0E0,0E0,0E0,0E0,0E0,0E0,0E0,0E0,0E0,0E0,0E0,0E0,0E0,0E0,0E0,0E0],"parents":[2147483647,0,0,1,1,2,2,4,4,5,5,6,6,7,7,8,8,9,9,10,10,11,11,12,12,14,14,15,15,16,16,18,18,19,19,20,20,22,22,23,23,24,24],"right_children":[2,4,6,-1,8,10,12,14,16,18,20,22,24,-1,26,28,30,-1,32,34,36,-1,38,40,42,-1,-1,-1,-1,-1,-1,-1,-1,-1,-1,-1,-1,-1,-1,-1,-1,-1,-1],"split_conditions":[-3.4117407E-1,8.263622E-1,-1.8316418E-1,9.818239E2,-2.5682676E-1,-1.0939603E0,9.5615107E-1,-1.11546114E-1,-5.0194246E-1,-7.55775E-1,-1.6043868E0,-6.313403E-2,1.4694535E0,2.7881056E1,-5.1572133E-2,2.5853425E-1,2.1307409E-1,4.1076047E2,-4.438906E-1,-4.1801652E-1,-8.4839635E-2,3.1506534E2,6.506503E-1,4.7453102E-1,4.1910732E-1,2.1944398E2,1.1975075E2,2.3097798E2,1.04721344E2,4.2358777E2,6.361445E2,1.16730995E2,2.146661E2,3.1368164E2,1.6053394E2,5.3709845E2,9.0944293E2,8.082774E1,2.8373453E2,3.6061932E2,1.3016495E2,5.5658997E1,1.1686033E2],"split_indices":[3,31,31,0,23,26,26,0,34,8,35,31,28,0,21,0,18,0,21,31,0,0,4,0,0,0,0,0,0,0,0,0,0,0,0,0,0,0,0,0,0,0,0],"split_type":[0,0,0,0,0,0,0,0,0,0,0,0,0,0,0,0,0,0,0,0,0,0,0,0,0,0,0,0,0,0,0,0,0,0,0,0,0,0,0,0,0,0,0],"sum_hessian":[6.12E2,1.92E2,4.2E2,9.6E1,9.6E1,2.84E2,1.36E2,1.4E1,8.2E1,2.8E1,2.56E2,8.2E1,5.4E1,4E0,1E1,8E0,7.4E1,1.4E1,1.4E1,1.6E1,2.4E2,1E1,7.2E1,4.4E1,1E1,4E0,6E0,4E0,4E0,3.4E1,4E1,6E0,8E0,1.2E1,4E0,2.34E2,6E0,6.4E1,8E0,4E1,4E0,4E0,6E0],"tree_param":{"num_deleted":"0","num_feature":"36","num_nodes":"43","size_leaf_vector":"1"}},{"base_weights":[2.4838664E4,2.040325E4,3.5577812E4,2.5840586E4,1.2052979E4,9.626405E2,2.3450992E4,5.3887634E2,2.0683035E4,1.0207814E4,2.0294771E4,6.401392E3,2.6910629E4,1.7931045E4,6.306661E2,1.4631823E4,6.9128447E3,4.696751E2,1.20125565E2,1.3381976E1,8.1136978E3,3.0491342E4,1.7178023E4,4.4191467E2,3.0317157E2,2.4126204E2,3.9350284E2,1.7764539E2,3.6618603E1,2.2271597E2,1.1066438E2,6.814258E2,4.6145584E2,2.58937E2,4.4642593E2],"categories":[],"categories_nodes":[],"categories_segments":[],"categories_sizes":[],"default_left":[0,0,0,0,0,0,0,0,0,0,0,0,0,0,0,0,0,0,0,0,0,0,0,0,0,0,0,0,0,0,0,0,0,0,0],"id":9,"left_children":[1,3,5,7,9,-1,11,-1,13,15,17,19,21,23,-1,25,27,-1,-1,-1,29,31,33,-1,-1,-1,-1,-1,-1,-1,-1,-1,-1,-1,-1],"loss_changes":[2.8663415E10,1.9620545E10,2.6122699E10,9.505669E8,2.4541348E9,0E0,5.313376E9,0E0,9.574195E8,2.0125123E9,1.2714854E9,1.614327E8,2.1596406E9,1.615534E8,0E0,5.529006E8,8.344545E8,0E0,0E0,0E0,3.97616E7,6.7456205E8,2.1153434E8,0E0,0E0,0E0,0E0,0E0,0E0,0E0,0E0,0E0,0E0,0E0,0E0],"parents":[2147483647,0,0,1,1,2,2,3,3,4,4,6,6,8,8,9,9,10,10,11,11,12,12,13,13,15,15,16,16,20,20,21,21,22,22],"right_children":[2,4,6,8,10,-1,12,-1,14,16,18,20,22,24,-1,26,28,-1,-1,-1,30,32,34,-1,-1,-1,-1,-1,-1,-1,-1,-1,-1,-1,-1],"split_conditions":[1.14927076E-1,-3.5610124E-1,8.263622E-1,-6.1914986E-1,7.478615E-1,9.626405E2,-2.5682676E-1,5.3887634E2,-3.4940317E-1,4.4883946E-1,1.5067497E0,-9.7873695E-2,8.8033855E-1,-3.2113132E-1,6.306661E2,1.387477E-1,7.39844E-1,4.696751E2,1.20125565E2,1.3381976E1,-6.494526E-2,1.2594721E0,-1.6600096E0,4.4191467E2,3.0317157E2,2.4126204E2,3.9350284E2,1.7764539E2,3.6618603E1,2.2271597E2,1.1066438E2,6.814258E2,4.6145584E2,2.58937E2,4.4642593E2],"split_indices":[7,31,31,31,4,0,23,0,8,31,31,0,27,0,0,22,27,0,0,0,0,31,3,0,0,0,0,0,0,0,0,0,0,0,0],"split_type":[0,0,0,0,0,0,0,0,0,0,0,0,0,0,0,0,0,0,0,0,0,0,0,0,0,0,0,0,0,0,0,0,0,0,0],"sum_hessian":[6.16E2,4.38E2,1.78E2,2.64E2,1.74E2,8.6E1,9.2E1,2.14E2,5E1,1.44E2,3E1,1.6E1,7.6E1,4.2E1,8E0,6E1,8.4E1,2.4E1,6E0,4E0,1.2E1,5.4E1,2.2E1,1.4E1,2.8E1,4.2E1,1.8E1,6E1,2.4E1,4E0,8E0,3.4E1,2E1,1.4E1,8E0],"tree_param":{"num_deleted":"0","num_feature":"36","num_nodes":"35","size_leaf_vector":"1"}},{"base_weights":[2.4951791E4,2.054913E4,3.631458E4,2.5210205E4,1.0865238E4,9.366867E2,2.3470883E4,2.4320225E4,9.2924774E2,7.0170483E3,1.5611922E4,1.4870953E4,2.9638139E4,5.32245E2,1.7110994E4,1.6666137E4,5.7655957E3,1.1892433E4,2.1087402E4,1.37138E2,1.8754066E4,3.1963062E4,9.292242E1,2.1182921E2,3.8104172E2,1.4737854E2,4.52602E2,2.5946494E2,7.7974045E1,2.652561E2,6.683269E1,4.7959863E2,2.6561368E2,1.5097948E2,4.4529483E2,2.6538455E2,6.725077E2],"categories":[],"categories_nodes":[],"categories_segments":[],"categories_sizes":[],"default_left":[0,0,0,0,0,0,0,0,0,0,0,0,0,0,0,0,0,0,0,0,0,0,0,0,0,0,0,0,0,0,0,0,0,0,0,0,0],"id":10,"left_children":[1,3,5,7,9,-1,11,13,-1,15,17,19,21,-1,23,25,27,29,31,-1,33,35,-1,-1,-1,-1,-1,-1,-1,-1,-1,-1,-1,-1,-1,-1,-1],"loss_changes":[3.0120083E10,1.9902464E10,2.200499E10,4.5631406E9,2.575569E9,0E0,3.749245E9,4.3530486E9,0E0,9.06164E8,1.0730066E9,9.605847E8,2.4661975E9,0E0,7.2202445E8,3.3227136E8,9.5861325E8,4.3610778E8,2.4605491E8,0E0,7.366825E8,8.278958E8,0E0,0E0,0E0,0E0,0E0,0E0,0E0,0E0,0E0,0E0,0E0,0E0,0E0,0E0,0E0],"parents":[2147483647,0,0,1,1,2,2,3,3,4,4,6,6,7,7,9,9,10,10,11,11,12,12,14,14,15,15,16,16,17,17,18,18,20,20,21,21],"right_children":[2,4,6,8,10,-1,12,14,-1,16,18,20,22,-1,24,26,28,30,32,-1,34,36,-1,-1,-1,-1,-1,-1,-1,-1,-1,-1,-1,-1,-1,-1,-1],"split_conditions":[1.4386573E-1,-1.8316418E-1,8.263622E-1,-7.003392E-2,9.5615107E-1,9.366867E2,5.853083E-1,-6.1914986E-1,9.2924774E2,-1.0202638E0,5.1040536E-1,-9.912466E-1,3.218006E0,5.32245E2,-1.0967364E0,1.53823E-1,1.8921706E-1,1.6089965E0,1.1685419E0,1.37138E2,1.0227125E0,-9.3880284E-1,9.292242E1,2.1182921E2,3.8104172E2,1.4737854E2,4.52602E2,2.5946494E2,7.7974045E1,2.652561E2,6.683269E1,4.7959863E2,2.6561368E2,1.5097948E2,4.4529483E2,2.6538455E2,6.725077E2],"split_indices":[7,31,31,0,26,0,20,31,0,28,18,26,8,0,26,0,31,28,8,0,31,30,0,0,0,0,0,0,0,0,0,0,0,0,0,0,0],"split_type":[0,0,0,0,0,0,0,0,0,0,0,0,0,0,0,0,0,0,0,0,0,0,0,0,0,0,0,0,0,0,0,0,0,0,0,0,0],"sum_hessian":[6.16E2,4.46E2,1.7E2,3E2,1.46E2,9.2E1,7.8E1,2.9E2,1E1,8.2E1,6.4E1,3.4E1,4.4E1,2.18E2,7.2E1,8E0,7.4E1,4E1,2.4E1,1.2E1,2.2E1,4E1,4E0,1.8E1,5.4E1,4E0,4E0,1.4E1,6E1,3.4E1,6E0,1.6E1,8E0,6E0,1.6E1,4E0,3.6E1],"tree_param":{"num_deleted":"0","num_feature":"36","num_nodes":"37","size_leaf_vector":"1"}},{"base_weights":[2.4155852E4,3.5079062E4,1.9599016E4,9.296038E2,2.3274725E4,2.4117254E4,9.103366E3,6.5637046E3,2.5860969E4,2.3379188E4,8.961928E2,4.5443384E3,1.5469078E4,6.1566235E1,1.5541444E2,2.8063762E4,3.0357755E2,5.1697974E2,1.7056914E4,3.6579558E3,2.5517917E2,8.331159E3,1.8330576E4,2.1421376E2,5.9524164E2,2.480542E2,4.0715894E2,1.2895848E2,3.2889057E1,2.4050957E2,7.422289E1,5.5684E2,2.9493323E2],"categories":[],"categories_nodes":[],"categories_segments":[],"categories_sizes":[],"default_left":[0,0,0,0,0,0,0,0,0,0,0,0,0,0,0,0,0,0,0,0,0,0,0,0,0,0,0,0,0,0,0,0,0],"id":11,"left_children":[1,3,5,-1,7,9,11,13,15,17,-1,19,21,-1,-1,23,-1,-1,25,27,-1,29,31,-1,-1,-1,-1,-1,-1,-1,-1,-1,-1],"loss_changes":[2.8779446E10,2.2201025E10,1.9697631E10,0E0,3.5902915E9,3.4271724E9,3.6444477E9,3.0768256E7,1.3388022E9,4.009296E9,0E0,5.0670515E8,9.298145E8,0E0,0E0,1.4789591E9,0E0,0E0,1.0226893E9,3.8262848E8,0E0,2.4552294E8,8.506798E8,0E0,0E0,0E0,0E0,0E0,0E0,0E0,0E0,0E0,0E0],"parents":[2147483647,0,0,1,1,2,2,4,4,5,5,6,6,7,7,8,8,9,9,11,11,12,12,15,15,18,18,19,19,21,21,22,22],"right_children":[2,4,6,-1,8,10,12,14,16,18,-1,20,22,-1,-1,24,-1,-1,26,28,-1,30,32,-1,-1,-1,-1,-1,-1,-1,-1,-1,-1],"split_conditions":[-4.0433353E-1,7.599043E-1,5.1643237E-2,9.296038E2,-1.010084E0,-7.003392E-2,9.4167596E-1,3.89454E-1,9.022704E-1,-6.1914986E-1,8.961928E2,6.506503E-1,-1.0635422E0,6.1566235E1,1.5541444E2,-5.0194246E-1,3.0357755E2,5.1697974E2,-7.7302344E-2,-5.522447E-1,2.5517917E2,-2.8810292E-1,-1.288868E0,2.1421376E2,5.9524164E2,2.480542E2,4.0715894E2,1.2895848E2,3.2889057E1,2.4050957E2,7.422289E1,5.5684E2,2.9493323E2],"split_indices":[3,31,31,0,26,0,26,7,27,31,0,4,35,0,0,34,0,0,22,7,0,6,33,0,0,0,0,0,0,0,0,0,0],"split_type":[0,0,0,0,0,0,0,0,0,0,0,0,0,0,0,0,0,0,0,0,0,0,0,0,0,0,0,0,0,0,0,0,0],"sum_hessian":[5.91E2,1.72E2,4.19E2,8.6E1,8.6E1,2.92E2,1.27E2,1.2E1,7.4E1,2.84E2,8E0,7.5E1,5.2E1,4E0,8E0,6E1,1.4E1,2.02E2,8.2E1,6.9E1,6E0,1.6E1,3.6E1,6E0,5.4E1,3.6E1,4.6E1,2.8E1,4.1E1,8E0,8E0,8E0,2.8E1],"tree_param":{"num_deleted":"0","num_feature":"36","num_nodes":"33","size_leaf_vector":"1"}},{"base_weights":[2.321261E4,3.2604334E4,1.9186607E4,9.0465906E2,2.149357E4,2.4036955E4,9.925282E3,2.524132E4,9.990212E3,1.6309503E4,2.4931203E4,6.478139E3,1.4781706E4,8.987752E1,2.6412898E4,5.4127944E3,1.752641E4,2.0203861E4,1.080859E4,1.8816168E2,2.5287504E4,2.9459048E2,5.1986196E3,1.67888E4,4.497212E3,5.8318494E2,2.9896545E2,2.4363674E1,1.3219458E2,4.3609564E2,1.9485472E2,4.3935565E2,2.315374E2,2.4924884E2,1.00167496E2,4.974012E2,7.903164E2,2.80072E2,8.4877075E1,4.5849414E2,2.7358887E2,5.712265E1,1.17905205E2],"categories":[],"categories_nodes":[],"categories_segments":[],"categories_sizes":[],"default_left":[0,0,0,0,0,0,0,0,0,0,0,0,0,0,0,0,0,0,0,0,0,0,0,0,0,0,0,0,0,0,0,0,0,0,0,0,0,0,0,0,0,0,0],"id":12,"left_children":[1,3,5,-1,7,9,11,13,15,17,19,21,23,-1,25,27,29,31,33,-1,35,-1,37,39,41,-1,-1,-1,-1,-1,-1,-1,-1,-1,-1,-1,-1,-1,-1,-1,-1,-1,-1],"loss_changes":[2.160735E10,2.358267E10,1.835855E10,0E0,3.8434406E9,1.4660731E9,2.3149138E9,1.6071188E9,7.675392E8,4.4572006E8,1.0950246E9,8.313961E8,1.1423703E9,0E0,1.6736625E9,7.729888E7,8.727194E7,4.372992E6,8.147226E7,0E0,4.1300787E8,0E0,5.794774E8,6.212567E8,8.39888E6,0E0,0E0,0E0,0E0,0E0,0E0,0E0,0E0,0E0,0E0,0E0,0E0,0E0,0E0,0E0,0E0,0E0,0E0],"parents":[2147483647,0,0,1,1,2,2,4,4,5,5,6,6,7,7,8,8,9,9,10,10,11,11,12,12,14,14,15,15,16,16,17,17,18,18,20,20,22,22,23,23,24,24],"right_children":[2,4,6,-1,8,10,12,14,16,18,20,22,24,-1,26,28,30,32,34,-1,36,-1,38,40,42,-1,-1,-1,-1,-1,-1,-1,-1,-1,-1,-1,-1,-1,-1,-1,-1,-1,-1],"split_conditions":[-3.4117407E-1,8.263623E-1,-1.8575627E-1,9.0465906E2,9.1119766E-2,-1.0654067E0,9.5615107E-1,5.4406536E-1,-1.1576526E-1,-7.55775E-1,-1.7472166E0,-6.313397E-2,1.4694535E0,8.987752E1,8.8033855E-1,-1.11546114E-1,-3.160007E-2,6.9187725E-1,-6.029415E-1,1.8816168E2,-7.35093E-2,2.9459048E2,-1.0202638E0,-1.0668098E0,5.27798E-1,5.8318494E2,2.9896545E2,2.4363674E1,1.3219458E2,4.3609564E2,1.9485472E2,4.3935565E2,2.315374E2,2.4924884E2,1.00167496E2,4.974012E2,7.903164E2,2.80072E2,8.4877075E1,4.5849414E2,2.7358887E2,5.712265E1,1.17905205E2],"split_indices":[3,32,32,0,11,26,26,5,8,8,35,32,28,0,27,0,0,3,14,0,0,0,28,33,14,0,0,0,0,0,0,0,0,0,0,0,0,0,0,0,0,0,0],"split_type":[0,0,0,0,0,0,0,0,0,0,0,0,0,0,0,0,0,0,0,0,0,0,0,0,0,0,0,0,0,0,0,0,0,0,0,0,0,0,0,0,0,0,0],"sum_hessian":[5.87E2,1.74E2,4.13E2,8E1,9.4E1,2.7E2,1.43E2,7E1,2.4E1,3E1,2.4E2,8.5E1,5.8E1,4E0,6.6E1,1.6E1,8E0,1.6E1,1.4E1,6E0,2.34E2,1E1,7.5E1,4.8E1,1E1,5.2E1,1.4E1,4E0,1.2E1,4E0,4E0,1.2E1,4E0,1E1,4E0,2.3E2,4E0,6E0,6.9E1,1.4E1,3.4E1,6E0,4E0],"tree_param":{"num_deleted":"0","num_feature":"36","num_nodes":"43","size_leaf_vector":"1"}},{"base_weights":[2.288321E4,1.8758838E4,3.2703684E4,2.3067018E4,8.165742E3,8.759488E2,2.2666994E4,2.2378314E4,8.6156323E2,6.278977E3,1.721072E4,1.3758628E4,2.582437E4,2.495963E4,1.65032E4,8.394945E3,1.4079227E3,2.3520288E2,4.634292E2,1.0905567E2,1.5872065E4,1.2710528E4,2.8362184E4,5.0287506E2,2.5279153E2,2.531255E2,3.884618E2,2.1327116E2,8.269901E1,1.6229609E1,9.171367E1,4.4215994E2,2.3807639E2,3.63014E2,1.0909104E2,3.6321152E2,6.135809E2],"categories":[],"categories_nodes":[],"categories_segments":[],"categories_sizes":[],"default_left":[0,0,0,0,0,0,0,0,0,0,0,0,0,0,0,0,0,0,0,0,0,0,0,0,0,0,0,0,0,0,0,0,0,0,0,0,0],"id":13,"left_children":[1,3,5,7,9,-1,11,13,-1,15,17,19,21,23,25,27,29,-1,-1,-1,31,33,35,-1,-1,-1,-1,-1,-1,-1,-1,-1,-1,-1,-1,-1,-1],"loss_changes":[2.3809982E10,1.9298615E10,1.871523E10,3.2118538E9,2.0251505E9,0E0,2.316755E9,4.061905E9,0E0,1.07041485E9,4.0977613E8,3.874053E8,1.9358515E9,1.4268006E8,7.988019E8,6.613975E8,5.882485E7,0E0,0E0,0E0,2.5648742E8,4.141527E8,7.9008154E8,0E0,0E0,0E0,0E0,0E0,0E0,0E0,0E0,0E0,0E0,0E0,0E0,0E0,0E0],"parents":[2147483647,0,0,1,1,2,2,3,3,4,4,6,6,7,7,9,9,10,10,11,11,12,12,13,13,14,14,15,15,16,16,20,20,21,21,22,22],"right_children":[2,4,6,8,10,-1,12,14,-1,16,18,20,22,24,26,28,30,-1,-1,-1,32,34,36,-1,-1,-1,-1,-1,-1,-1,-1,-1,-1,-1,-1,-1,-1],"split_conditions":[1.4013876E-1,8.392915E-2,8.263622E-1,-7.003392E-2,6.506503E-1,8.759488E2,-9.029098E-1,-6.21695E-1,8.6156323E2,8.438401E-1,1.3373042E0,-2.715754E-1,-2.2331023E-1,1.0834912E0,-7.7302344E-2,5.125335E-1,1.0828325E0,2.3520288E2,4.634292E2,1.0905567E2,1.0611252E0,1.1565365E0,1.1293079E-1,5.0287506E2,2.5279153E2,2.531255E2,3.884618E2,2.1327116E2,8.269901E1,1.6229609E1,9.171367E1,4.4215994E2,2.3807639E2,3.63014E2,1.0909104E2,3.6321152E2,6.135809E2],"split_indices":[2,31,31,0,4,0,30,31,0,27,25,23,34,28,22,23,28,0,0,0,7,4,18,0,0,0,0,0,0,0,0,0,0,0,0,0,0],"split_type":[0,0,0,0,0,0,0,0,0,0,0,0,0,0,0,0,0,0,0,0,0,0,0,0,0,0,0,0,0,0,0,0,0,0,0,0,0],"sum_hessian":[6.02E2,4.26E2,1.76E2,3.02E2,1.24E2,8.2E1,9.4E1,2.94E2,8E0,1.04E2,2E1,2.6E1,6.8E1,2.02E2,9.2E1,7.2E1,3.2E1,1.2E1,8E0,6E0,2E1,1.2E1,5.6E1,1.98E2,4E0,4.2E1,5E1,4.6E1,2.6E1,2.8E1,4E0,6E0,1.4E1,6E0,6E0,1.2E1,4.4E1],"tree_param":{"num_deleted":"0","num_feature":"36","num_nodes":"37","size_leaf_vector":"1"}},{"base_weights":[2.28746E4,3.410417E4,1.8248096E4,8.8835834E2,2.3146521E4,2.2676494E4,8.627211E3,6.043306E3,2.5875223E4,1.3190412E4,2.3651088E4,5.1399165E3,1.45717E4,2.0195717E1,1.6336432E2,9.18611E1,2.7042404E4,1.5992909E4,1.0371277E2,2.3074203E4,8.224528E2,3.5519998E3,1.378344E4,1.6504762E4,4.14644E3,3.039723E2,5.669306E2,3.5128564E2,2.0681926E2,4.899101E2,3.2646957E2,1.2224094E2,2.9119213E1,1.173499E2,3.9460617E2,2.7711774E2,4.4938657E2,1.0569418E2,4.3577255E1],"categories":[],"categories_nodes":[],"categories_segments":[],"categories_sizes":[],"default_left":[0,0,0,0,0,0,0,0,0,0,0,0,0,0,0,0,0,0,0,0,0,0,0,0,0,0,0,0,0,0,0,0,0,0,0,0,0,0,0],"id":14,"left_children":[1,3,5,-1,7,9,11,13,15,17,19,21,23,-1,-1,-1,25,27,-1,29,-1,31,33,35,37,-1,-1,-1,-1,-1,-1,-1,-1,-1,-1,-1,-1,-1,-1],"loss_changes":[3.00303E10,1.8297324E10,1.7698505E10,0E0,3.8105375E9,2.341372E9,2.7029453E9,1.3079613E8,1.6891208E9,5.676319E8,1.6615997E9,1.1314063E9,9.190431E8,0E0,0E0,0E0,6.3492915E8,4.873216E6,0E0,2.0276347E9,0E0,3.881813E8,4.9620582E8,3.3643827E8,8.64128E6,0E0,0E0,0E0,0E0,0E0,0E0,0E0,0E0,0E0,0E0,0E0,0E0,0E0,0E0],"parents":[2147483647,0,0,1,1,2,2,4,4,5,5,6,6,7,7,8,8,9,9,10,10,11,11,12,12,16,16,17,17,19,19,21,21,22,22,23,23,24,24],"right_children":[2,4,6,-1,8,10,12,14,16,18,20,22,24,-1,-1,-1,26,28,-1,30,-1,32,34,36,38,-1,-1,-1,-1,-1,-1,-1,-1,-1,-1,-1,-1,-1,-1],"split_conditions":[-3.4117407E-1,6.277735E-1,5.164311E-2,8.8835834E2,-2.5682676E-1,-1.0790887E0,9.672553E-1,1.4386573E-1,-2.4912927E0,-7.452299E-1,-5.578987E-1,6.506503E-1,1.4694535E0,2.0195717E1,1.6336432E2,9.18611E1,-4.3114665E-1,-7.55775E-1,1.0371277E2,-5.0213414E-1,8.224528E2,-5.463865E-1,-8.192584E-2,-7.547673E-2,-6.364171E-1,3.039723E2,5.669306E2,3.5128564E2,2.0681926E2,4.899101E2,3.2646957E2,1.2224094E2,2.9119213E1,1.173499E2,3.9460617E2,2.7711774E2,4.4938657E2,1.0569418E2,4.3577255E1],"split_indices":[3,32,32,0,23,26,26,7,3,8,2,4,28,0,0,0,22,8,0,32,0,7,16,22,2,0,0,0,0,0,0,0,0,0,0,0,0,0,0],"split_type":[0,0,0,0,0,0,0,0,0,0,0,0,0,0,0,0,0,0,0,0,0,0,0,0,0,0,0,0,0,0,0,0,0,0,0,0,0,0,0],"sum_hessian":[5.89E2,1.7E2,4.19E2,8.6E1,8.4E1,2.86E2,1.33E2,1.2E1,7.2E1,2.8E1,2.58E2,8.5E1,4.8E1,4E0,8E0,4E0,6.8E1,2E1,8E0,2.52E2,6E0,7.3E1,1.2E1,4E1,8E0,8E0,6E1,1.4E1,6E0,2.06E2,4.6E1,3.2E1,4.1E1,6E0,6E0,3E1,1E1,4E0,4E0],"tree_param":{"num_deleted":"0","num_feature":"36","num_nodes":"39","size_leaf_vector":"1"}},{"base_weights":[2.143346E4,3.0877865E4,1.7773873E4,8.577606E2,2.1071123E4,2.2364277E4,7.918342E3,5.9473726E3,2.3611678E4,1.2437658E4,2.3257566E4,5.4036846E3,1.7530498E4,1.9872583E1,7.6583945E3,2.6832273E4,1.6176695E4,1.6557375E4,1.3454776E2,2.272456E4,8.083536E2,3.1383552E3,1.0427186E4,7.142984E1,1.9621074E4,1.908291E2,1.0438561E2,6.416851E2,4.0394922E2,3.7681116E2,1.1748269E2,3.8864124E2,2.0991988E2,4.839865E2,3.309279E2,1.1538604E2,2.888798E1,4.1660666E2,1.6825789E2,4.827435E2,2.3358022E2],"categories":[],"categories_nodes":[],"categories_segments":[],"categories_sizes":[],"default_left":[0,0,0,0,0,0,0,0,0,0,0,0,0,0,0,0,0,0,0,0,0,0,0,0,0,0,0,0,0,0,0,0,0,0,0,0,0,0,0,0,0],"id":15,"left_children":[1,3,5,-1,7,9,11,13,15,17,19,21,23,-1,25,27,29,31,-1,33,-1,35,37,-1,39,-1,-1,-1,-1,-1,-1,-1,-1,-1,-1,-1,-1,-1,-1,-1,-1],"loss_changes":[2.0534362E10,1.9001213E10,1.981938E10,0E0,3.5097272E9,2.3798088E9,3.3375887E9,1.1952899E8,1.505493E9,5.2377626E8,1.5967683E9,1.2645816E9,7.762104E8,0E0,7.21984E5,1.2684984E9,6.3032986E8,5.740672E7,0E0,2.0505395E9,0E0,3.482028E8,5.5817754E8,0E0,6.1477786E8,0E0,0E0,0E0,0E0,0E0,0E0,0E0,0E0,0E0,0E0,0E0,0E0,0E0,0E0,0E0,0E0],"parents":[2147483647,0,0,1,1,2,2,4,4,5,5,6,6,7,7,8,8,9,9,10,10,11,11,12,12,14,14,15,15,16,16,17,17,19,19,21,21,22,22,24,24],"right_children":[2,4,6,-1,8,10,12,14,16,18,20,22,24,-1,26,28,30,32,-1,34,-1,36,38,-1,40,-1,-1,-1,-1,-1,-1,-1,-1,-1,-1,-1,-1,-1,-1,-1,-1],"split_conditions":[-3.4117407E-1,8.263622E-1,5.1643237E-2,8.577606E2,-2.5682676E-1,-1.0960424E0,6.506503E-1,-1.11546114E-1,1.9527273E-1,-2.5395697E-1,-7.003392E-2,9.5615107E-1,8.938142E-1,1.9872583E1,-5.1572133E-2,9.255885E-1,1.23263724E-1,9.8963755E-1,1.3454776E2,-5.436569E-1,8.083536E2,-5.463865E-1,-1.0568697E0,7.142984E1,1.3187482E0,1.908291E2,1.0438561E2,6.416851E2,4.0394922E2,3.7681116E2,1.1748269E2,3.8864124E2,2.0991988E2,4.839865E2,3.309279E2,1.1538604E2,2.888798E1,4.1660666E2,1.6825789E2,4.827435E2,2.3358022E2],"split_indices":[3,31,31,0,23,26,4,0,8,0,0,26,15,0,21,34,19,27,0,31,0,7,14,0,31,0,0,0,0,0,0,0,0,0,0,0,0,0,0,0,0],"split_type":[0,0,0,0,0,0,0,0,0,0,0,0,0,0,0,0,0,0,0,0,0,0,0,0,0,0,0,0,0,0,0,0,0,0,0,0,0,0,0,0,0],"sum_hessian":[6.09E2,1.68E2,4.41E2,7.4E1,9.4E1,3E2,1.41E2,1.4E1,8E1,2.6E1,2.74E2,1.13E2,2.8E1,4E0,1E1,5.4E1,2.6E1,1.4E1,1.2E1,2.68E2,6E0,7.9E1,3.4E1,4E0,2.4E1,4E0,6E0,2.8E1,2.6E1,2E1,6E0,8E0,6E0,2.14E2,5.4E1,3E1,4.9E1,4E0,3E1,1.4E1,1E1],"tree_param":{"num_deleted":"0","num_feature":"36","num_nodes":"41","size_leaf_vector":"1"}},{"base_weights":[2.2024248E4,3.1111906E4,1.8062664E4,8.5161005E2,2.145076E4,2.2506248E4,9.333262E3,1.4456784E4,2.6528762E4,1.2060797E4,2.3480248E4,7.498398E3,1.9286375E4,1.01548874E2,1.7145145E4,2.799936E4,1.2445767E2,3.0197083E2,1.3643942E2,2.2906223E4,7.9449615E2,1.3388138E4,4.9849937E3,4.823145E2,2.033541E2,2.5072765E2,5.0445972E2,3.95941E2,5.903413E2,4.77849E2,3.2051477E2,1.6182596E2,3.159981E2,5.9806698E1,1.8318117E2],"categories":[],"categories_nodes":[],"categories_segments":[],"categories_sizes":[],"default_left":[0,0,0,0,0,0,0,0,0,0,0,0,0,0,0,0,0,0,0,0,0,0,0,0,0,0,0,0,0,0,0,0,0,0,0],"id":16,"left_children":[1,3,5,-1,7,9,11,13,15,17,19,21,23,-1,25,27,-1,-1,-1,29,-1,31,33,-1,-1,-1,-1,-1,-1,-1,-1,-1,-1,-1,-1],"loss_changes":[2.0354892E10,1.847658E10,1.5577399E10,0E0,3.0614692E9,2.453594E9,2.3938816E9,9.9719066E8,1.468158E9,2.9485107E8,1.3746258E9,1.6948511E9,6.795781E8,0E0,9.1234304E8,5.0528256E7,0E0,0E0,0E0,1.2388844E9,0E0,3.1927245E8,6.803062E8,0E0,0E0,0E0,0E0,0E0,0E0,0E0,0E0,0E0,0E0,0E0,0E0],"parents":[2147483647,0,0,1,1,2,2,4,4,5,5,6,6,7,7,8,8,9,9,10,10,11,11,12,12,14,14,15,15,19,19,21,21,22,22],"right_children":[2,4,6,-1,8,10,12,14,16,18,20,22,24,-1,26,28,-1,-1,-1,30,-1,32,34,-1,-1,-1,-1,-1,-1,-1,-1,-1,-1,-1,-1],"split_conditions":[-3.4117407E-1,6.80325E-1,-1.8316418E-1,8.5161005E2,5.853083E-1,-1.0939603E0,6.627209E-1,-1.012067E0,3.218006E0,-2.51217E-1,-7.003392E-2,4.4883946E-1,1.3187482E0,1.01548874E2,1.2557139E0,-9.343732E-1,1.2445767E2,3.0197083E2,1.3643942E2,-5.08382E-1,7.9449615E2,-1.0945709E-1,9.158984E-1,4.823145E2,2.033541E2,2.5072765E2,5.0445972E2,3.95941E2,5.903413E2,4.77849E2,3.2051477E2,1.6182596E2,3.159981E2,5.9806698E1,1.8318117E2],"split_indices":[3,31,31,0,20,26,4,26,8,0,0,31,31,0,34,11,0,0,0,31,0,13,26,0,0,0,0,0,0,0,0,0,0,0,0],"split_type":[0,0,0,0,0,0,0,0,0,0,0,0,0,0,0,0,0,0,0,0,0,0,0,0,0,0,0,0,0,0,0,0,0,0,0],"sum_hessian":[5.8E2,1.74E2,4.06E2,7.8E1,9.6E1,2.68E2,1.38E2,4.2E1,5.4E1,2.4E1,2.44E2,1.18E2,2E1,1E1,3.2E1,5E1,4E0,1.4E1,1E1,2.38E2,6E0,3.4E1,8.4E1,1.2E1,8E0,2.2E1,1E1,1E1,4E1,2.06E2,3.2E1,1.2E1,2.2E1,5.8E1,2.6E1],"tree_param":{"num_deleted":"0","num_feature":"36","num_nodes":"35","size_leaf_vector":"1"}},{"base_weights":[2.1547098E4,3.0817414E4,1.7537701E4,8.3337036E2,2.0801723E4,2.2781502E4,1.0710724E4,4.2277695E3,2.2747646E4,2.304469E4,1.3728988E4,8.113938E3,1.5643568E4,1.0604845E2,3.755363E1,7.1586353E3,2.4315025E4,1.9615264E4,4.784494E2,1.2292997E2,3.713132E2,1.2435318E4,5.2596284E3,1.8067525E4,7.005592E3,6.9662285E1,1.880482E2,5.2332263E2,2.6947757E2,2.0654422E2,4.0372012E2,1.4080879E2,2.7406216E2,7.3925156E1,2.7754895E2,3.9933725E2,1.565909E2,1.8824533E2,5.820965E1],"categories":[],"categories_nodes":[],"categories_segments":[],"categories_sizes":[],"default_left":[0,0,0,0,0,0,0,0,0,0,0,0,0,0,0,0,0,0,0,0,0,0,0,0,0,0,0,0,0,0,0,0,0,0,0,0,0,0,0],"id":17,"left_children":[1,3,5,-1,7,9,11,13,15,17,19,21,23,-1,-1,25,27,29,-1,-1,-1,31,33,35,37,-1,-1,-1,-1,-1,-1,-1,-1,-1,-1,-1,-1,-1,-1],"loss_changes":[2.1165867E10,1.8152456E10,1.4433706E10,0E0,2.9032284E9,2.339799E8,2.1787853E9,1.7823824E7,1.8539438E9,2.020393E8,2.1595008E8,1.414739E9,1.1506473E9,0E0,0E0,4.1472416E7,1.1525489E9,6.188851E7,0E0,0E0,0E0,2.2498253E8,9.456942E8,7.575992E8,1.2043846E8,0E0,0E0,0E0,0E0,0E0,0E0,0E0,0E0,0E0,0E0,0E0,0E0,0E0,0E0],"parents":[2147483647,0,0,1,1,2,2,4,4,5,5,6,6,7,7,8,8,9,9,10,10,11,11,12,12,15,15,16,16,17,17,21,21,22,22,23,23,24,24],"right_children":[2,4,6,-1,8,10,12,14,16,18,20,22,24,-1,-1,26,28,30,-1,-1,-1,32,34,36,38,-1,-1,-1,-1,-1,-1,-1,-1,-1,-1,-1,-1,-1,-1],"split_conditions":[-3.048051E-1,6.80325E-1,-5.021341E-1,8.3337036E2,-1.0309044E0,-1.0689619E-1,9.5615107E-1,6.630502E-2,-5.0194246E-1,-1.0981811E-1,-2.461691E-1,-6.313403E-2,1.1685419E0,1.0604845E2,3.755363E1,-1.4200276E0,9.022704E-1,-1.0960424E0,4.784494E2,1.2292997E2,3.713132E2,-1.0967364E0,6.506503E-1,1.5797976E0,1.6513383E0,6.9662285E1,1.880482E2,5.2332263E2,2.6947757E2,2.0654422E2,4.0372012E2,1.4080879E2,2.7406216E2,7.3925156E1,2.7754895E2,3.9933725E2,1.565909E2,1.8824533E2,5.820965E1],"split_indices":[3,31,31,0,26,13,26,13,34,13,0,31,8,0,0,3,27,26,0,0,0,26,4,29,8,0,0,0,0,0,0,0,0,0,0,0,0,0,0],"split_type":[0,0,0,0,0,0,0,0,0,0,0,0,0,0,0,0,0,0,0,0,0,0,0,0,0,0,0,0,0,0,0,0,0,0,0,0,0,0,0],"sum_hessian":[5.83E2,1.74E2,4.09E2,8.2E1,9.2E1,2.3E2,1.79E2,1E1,8.2E1,2.22E2,8E0,1.19E2,6E1,6E0,4E0,8E0,7.4E1,5E1,1.72E2,4E0,4E0,4.6E1,7.3E1,4.6E1,1.4E1,4E0,4E0,6.2E1,1.2E1,4E0,4.6E1,1E1,3.6E1,6.3E1,1E1,3.8E1,8E0,8E0,6E0],"tree_param":{"num_deleted":"0","num_feature":"36","num_nodes":"39","size_leaf_vector":"1"}},{"base_weights":[2.0491705E4,3.0824312E4,1.7099611E4,8.000243E2,2.0470895E4,2.1609338E4,8.971587E3,6.069743E2,1.761262E4,2.0665072E4,8.1587115E2,6.851638E3,1.811937E4,1.8581953E4,6.854769E1,2.269076E4,1.5044392E4,8.636912E3,2.5653696E3,4.3620865E2,6.6733696E3,2.5237714E2,4.325779E2,4.5732718E2,2.1905945E2,4.114264E2,2.6152515E2,3.0292798E2,1.4328186E2,1.7133116E2,1.8027294E1,7.068201E1,1.695589E2],"categories":[],"categories_nodes":[],"categories_segments":[],"categories_sizes":[],"default_left":[0,0,0,0,0,0,0,0,0,0,0,0,0,0,0,0,0,0,0,0,0,0,0,0,0,0,0,0,0,0,0,0,0],"id":18,"left_children":[1,3,5,-1,7,9,11,-1,13,15,-1,17,19,21,-1,23,25,27,29,-1,31,-1,-1,-1,-1,-1,-1,-1,-1,-1,-1,-1,-1],"loss_changes":[2.1063188E10,1.3528007E10,1.6887431E10,0E0,1.5265239E9,4.5733806E9,3.1338435E9,0E0,7.4757325E8,2.926338E9,0E0,1.03384115E9,1.1641354E9,7.2637235E8,0E0,1.803223E8,5.903401E8,8.2145485E8,4.1168976E8,0E0,2.1022304E7,0E0,0E0,0E0,0E0,0E0,0E0,0E0,0E0,0E0,0E0,0E0,0E0],"parents":[2147483647,0,0,1,1,2,2,4,4,5,5,6,6,8,8,9,9,11,11,12,12,13,13,15,15,16,16,17,17,18,18,20,20],"right_children":[2,4,6,-1,8,10,12,-1,14,16,-1,18,20,22,-1,24,26,28,30,-1,32,-1,-1,-1,-1,-1,-1,-1,-1,-1,-1,-1,-1],"split_conditions":[-6.4957446E-1,8.263622E-1,-1.0119466E-1,8.000243E2,-1.3047214E-2,-7.35093E-2,7.478615E-1,6.069743E2,2.3843564E-1,-6.21695E-1,8.1587115E2,8.438401E-1,1.4426423E0,8.571052E-2,6.854769E1,1.0834912E0,-1.0925707E0,-6.178156E-1,-6.174523E-1,4.3620865E2,1.1817681E0,2.5237714E2,4.325779E2,4.5732718E2,2.1905945E2,4.114264E2,2.6152515E2,3.0292798E2,1.4328186E2,1.7133116E2,1.8027294E1,7.068201E1,1.695589E2],"split_indices":[3,31,31,0,13,0,4,0,0,31,0,27,31,21,0,28,20,28,2,0,14,0,0,0,0,0,0,0,0,0,0,0,0],"split_type":[0,0,0,0,0,0,0,0,0,0,0,0,0,0,0,0,0,0,0,0,0,0,0,0,0,0,0,0,0,0,0,0,0],"sum_hessian":[6.15E2,1.5E2,4.65E2,7.8E1,7.2E1,2.98E2,1.67E2,1.4E1,5.8E1,2.86E2,1.2E1,1.37E2,3E1,5.4E1,4E0,2.08E2,7.8E1,9.6E1,4.1E1,2.2E1,8E0,2E1,3.4E1,2.04E2,4E0,1.8E1,6E1,1.6E1,8E1,8E0,3.3E1,4E0,4E0],"tree_param":{"num_deleted":"0","num_feature":"36","num_nodes":"33","size_leaf_vector":"1"}},{"base_weights":[2.0343188E4,3.014685E4,1.6002138E4,8.0780396E2,2.1024885E4,2.128857E4,8.415151E3,5.673412E3,2.3030998E4,1.5185121E2,2.1479629E4,5.346975E3,1.3372648E4,7.600848E1,1.3471797E2,6.885663E3,2.454059E4,4.6328198E2,1.965027E4,9.082587E3,3.1144795E3,1.5021104E4,3.6149495E3,6.745092E1,1.8043254E2,2.466084E2,5.217332E2,4.1100156E2,2.5450005E2,2.5278253E2,1.3540672E2,2.4972101E2,4.114633E1,2.4490353E2,4.395469E2,4.0703354E1,1.0207267E2],"categories":[],"categories_nodes":[],"categories_segments":[],"categories_sizes":[],"default_left":[0,0,0,0,0,0,0,0,0,0,0,0,0,0,0,0,0,0,0,0,0,0,0,0,0,0,0,0,0,0,0,0,0,0,0,0,0],"id":19,"left_children":[1,3,5,-1,7,9,11,13,15,-1,17,19,21,-1,-1,23,25,-1,27,29,31,33,35,-1,-1,-1,-1,-1,-1,-1,-1,-1,-1,-1,-1,-1,-1],"loss_changes":[2.5605734E10,1.6623976E10,1.6947003E10,0E0,2.9798072E9,4.9371546E8,2.6207488E9,2.70016E5,2.0002079E9,0E0,3.0593843E8,8.974221E8,1.02340096E9,0E0,0E0,3.7107936E7,1.2074353E9,0E0,5.174231E8,2.51595E8,6.777274E8,8.315515E8,1.5482304E7,0E0,0E0,0E0,0E0,0E0,0E0,0E0,0E0,0E0,0E0,0E0,0E0,0E0,0E0],"parents":[2147483647,0,0,1,1,2,2,4,4,5,5,6,6,7,7,8,8,10,10,11,11,12,12,15,15,16,16,18,18,19,19,20,20,21,21,22,22],"right_children":[2,4,6,-1,8,10,12,14,16,-1,18,20,22,-1,-1,24,26,-1,28,30,32,34,36,-1,-1,-1,-1,-1,-1,-1,-1,-1,-1,-1,-1,-1,-1],"split_conditions":[-2.84831E-1,6.80325E-1,-4.0053836E-1,8.0780396E2,-1.010084E0,-1.7472166E0,9.5615107E-1,1.1172776E0,-5.0194246E-1,1.5185121E2,-1.3047009E0,5.294151E-1,1.4694535E0,7.600848E1,1.3471797E2,-1.4200276E0,-4.3114665E-1,4.6328198E2,8.4923446E-2,-6.623503E-1,-1.0202638E0,7.7776186E-2,5.27798E-1,6.745092E1,1.8043254E2,2.466084E2,5.217332E2,4.1100156E2,2.5450005E2,2.5278253E2,1.3540672E2,2.4972101E2,4.114633E1,2.4490353E2,4.395469E2,4.0703354E1,1.0207267E2],"split_indices":[3,31,31,0,26,35,26,5,34,0,25,31,28,0,0,3,22,0,22,15,28,19,14,0,0,0,0,0,0,0,0,0,0,0,0,0,0],"split_type":[0,0,0,0,0,0,0,0,0,0,0,0,0,0,0,0,0,0,0,0,0,0,0,0,0,0,0,0,0,0,0,0,0,0,0,0,0],"sum_hessian":[6.12E2,1.86E2,4.26E2,8.6E1,1E2,2.5E2,1.76E2,1.2E1,8.8E1,4E0,2.46E2,1.1E2,6.6E1,6E0,6E0,8E0,8E1,1.22E2,1.24E2,4E1,7E1,5.6E1,1E1,4E0,4E0,1E1,7E1,1.08E2,1.6E1,1.4E1,2.6E1,6E0,6.4E1,4.2E1,1.4E1,6E0,4E0],"tree_param":{"num_deleted":"0","num_feature":"36","num_nodes":"37","size_leaf_vector":"1"}},{"base_weights":[1.9611021E4,2.9194887E4,1.644237E4,7.809559E2,2.0621342E4,2.1302527E4,7.835024E3,5.569702E3,2.2553963E4,2.027227E4,7.946396E2,3.9949373E3,1.304069E4,5.9694565E1,1.3240851E2,2.3870123E4,1.27167694E2,2.2043518E4,1.4924397E4,1.5066669E4,2.6126948E3,1.4489815E4,3.5556301E3,5.244778E2,2.3427187E2,2.3553204E2,4.436467E2,3.4162015E2,1.9855867E2,1.1876442E2,3.8869183E2,1.1643407E2,1.5470812E1,3.289117E2,1.6460675E2,4.000558E1,1.0043951E2],"categories":[],"categories_nodes":[],"categories_segments":[],"categories_sizes":[],"default_left":[0,0,0,0,0,0,0,0,0,0,0,0,0,0,0,0,0,0,0,0,0,0,0,0,0,0,0,0,0,0,0,0,0,0,0,0,0],"id":20,"left_children":[1,3,5,-1,7,9,11,13,15,17,-1,19,21,-1,-1,23,-1,25,27,29,31,33,35,-1,-1,-1,-1,-1,-1,-1,-1,-1,-1,-1,-1,-1,-1],"loss_changes":[1.8621415E10,1.2288303E10,1.9703792E10,0E0,2.3469507E9,4.9476403E9,3.406208E9,1.0115904E7,1.4469243E9,2.40853E9,0E0,1.5063196E9,9.5186534E8,0E0,0E0,1.6671539E9,0E0,4.5195264E7,6.385736E8,3.2318643E8,5.325655E8,6.3589786E8,1.504144E7,0E0,0E0,0E0,0E0,0E0,0E0,0E0,0E0,0E0,0E0,0E0,0E0,0E0,0E0],"parents":[2147483647,0,0,1,1,2,2,4,4,5,5,6,6,7,7,8,8,9,9,11,11,12,12,15,15,17,17,18,18,19,19,20,20,21,21,22,22],"right_children":[2,4,6,-1,8,10,12,14,16,18,-1,20,22,-1,-1,24,-1,26,28,30,32,34,36,-1,-1,-1,-1,-1,-1,-1,-1,-1,-1,-1,-1,-1,-1],"split_conditions":[-5.97252E-1,6.80325E-1,-1.0119466E-1,7.809559E2,-1.010084E0,-6.7834154E-2,9.4167596E-1,1.1172776E0,3.218006E0,-6.1914986E-1,7.946396E2,-1.0710164E0,1.4694535E0,5.9694565E1,1.3240851E2,9.022704E-1,1.27167694E2,-1.708201E0,3.6369875E-2,-2.0317964E-2,-5.463865E-1,1.5067497E0,5.27798E-1,5.244778E2,2.3427187E2,2.3553204E2,4.436467E2,3.4162015E2,1.9855867E2,1.1876442E2,3.8869183E2,1.1643407E2,1.5470812E1,3.289117E2,1.6460675E2,4.000558E1,1.0043951E2],"split_indices":[3,31,31,0,26,1,26,5,8,31,0,28,28,0,0,27,0,35,25,2,7,31,14,0,0,0,0,0,0,0,0,0,0,0,0,0,0],"split_type":[0,0,0,0,0,0,0,0,0,0,0,0,0,0,0,0,0,0,0,0,0,0,0,0,0,0,0,0,0,0,0,0,0,0,0,0,0],"sum_hessian":[6.28E2,1.54E2,4.74E2,7E1,8.4E1,3.02E2,1.72E2,1E1,7.4E1,2.88E2,1.4E1,1E2,7.2E1,4E0,6E0,6.8E1,6E0,2.14E2,7.4E1,1E1,9E1,6.2E1,1E1,5.6E1,1.2E1,4E0,2.1E2,5E1,2.4E1,4E0,6E0,3.2E1,5.8E1,4.6E1,1.6E1,6E0,4E0],"tree_param":{"num_deleted":"0","num_feature":"36","num_nodes":"37","size_leaf_vector":"1"}},{"base_weights":[1.939852E4,2.836436E4,1.5463461E4,7.7211835E2,1.9637205E4,2.0108553E4,6.716875E3,4.787561E3,2.154279E4,1.107179E4,2.0909371E4,3.802033E3,1.2034844E4,1.2128512E2,3.0639557E1,6.6541353E3,2.2897668E4,1.4705967E4,1.0219119E2,2.0397832E4,7.252928E2,1.4051181E4,2.7465994E3,1.6564111E4,7.0598374E3,6.433703E1,1.7521143E2,5.07104E2,2.6570337E2,3.6969623E2,2.0265712E2,4.3173312E2,3.1537622E2,1.1686419E2,3.8897794E2,1.14726295E2,1.3707923E1,3.6308258E2,1.8855486E2,1.8077751E2,6.719022E1],"categories":[],"categories_nodes":[],"categories_segments":[],"categories_sizes":[],"default_left":[0,0,0,0,0,0,0,0,0,0,0,0,0,0,0,0,0,0,0,0,0,0,0,0,0,0,0,0,0,0,0,0,0,0,0,0,0,0,0,0,0],"id":21,"left_children":[1,3,5,-1,7,9,11,13,15,17,19,21,23,-1,-1,25,27,29,-1,31,-1,33,35,37,39,-1,-1,-1,-1,-1,-1,-1,-1,-1,-1,-1,-1,-1,-1,-1,-1],"loss_changes":[2.1329822E10,1.595587E10,1.7375904E10,0E0,2.811474E9,1.802027E9,2.2948982E9,4.4741984E7,1.6833126E9,4.6655206E8,1.2789596E9,1.0323176E9,1.077313E9,0E0,0E0,3.698109E7,1.6238633E9,7.190912E7,0E0,1.0408755E9,0E0,2.850921E8,5.56847E8,1.3521254E8,1.673559E8,0E0,0E0,0E0,0E0,0E0,0E0,0E0,0E0,0E0,0E0,0E0,0E0,0E0,0E0,0E0,0E0],"parents":[2147483647,0,0,1,1,2,2,4,4,5,5,6,6,7,7,8,8,9,9,10,10,11,11,12,12,15,15,16,16,17,17,19,19,21,21,22,22,23,23,24,24],"right_children":[2,4,6,-1,8,10,12,14,16,18,20,22,24,-1,-1,26,28,30,-1,32,-1,34,36,38,40,-1,-1,-1,-1,-1,-1,-1,-1,-1,-1,-1,-1,-1,-1,-1,-1],"split_conditions":[-4.0433353E-1,6.80325E-1,-1.8316418E-1,7.7211835E2,-1.010084E0,-1.0960424E0,9.4167596E-1,-5.7541776E-1,-5.0194246E-1,-2.5395697E-1,-7.003392E-2,-1.0202638E0,7.8744346E-1,1.2128512E2,3.0639557E1,-1.4200276E0,8.806986E-1,-6.90679E-1,1.0219119E2,-6.563507E-1,7.252928E2,1.53823E-1,-5.522447E-1,1.3987051E0,-3.257104E-2,6.433703E1,1.7521143E2,5.07104E2,2.6570337E2,3.6969623E2,2.0265712E2,4.3173312E2,3.1537622E2,1.1686419E2,3.8897794E2,1.14726295E2,1.3707923E1,3.6308258E2,1.8855486E2,1.8077751E2,6.719022E1],"split_indices":[3,31,31,0,26,26,26,28,34,0,0,28,8,0,0,3,27,14,0,31,0,0,7,31,22,0,0,0,0,0,0,0,0,0,0,0,0,0,0,0,0],"split_type":[0,0,0,0,0,0,0,0,0,0,0,0,0,0,0,0,0,0,0,0,0,0,0,0,0,0,0,0,0,0,0,0,0,0,0,0,0,0,0,0,0],"sum_hessian":[6.16E2,1.86E2,4.3E2,8.4E1,1.02E2,2.8E2,1.5E2,1.2E1,9E1,2.4E1,2.56E2,9.8E1,5.2E1,8E0,4E0,8E0,8.2E1,1.4E1,1E1,2.5E2,6E0,8E0,9E1,2.6E1,2.6E1,4E0,4E0,6.4E1,1.8E1,6E0,8E0,1.96E2,5.4E1,4E0,4E0,3.6E1,5.4E1,2E1,6E0,1.6E1,1E1],"tree_param":{"num_deleted":"0","num_feature":"36","num_nodes":"41","size_leaf_vector":"1"}},{"base_weights":[1.9126756E4,2.8112482E4,1.5468572E4,7.4501855E2,1.8658164E4,1.9828482E4,7.561461E3,5.396284E3,2.0654867E4,1.2390925E4,2.0661432E4,4.5235923E3,1.207057E4,7.237365E1,1.2805948E2,6.5476694E3,2.2195588E4,6.3678356E1,1.3636999E4,2.0157193E4,7.100431E2,8.223421E3,2.3620164E3,1.5456253E4,8.07708E3,6.330764E1,1.7240805E2,3.4097543E2,5.4587335E2,1.3435349E2,2.9096564E2,4.2284003E2,3.0533353E2,2.7098593E2,1.2287107E2,2.4043605E2,2.2247246E1,3.3107098E2,1.8031552E2,1.26453094E2,3.187108E2],"categories":[],"categories_nodes":[],"categories_segments":[],"categories_sizes":[],"default_left":[0,0,0,0,0,0,0,0,0,0,0,0,0,0,0,0,0,0,0,0,0,0,0,0,0,0,0,0,0,0,0,0,0,0,0,0,0,0,0,0,0],"id":22,"left_children":[1,3,5,-1,7,9,11,13,15,17,19,21,23,-1,-1,25,27,-1,29,31,-1,33,35,37,39,-1,-1,-1,-1,-1,-1,-1,-1,-1,-1,-1,-1,-1,-1,-1,-1],"loss_changes":[1.9813958E10,1.4597374E10,1.5018762E10,0E0,2.2452593E9,1.4971863E9,2.1096929E9,9.2096E4,1.5282872E9,3.122299E8,1.177641E9,7.4833126E8,7.269591E8,0E0,0E0,3.5807136E7,1.345153E9,0E0,7.251507E7,8.668283E8,0E0,3.044562E8,7.350523E8,8.396902E7,3.2664218E8,0E0,0E0,0E0,0E0,0E0,0E0,0E0,0E0,0E0,0E0,0E0,0E0,0E0,0E0,0E0,0E0],"parents":[2147483647,0,0,1,1,2,2,4,4,5,5,6,6,7,7,8,8,9,9,10,10,11,11,12,12,15,15,16,16,18,18,19,19,21,21,22,22,23,23,24,24],"right_children":[2,4,6,-1,8,10,12,14,16,18,20,22,24,-1,-1,26,28,-1,30,32,-1,34,36,38,40,-1,-1,-1,-1,-1,-1,-1,-1,-1,-1,-1,-1,-1,-1,-1,-1],"split_conditions":[-4.0433353E-1,8.263622E-1,-2.8883624E-1,7.4501855E2,-1.010084E0,-1.0654067E0,9.4167596E-1,1.1172776E0,-5.0194246E-1,-2.892937E-1,-7.35093E-2,-4.5121804E-1,7.8744346E-1,7.237365E1,1.2805948E2,-1.4200276E0,6.6232157E-1,6.3678356E1,-8.073155E-1,-6.21695E-1,7.100431E2,-7.173546E-1,-1.0202638E0,1.3987051E0,1.7065963E0,6.330764E1,1.7240805E2,3.4097543E2,5.4587335E2,1.3435349E2,2.9096564E2,4.2284003E2,3.0533353E2,2.7098593E2,1.2287107E2,2.4043605E2,2.2247246E1,3.3107098E2,1.8031552E2,1.26453094E2,3.187108E2],"split_indices":[3,31,31,0,26,26,26,5,34,22,0,6,8,0,0,3,20,0,5,31,0,15,28,31,17,0,0,0,0,0,0,0,0,0,0,0,0,0,0,0,0],"split_type":[0,0,0,0,0,0,0,0,0,0,0,0,0,0,0,0,0,0,0,0,0,0,0,0,0,0,0,0,0,0,0,0,0,0,0,0,0,0,0,0,0],"sum_hessian":[6.15E2,1.76E2,4.39E2,8.8E1,8.8E1,2.82E2,1.57E2,1.2E1,7.6E1,3E1,2.52E2,9.5E1,6.2E1,6E0,6E0,8E0,6.8E1,4E0,2.6E1,2.46E2,6E0,3.4E1,6.1E1,3.2E1,3E1,4E0,4E0,3.6E1,3.2E1,4E0,2.2E1,2.02E2,4.4E1,8E0,2.6E1,6E0,5.5E1,2.6E1,6E0,2.6E1,4E0],"tree_param":{"num_deleted":"0","num_feature":"36","num_nodes":"41","size_leaf_vector":"1"}},{"base_weights":[1.8901654E4,1.5119015E4,2.7287562E4,1.9229988E4,6.272026E3,7.3996216E2,1.8820521E4,1.8754027E4,7.145051E2,4.3481416E3,1.2924808E4,4.6291265E3,2.0296703E4,2.0393842E4,1.3757384E4,6.5945513E3,1.1065408E3,2.8189035E1,1.6368196E4,1.2509665E2,2.854586E1,2.3050512E4,1.3424481E4,4.331575E2,3.7244824E2,1.8578322E2,3.2662366E2,1.6769646E2,7.0758835E1,1.1108819E2,1.074253E1,3.748403E2,1.6529753E2,4.9262073E2,2.095868E2,6.2397617E1,2.9896835E2],"categories":[],"categories_nodes":[],"categories_segments":[],"categories_sizes":[],"default_left":[0,0,0,0,0,0,0,0,0,0,0,0,0,0,0,0,0,0,0,0,0,0,0,0,0,0,0,0,0,0,0,0,0,0,0,0,0],"id":23,"left_children":[1,3,5,7,9,-1,11,13,-1,15,17,19,21,23,25,27,29,-1,31,-1,-1,33,35,-1,-1,-1,-1,-1,-1,-1,-1,-1,-1,-1,-1,-1,-1],"loss_changes":[1.900059E10,1.5300157E10,1.4843167E10,1.5989637E9,1.6844877E9,0E0,2.0637942E9,2.0382188E9,0E0,7.7187226E8,1.166484E9,4.8329376E7,1.4505574E9,6.913229E7,6.878167E8,3.1507968E8,1.1098657E8,0E0,2.8752026E8,0E0,0E0,1.03336755E9,4.087644E8,0E0,0E0,0E0,0E0,0E0,0E0,0E0,0E0,0E0,0E0,0E0,0E0,0E0,0E0],"parents":[2147483647,0,0,1,1,2,2,3,3,4,4,6,6,7,7,9,9,10,10,11,11,12,12,13,13,14,14,15,15,16,16,18,18,21,21,22,22],"right_children":[2,4,6,8,10,-1,12,14,-1,16,18,20,22,24,26,28,30,-1,32,-1,-1,34,36,-1,-1,-1,-1,-1,-1,-1,-1,-1,-1,-1,-1,-1,-1],"split_conditions":[1.1578836E-1,5.164311E-2,6.8032485E-1,-7.003392E-2,6.506503E-1,7.3996216E2,-1.010084E0,-6.2169504E-1,7.145051E2,7.39844E-1,8.938142E-1,-5.7541776E-1,2.6771826E-1,-1.2173312E0,-7.7302344E-2,5.125335E-1,-7.683662E-1,2.8189035E1,-5.615216E-2,1.2509665E2,2.854586E1,9.022704E-1,-2.4912927E0,4.331575E2,3.7244824E2,1.8578322E2,3.2662366E2,1.6769646E2,7.0758835E1,1.1108819E2,1.074253E1,3.748403E2,1.6529753E2,4.9262073E2,2.095868E2,6.2397617E1,2.9896835E2],"split_indices":[2,32,32,0,4,0,26,32,0,27,15,28,8,25,22,23,5,0,13,0,0,27,3,0,0,0,0,0,0,0,0,0,0,0,0,0,0],"split_type":[0,0,0,0,0,0,0,0,0,0,0,0,0,0,0,0,0,0,0,0,0,0,0,0,0,0,0,0,0,0,0,0,0,0,0,0,0],"sum_hessian":[6.11E2,4.23E2,1.88E2,2.88E2,1.35E2,8.6E1,1.02E2,2.82E2,6E0,1.06E2,2.9E1,1E1,9.2E1,2.1E2,7.2E1,6.2E1,4.4E1,7E0,2.2E1,6E0,4E0,6.4E1,2.8E1,1.16E2,9.4E1,2.8E1,4.4E1,3.8E1,2.4E1,4E0,4E1,1.6E1,6E0,5.6E1,8E0,4E0,2.4E1],"tree_param":{"num_deleted":"0","num_feature":"36","num_nodes":"37","size_leaf_vector":"1"}},{"base_weights":[1.8130938E4,2.68244E4,1.4448937E4,3.536999E4,1.7401305E4,1.8367412E4,5.5471055E3,7.485723E2,5.7598083E2,4.61809E3,1.972593E4,1.7770908E4,7.175737E2,2.4156523E3,1.0657425E4,1.1317993E2,2.8089125E1,6.259433E3,2.1240443E4,1.9879193E4,1.2328325E4,1.939763E2,1.9362504E3,6.9940527E3,1.5557759E4,5.9403793E1,1.659354E2,4.7361664E2,2.2403397E2,4.228072E2,3.6358112E2,3.333291E2,2.0696597E2,9.662603E1,9.596739E0,2.0381917E2,7.523665E1,3.7836694E2,2.1565639E2],"categories":[],"categories_nodes":[],"categories_segments":[],"categories_sizes":[],"default_left":[0,0,0,0,0,0,0,0,0,0,0,0,0,0,0,0,0,0,0,0,0,0,0,0,0,0,0,0,0,0,0,0,0,0,0,0,0,0,0],"id":24,"left_children":[1,3,5,7,9,11,13,-1,-1,15,17,19,-1,21,23,-1,-1,25,27,29,31,-1,33,35,37,-1,-1,-1,-1,-1,-1,-1,-1,-1,-1,-1,-1,-1,-1],"loss_changes":[1.9426198E10,1.4120739E10,1.5141372E10,2.071593E8,2.553643E9,2.5273958E9,2.1346217E9,0E0,0E0,4.2227904E7,1.3966828E9,3.1399117E9,0E0,2.7800234E8,8.067251E8,0E0,0E0,3.566755E7,1.376127E9,6.81001E7,5.576438E8,0E0,3.3920896E8,2.819881E8,1.3298278E8,0E0,0E0,0E0,0E0,0E0,0E0,0E0,0E0,0E0,0E0,0E0,0E0,0E0,0E0],"parents":[2147483647,0,0,1,1,2,2,3,3,4,4,5,5,6,6,9,9,10,10,11,11,13,13,14,14,17,17,18,18,19,19,20,20,22,22,23,23,24,24],"right_children":[2,4,6,8,10,12,14,-1,-1,16,18,20,-1,22,24,-1,-1,26,28,30,32,-1,34,36,38,-1,-1,-1,-1,-1,-1,-1,-1,-1,-1,-1,-1,-1,-1],"split_conditions":[-4.0433353E-1,8.263622E-1,8.392915E-2,3.3707687E-1,-1.010084E0,-7.003392E-2,9.4167596E-1,7.485723E2,5.7598083E2,-5.7541776E-1,-5.0194246E-1,-6.1914986E-1,7.175737E2,-1.0710164E0,5.252386E-1,1.1317993E2,2.8089125E1,-1.4200276E0,9.022704E-1,-1.0426325E0,-3.2113132E-1,1.939763E2,-5.463865E-1,-3.9762112E-1,1.3896801E0,5.9403793E1,1.659354E2,4.7361664E2,2.2403397E2,4.228072E2,3.6358112E2,3.333291E2,2.0696597E2,9.662603E1,9.596739E0,2.0381917E2,7.523665E1,3.7836694E2,2.1565639E2],"split_indices":[3,31,31,31,26,0,26,0,0,28,34,31,0,28,4,0,0,3,27,20,0,0,7,4,31,0,0,0,0,0,0,0,0,0,0,0,0,0,0],"split_type":[0,0,0,0,0,0,0,0,0,0,0,0,0,0,0,0,0,0,0,0,0,0,0,0,0,0,0,0,0,0,0,0,0,0,0,0,0,0,0],"sum_hessian":[6.18E2,1.82E2,4.36E2,9.4E1,8.8E1,3.02E2,1.34E2,6.8E1,2.6E1,1.4E1,7.4E1,2.94E2,8E0,8.4E1,5E1,1E1,4E0,8E0,6.6E1,2.1E2,8.4E1,4E0,8E1,3E1,2E1,4E0,4E0,5.2E1,1.4E1,1.14E2,9.6E1,2.4E1,6E1,2.6E1,5.4E1,1.4E1,1.6E1,1E1,1E1],"tree_param":{"num_deleted":"0","num_feature":"36","num_nodes":"39","size_leaf_vector":"1"}},{"base_weights":[1.784583E4,2.566149E4,1.4742743E4,7.092906E2,1.7327096E4,1.8641297E4,6.491302E3,4.6047144E3,1.908976E4,1.7926229E4,7.172691E2,3.3756155E3,1.1777185E4,1.1766947E2,2.76397E1,2.929854E3,2.0989883E4,1.9228615E4,1.2242242E4,1.3275476E4,2.274729E3,7.649529E3,1.6094173E4,1.17851585E2,-5.4752636E-1,2.6187393E2,4.6507397E2,1.23989655E2,3.8854776E2,3.0802393E2,1.895623E2,1.06635445E2,3.7128125E2,1.1260872E2,1.9863586E1,2.0432858E2,5.040742E1,4.210516E2,1.9795488E2],"categories":[],"categories_nodes":[],"categories_segments":[],"categories_sizes":[],"default_left":[0,0,0,0,0,0,0,0,0,0,0,0,0,0,0,0,0,0,0,0,0,0,0,0,0,0,0,0,0,0,0,0,0,0,0,0,0,0,0],"id":25,"left_children":[1,3,5,-1,7,9,11,13,15,17,-1,19,21,-1,-1,23,25,27,29,31,33,35,37,-1,-1,-1,-1,-1,-1,-1,-1,-1,-1,-1,-1,-1,-1,-1,-1],"loss_changes":[1.4585561E10,1.3601726E10,1.4161887E10,0E0,2.0649226E9,3.063931E9,2.331801E9,4.5442624E7,2.5177866E9,1.9187876E9,0E0,9.7247334E8,8.212941E8,0E0,0E0,8.777653E7,1.0361815E9,4.8817766E8,3.5173222E8,2.7911693E8,3.5564976E8,3.560645E8,5.5973376E8,0E0,0E0,0E0,0E0,0E0,0E0,0E0,0E0,0E0,0E0,0E0,0E0,0E0,0E0,0E0,0E0],"parents":[2147483647,0,0,1,1,2,2,4,4,5,5,6,6,7,7,8,8,9,9,11,11,12,12,15,15,16,16,17,17,18,18,19,19,20,20,21,21,22,22],"right_children":[2,4,6,-1,8,10,12,14,16,18,-1,20,22,-1,-1,24,26,28,30,32,34,36,38,-1,-1,-1,-1,-1,-1,-1,-1,-1,-1,-1,-1,-1,-1,-1,-1],"split_conditions":[-4.0433353E-1,6.80325E-1,5.1643237E-2,7.092906E2,-1.010084E0,-6.7834154E-2,9.4167596E-1,-5.7541776E-1,-5.0194246E-1,-5.021341E-1,7.172691E2,-1.0202638E0,4.2010078E-1,1.1766947E2,2.76397E1,3.363447E-1,4.5140097E-1,-1.7472166E0,-7.4767613E-1,1.5163647E-1,-4.9123466E-1,7.970496E-1,1.297966E0,1.17851585E2,-5.4752636E-1,2.6187393E2,4.6507397E2,1.23989655E2,3.8854776E2,3.0802393E2,1.895623E2,1.06635445E2,3.7128125E2,1.1260872E2,1.9863586E1,2.0432858E2,5.040742E1,4.210516E2,1.9795488E2],"split_indices":[3,31,31,0,26,1,26,28,34,31,0,28,29,0,0,1,20,35,6,1,6,31,31,0,0,0,0,0,0,0,0,0,0,0,0,0,0,0,0],"split_type":[0,0,0,0,0,0,0,0,0,0,0,0,0,0,0,0,0,0,0,0,0,0,0,0,0,0,0,0,0,0,0,0,0,0,0,0,0,0,0],"sum_hessian":[6.16E2,1.73E2,4.43E2,7.8E1,9.5E1,3E2,1.43E2,1.2E1,8.3E1,2.9E2,1E1,9.1E1,5.2E1,8E0,4E0,9E0,7.4E1,2.34E2,5.6E1,8E0,8.3E1,2.8E1,2.4E1,4E0,5E0,1.8E1,5.6E1,4E0,2.3E2,2.4E1,3.2E1,4E0,4E0,2.2E1,6.1E1,1.8E1,1E1,1.2E1,1.2E1],"tree_param":{"num_deleted":"0","num_feature":"36","num_nodes":"39","size_leaf_vector":"1"}},{"base_weights":[1.76545E4,1.4349036E4,2.5911604E4,1.7989072E4,6.4681743E3,3.417254E4,1.6427984E4,1.7429717E4,6.790353E2,2.630764E3,1.1942504E4,7.1842303E2,5.488186E2,1.06047705E4,2.1992541E4,1.8928104E4,1.1518895E4,4.908974E3,1.2485867E3,1.2838305E4,7.419748E1,1.5068338E4,3.8162112E3,1.647058E4,5.5039026E2,4.1070758E2,3.431247E2,1.6404294E2,3.0783502E2,1.2713619E2,4.8305717E1,1.7141719E0,6.6500206E1,2.8154456E2,1.4106741E2,1.2174432E2,3.5168192E2,1.1558692E2,1.2797237E1,3.645778E2,1.9694887E2],"categories":[],"categories_nodes":[],"categories_segments":[],"categories_sizes":[],"default_left":[0,0,0,0,0,0,0,0,0,0,0,0,0,0,0,0,0,0,0,0,0,0,0,0,0,0,0,0,0,0,0,0,0,0,0,0,0,0,0,0,0],"id":26,"left_children":[1,3,5,7,9,11,13,15,-1,17,19,-1,-1,21,23,25,27,29,31,33,-1,35,37,39,-1,-1,-1,-1,-1,-1,-1,-1,-1,-1,-1,-1,-1,-1,-1,-1,-1],"loss_changes":[1.6168075E10,1.2362318E10,1.2913705E10,2.0600914E9,2.8885888E9,8.544256E7,2.4238674E9,2.341544E9,0E0,2.5522797E8,3.727324E8,0E0,0E0,1.215144E9,7.980421E8,2.9985178E8,6.573153E8,9.65696E7,1.2768992E8,2.6622771E8,0E0,4.578176E8,1.0854221E8,8.833638E7,0E0,0E0,0E0,0E0,0E0,0E0,0E0,0E0,0E0,0E0,0E0,0E0,0E0,0E0,0E0,0E0,0E0],"parents":[2147483647,0,0,1,1,2,2,3,3,4,4,5,5,6,6,7,7,9,9,10,10,13,13,14,14,15,15,16,16,17,17,18,18,19,19,21,21,22,22,23,23],"right_children":[2,4,6,8,10,12,14,16,-1,18,20,-1,-1,22,24,26,28,30,32,34,-1,36,38,40,-1,-1,-1,-1,-1,-1,-1,-1,-1,-1,-1,-1,-1,-1,-1,-1,-1],"split_conditions":[1.4386573E-1,5.1643237E-2,8.263622E-1,-7.003392E-2,9.5615107E-1,3.3707687E-1,1.1733832E-1,-5.021341E-1,6.790353E2,-5.952155E-1,4.7453102E-1,7.1842303E2,5.488186E2,-1.3764288E-1,8.754097E-1,-4.4232473E-1,4.3395236E-2,1.2299427E-1,7.7300245E-1,1.5985698E0,7.419748E1,-1.7989387E-1,1.0078139E-2,8.581116E-1,5.5039026E2,4.1070758E2,3.431247E2,1.6404294E2,3.0783502E2,1.2713619E2,4.8305717E1,1.7141719E0,6.6500206E1,2.8154456E2,1.4106741E2,1.2174432E2,3.5168192E2,1.1558692E2,1.2797237E1,3.645778E2,1.9694887E2],"split_indices":[7,31,31,0,26,31,12,31,0,2,0,0,0,16,30,19,22,0,15,31,0,16,0,8,0,0,0,0,0,0,0,0,0,0,0,0,0,0,0,0,0],"split_type":[0,0,0,0,0,0,0,0,0,0,0,0,0,0,0,0,0,0,0,0,0,0,0,0,0,0,0,0,0,0,0,0,0,0,0,0,0,0,0,0,0],"sum_hessian":[6.05E2,4.34E2,1.71E2,2.96E2,1.38E2,9E1,8.1E1,2.88E2,8E0,8.2E1,5.6E1,6.8E1,2.2E1,4.1E1,4E1,2.28E2,6E1,3E1,5.2E1,5E1,6E0,2.4E1,1.7E1,2.2E1,1.8E1,1.14E2,1.14E2,3.4E1,2.6E1,1.8E1,1.2E1,3.4E1,1.8E1,4E1,1E1,6E0,1.8E1,1E1,7E0,1.6E1,6E0],"tree_param":{"num_deleted":"0","num_feature":"36","num_nodes":"41","size_leaf_vector":"1"}},{"base_weights":[1.7094826E4,2.4944043E4,1.3737896E4,6.7405383E2,1.6013208E4,1.8156783E4,6.3346943E3,4.3065566E3,1.800804E4,1.7570871E4,6.7042816E2,4.0410925E3,1.0319371E4,1.0514164E2,2.7081371E1,3.3422466E1,1.95517E4,1.9012127E4,1.2167591E4,2.8507156E2,3.2932847E3,1.2785325E4,2.7389077E3,4.2590125E2,1.9734628E2,2.3159724E2,3.850065E2,3.320275E2,1.9632272E2,1.3013643E2,9.745824E0,2.162618E2,4.3894006E2,1.666349E1,1.0140193E2],"categories":[],"categories_nodes":[],"categories_segments":[],"categories_sizes":[],"default_left":[0,0,0,0,0,0,0,0,0,0,0,0,0,0,0,0,0,0,0,0,0,0,0,0,0,0,0,0,0,0,0,0,0,0,0],"id":27,"left_children":[1,3,5,-1,7,9,11,13,15,17,-1,19,21,-1,-1,-1,23,25,27,-1,29,31,33,-1,-1,-1,-1,-1,-1,-1,-1,-1,-1,-1,-1],"loss_changes":[1.6125592E10,1.4009614E10,1.4279098E10,0E0,2.1176074E9,1.886634E9,1.475414E9,3.497712E7,1.9848151E9,1.8479268E9,0E0,7.702136E8,1.0865649E9,0E0,0E0,0E0,1.0223616E9,1.4708736E8,4.5216154E8,0E0,9.075621E8,5.75786E8,6.685711E7,0E0,0E0,0E0,0E0,0E0,0E0,0E0,0E0,0E0,0E0,0E0,0E0],"parents":[2147483647,0,0,1,1,2,2,4,4,5,5,6,6,7,7,8,8,9,9,11,11,12,12,16,16,17,17,18,18,20,20,21,21,22,22],"right_children":[2,4,6,-1,8,10,12,14,16,18,-1,20,22,-1,-1,-1,24,26,28,-1,30,32,34,-1,-1,-1,-1,-1,-1,-1,-1,-1,-1,-1,-1],"split_conditions":[-4.1874853E-1,7.599043E-1,-2.393625E-1,6.7405383E2,-1.010084E0,-7.35093E-2,9.5615107E-1,-5.7541776E-1,-2.4912927E0,-6.1914986E-1,6.7042816E2,-1.0202638E0,1.1486744E0,1.0514164E2,2.7081371E1,3.3422466E1,9.022704E-1,-1.0939603E0,-3.2113132E-1,2.8507156E2,-5.213527E-1,7.274417E-1,5.27798E-1,4.2590125E2,1.9734628E2,2.3159724E2,3.850065E2,3.320275E2,1.9632272E2,1.3013643E2,9.745824E0,2.162618E2,4.3894006E2,1.666349E1,1.0140193E2],"split_indices":[3,31,31,0,26,0,26,28,3,31,0,28,28,0,0,0,27,26,0,0,7,18,14,0,0,0,0,0,0,0,0,0,0,0,0],"split_type":[0,0,0,0,0,0,0,0,0,0,0,0,0,0,0,0,0,0,0,0,0,0,0,0,0,0,0,0,0,0,0,0,0,0,0],"sum_hessian":[6.24E2,1.85E2,4.39E2,9.2E1,9.3E1,2.74E2,1.65E2,1.4E1,7.9E1,2.66E2,8E0,1.06E2,5.9E1,1E1,4E0,7E0,7.2E1,2.08E2,5.8E1,6E0,1E2,4.4E1,1.5E1,6E1,1.2E1,8E0,2E2,1.8E1,4E1,4.6E1,5.4E1,3.8E1,6E0,9E0,6E0],"tree_param":{"num_deleted":"0","num_feature":"36","num_nodes":"35","size_leaf_vector":"1"}},{"base_weights":[1.674561E4,2.4444045E4,1.3684454E4,6.689607E2,1.644666E4,1.7422746E4,7.1327876E3,3.0088755E3,1.8048719E4,1.698187E4,6.375208E2,5.671623E3,1.3226736E4,7.553003E1,2.6648067E1,3.2553406E1,1.9559646E4,1.8319488E4,1.2501968E4,9.67433E3,3.6513032E3,2.332952E1,1.684653E4,2.3894218E2,4.350801E2,3.7153146E2,2.1313268E2,3.0485974E2,1.8764195E2,1.6053593E2,3.4001324E2,4.367608E1,1.3771759E2,3.851553E2,1.7168019E2],"categories":[],"categories_nodes":[],"categories_segments":[],"categories_sizes":[],"default_left":[0,0,0,0,0,0,0,0,0,0,0,0,0,0,0,0,0,0,0,0,0,0,0,0,0,0,0,0,0,0,0,0,0,0,0],"id":28,"left_children":[1,3,5,-1,7,9,11,13,15,17,-1,19,21,-1,-1,-1,23,25,27,29,31,-1,33,-1,-1,-1,-1,-1,-1,-1,-1,-1,-1,-1,-1],"loss_changes":[1.3852295E10,1.1691311E10,1.0480779E10,0E0,1.9262792E9,1.2110152E9,1.340758E9,9.123608E6,2.0026655E9,1.3829161E9,0E0,1.0159521E9,1.2900168E9,0E0,0E0,0E0,9.929441E8,2.0588954E8,4.12843E8,3.825628E8,4.0267456E8,0E0,2.929147E8,0E0,0E0,0E0,0E0,0E0,0E0,0E0,0E0,0E0,0E0,0E0,0E0],"parents":[2147483647,0,0,1,1,2,2,4,4,5,5,6,6,7,7,8,8,9,9,11,11,12,12,16,16,17,17,18,18,19,19,20,20,22,22],"right_children":[2,4,6,-1,8,10,12,14,16,18,-1,20,22,-1,-1,-1,24,26,28,30,32,-1,34,-1,-1,-1,-1,-1,-1,-1,-1,-1,-1,-1,-1],"split_conditions":[-4.0433353E-1,6.80325E-1,-2.393625E-1,6.689607E2,-1.012067E0,-7.35093E-2,6.627209E-1,8.04763E-1,5.4406536E-1,-6.1914986E-1,6.375208E2,4.4883946E-1,8.938142E-1,7.553003E1,2.6648067E1,3.2553406E1,-9.0349877E-1,6.9996625E-1,-3.8433594E-1,1.387477E-1,-1.10240325E-1,2.332952E1,1.3896801E0,2.3894218E2,4.350801E2,3.7153146E2,2.1313268E2,3.0485974E2,1.8764195E2,1.6053593E2,3.4001324E2,4.367608E1,1.3771759E2,3.851553E2,1.7168019E2],"split_indices":[3,31,31,0,26,0,4,2,5,31,0,31,15,0,0,0,30,3,25,22,16,0,31,0,0,0,0,0,0,0,0,0,0,0,0],"split_type":[0,0,0,0,0,0,0,0,0,0,0,0,0,0,0,0,0,0,0,0,0,0,0,0,0,0,0,0,0,0,0,0,0,0,0],"sum_hessian":[6.01E2,1.69E2,4.32E2,7.8E1,9.1E1,2.74E2,1.58E2,1E1,8.1E1,2.68E2,6E0,1.29E2,2.9E1,6E0,4E0,7E0,7.4E1,2.04E2,6.4E1,4.2E1,8.7E1,7E0,2.2E1,1.8E1,5.6E1,1.96E2,8E0,3.2E1,3.2E1,3.6E1,6E0,6.1E1,2.6E1,1.6E1,6E0],"tree_param":{"num_deleted":"0","num_feature":"36","num_nodes":"35","size_leaf_vector":"1"}},{"base_weights":[1.6286057E4,1.9651531E4,9.265072E3,1.5882057E4,6.603687E2,1.8958281E3,1.3706197E4,1.7717062E4,1.0097252E4,7.4840497E2,4.6570103E3,2.263298E3,1.5422857E4,1.0865899E2,1.7892578E4,1.4499561E4,8.0607256E3,2.2206025E3,-4.6128075E1,6.4504717E3,5.562454E1,7.666746E1,-3.569089E0,1.945267E4,1.1045675E4,3.8660718E2,3.242373E2,7.0165215E1,3.285215E2,1.8007927E2,8.060985E1,2.002369E0,6.709385E1,-6.4913116E0,2.466609E1,1.5724216E2,6.368131E1,3.0795673E2,5.134115E2,1.7954259E2,4.170121E2],"categories":[],"categories_nodes":[],"categories_segments":[],"categories_sizes":[],"default_left":[0,0,0,0,0,0,0,0,0,0,0,0,0,0,0,0,0,0,0,0,0,0,0,0,0,0,0,0,0,0,0,0,0,0,0,0,0,0,0,0,0],"id":29,"left_children":[1,3,5,7,-1,9,11,13,15,17,19,21,23,-1,25,27,29,31,33,35,-1,-1,-1,37,39,-1,-1,-1,-1,-1,-1,-1,-1,-1,-1,-1,-1,-1,-1,-1,-1],"loss_changes":[1.4775042E10,2.099051E10,6.7486556E9,3.3771766E9,0E0,2.4680544E8,2.499111E9,4.4827443E8,6.2724966E8,6.6776092E7,5.943421E7,6.969166E7,1.7607209E9,0E0,2.8831744E8,4.71744E8,1.879954E8,4.7760176E7,1.3937394E7,2.5686176E7,0E0,0E0,0E0,1.0418422E9,9.486075E8,0E0,0E0,0E0,0E0,0E0,0E0,0E0,0E0,0E0,0E0,0E0,0E0,0E0,0E0,0E0,0E0],"parents":[2147483647,0,0,1,1,2,2,3,3,5,5,6,6,7,7,8,8,9,9,10,10,11,11,12,12,14,14,15,15,16,16,17,17,18,18,19,19,23,23,24,24],"right_children":[2,4,6,8,-1,10,12,14,16,18,20,22,24,-1,26,28,30,32,34,36,-1,-1,-1,38,40,-1,-1,-1,-1,-1,-1,-1,-1,-1,-1,-1,-1,-1,-1,-1,-1],"split_conditions":[6.80325E-1,-5.5552816E-1,4.0192977E-1,-5.021341E-1,6.603687E2,9.464681E-1,-1.0172224E0,-1.7472166E0,-7.4767613E-1,6.437276E-1,8.0550873E-1,-2.434708E-1,1.0147563E-1,1.0865899E2,-1.2173312E0,-1.1159705E0,2.4935828E-1,-2.1630926E-1,5.1150537E-1,6.6462034E-1,5.562454E1,7.666746E1,-3.569089E0,3.11902E-1,1.1859912E0,3.8660718E2,3.242373E2,7.0165215E1,3.285215E2,1.8007927E2,8.060985E1,2.002369E0,6.709385E1,-6.4913116E0,2.466609E1,1.5724216E2,6.368131E1,3.0795673E2,5.134115E2,1.7954259E2,4.170121E2],"split_indices":[31,2,6,31,0,8,26,35,6,25,25,22,8,0,25,26,15,16,0,3,0,0,0,18,18,0,0,0,0,0,0,0,0,0,0,0,0,0,0,0,0],"split_type":[0,0,0,0,0,0,0,0,0,0,0,0,0,0,0,0,0,0,0,0,0,0,0,0,0,0,0,0,0,0,0,0,0,0,0,0,0,0,0,0,0],"sum_hessian":[6.32E2,4.26E2,2.06E2,3.34E2,9.2E1,7.8E1,1.28E2,2.52E2,8.2E1,5.6E1,2.2E1,1.7E1,1.11E2,4E0,2.48E2,2.4E1,5.8E1,1.9E1,3.7E1,1E1,1.2E1,1E1,7E0,5.6E1,5.5E1,1.28E2,1.2E2,4E0,2E1,4.6E1,1.2E1,7E0,1.2E1,3.1E1,6E0,6E0,4E0,3.6E1,2E1,4.7E1,8E0],"tree_param":{"num_deleted":"0","num_feature":"36","num_nodes":"41","size_leaf_vector":"1"}},{"base_weights":[1.607699E4,2.3030377E4,1.2670806E4,3.2093754E4,1.4355586E4,1.692747E4,6.4249253E3,6.7040027E2,5.067169E2,3.204012E3,1.5775312E4,3.75888E2,1.50448545E4,4.3557617E3,1.0750814E4,7.831739E1,2.5636913E1,1.7669016E4,5.6759E3,1.6978863E4,1.1143351E4,8.5976E3,2.4921006E3,1.2711986E4,8.5044836E2,3.9061304E2,2.1916368E2,1.6775928E2,-4.843661E0,3.4636237E2,1.644562E2,1.8687718E2,4.7340976E2,1.2302981E2,2.9961252E2,7.9740787E0,8.762976E1,1.8226474E2,3.0452902E2,3.6611088E1,-2.1606286E0],"categories":[],"categories_nodes":[],"categories_segments":[],"categories_sizes":[],"default_left":[0,0,0,0,0,0,0,0,0,0,0,0,0,0,0,0,0,0,0,0,0,0,0,0,0,0,0,0,0,0,0,0,0,0,0,0,0,0,0,0,0],"id":30,"left_children":[1,3,5,7,9,11,13,-1,-1,15,17,-1,19,21,23,-1,-1,25,27,29,31,33,35,37,39,-1,-1,-1,-1,-1,-1,-1,-1,-1,-1,-1,-1,-1,-1,-1,-1],"loss_changes":[1.4203109E10,1.5263859E10,1.0871513E10,8.567194E7,1.5959982E9,5.78347E8,1.4658852E9,0E0,0E0,1.2767976E7,1.6592364E9,0E0,7.6908134E8,8.955932E8,1.03766886E9,0E0,0E0,7.47948E8,2.5883574E8,1.0414899E8,7.932344E8,4.5432013E8,3.2258208E8,2.68437E8,9.592048E6,0E0,0E0,0E0,0E0,0E0,0E0,0E0,0E0,0E0,0E0,0E0,0E0,0E0,0E0,0E0,0E0],"parents":[2147483647,0,0,1,1,2,2,3,3,4,4,5,5,6,6,9,9,10,10,12,12,13,13,14,14,17,17,18,18,19,19,20,20,21,21,22,22,23,23,24,24],"right_children":[2,4,6,8,10,12,14,-1,-1,16,18,-1,20,22,24,-1,-1,26,28,30,32,34,36,38,40,-1,-1,-1,-1,-1,-1,-1,-1,-1,-1,-1,-1,-1,-1,-1,-1],"split_conditions":[-2.0898026E-1,8.263623E-1,-4.0053838E-1,3.3707708E-1,-1.012067E0,-1.3229616E0,9.672553E-1,6.7040027E2,5.067169E2,6.630502E-2,2.0040946E0,3.75888E2,-7.3491716E-1,-2.8445265E-1,1.4694535E0,7.831739E1,2.5636913E1,8.8033855E-1,3.3786145E-1,3.6373857E-1,-3.4940317E-1,1.387477E-1,-8.940849E-1,-3.1657654E-1,-5.578987E-1,3.9061304E2,2.1916368E2,1.6775928E2,-4.843661E0,3.4636237E2,1.644562E2,1.8687718E2,4.7340976E2,1.2302981E2,2.9961252E2,7.9740787E0,8.762976E1,1.8226474E2,3.0452902E2,3.6611088E1,-2.1606286E0],"split_indices":[3,32,32,32,26,25,26,0,0,13,8,0,32,8,28,0,0,27,0,34,8,22,26,7,2,0,0,0,0,0,0,0,0,0,0,0,0,0,0,0,0],"split_type":[0,0,0,0,0,0,0,0,0,0,0,0,0,0,0,0,0,0,0,0,0,0,0,0,0,0,0,0,0,0,0,0,0,0,0,0,0,0,0,0,0],"sum_hessian":[6.11E2,1.99E2,4.12E2,9.6E1,1.03E2,2.44E2,1.68E2,7.6E1,2E1,1.2E1,9.1E1,1.18E2,1.26E2,1.15E2,5.3E1,8E0,4E0,7.6E1,1.5E1,8.2E1,4.4E1,3.4E1,8.1E1,4.4E1,9E0,5.8E1,1.8E1,1E1,5E0,7.8E1,4E0,4E1,4E0,2.6E1,8E0,3.9E1,4.2E1,2E1,2.4E1,4E0,5E0],"tree_param":{"num_deleted":"0","num_feature":"36","num_nodes":"41","size_leaf_vector":"1"}},{"base_weights":[1.5783615E4,1.3343601E4,2.309633E4,1.67585E4,6.5371167E3,3.0431418E4,1.4557023E4,1.5899615E4,6.575244E2,2.5764636E3,1.110522E4,6.5097363E2,4.9669092E2,1.6375646E4,1.2802612E3,1.7497064E4,1.1344853E4,2.1866612E2,1.8224578E3,1.3019862E4,1.969608E3,9.750714E3,2.0542246E4,5.6926365E1,-4.7629313E0,2.1067122E2,3.54183E2,1.5115749E2,2.7327472E2,7.764854E1,6.5068626E0,1.4490771E2,2.9823996E2,5.9483323E0,7.198594E1,1.0866089E2,2.7965155E2,2.6757077E2,4.646122E2],"categories":[],"categories_nodes":[],"categories_segments":[],"categories_sizes":[],"default_left":[0,0,0,0,0,0,0,0,0,0,0,0,0,0,0,0,0,0,0,0,0,0,0,0,0,0,0,0,0,0,0,0,0,0,0,0,0,0,0],"id":31,"left_children":[1,3,5,7,9,11,13,15,-1,17,19,-1,-1,21,23,25,27,-1,29,31,33,35,37,-1,-1,-1,-1,-1,-1,-1,-1,-1,-1,-1,-1,-1,-1,-1,-1],"loss_changes":[1.0915135E10,1.0907845E10,9.328312E9,3.8379028E9,2.866214E9,1.752105E8,1.7657958E9,1.9915735E9,0E0,5.282697E8,1.2687217E9,0E0,0E0,1.5939174E9,2.4457238E7,1.3984563E8,6.0803584E8,0E0,2.4854122E8,5.584456E8,3.7081256E7,4.1736858E8,4.4029235E8,0E0,0E0,0E0,0E0,0E0,0E0,0E0,0E0,0E0,0E0,0E0,0E0,0E0,0E0,0E0,0E0],"parents":[2147483647,0,0,1,1,2,2,3,3,4,4,5,5,6,6,7,7,9,9,10,10,13,13,14,14,15,15,16,16,18,18,19,19,20,20,21,21,22,22],"right_children":[2,4,6,8,10,12,14,16,-1,18,20,-1,-1,22,24,26,28,-1,30,32,34,36,38,-1,-1,-1,-1,-1,-1,-1,-1,-1,-1,-1,-1,-1,-1,-1,-1],"split_conditions":[2.6596314E-1,5.1643237E-2,8.263622E-1,-7.35093E-2,9.4167596E-1,3.3707687E-1,1.9118239E-1,-6.1914986E-1,6.575244E2,-1.1155803E0,1.4694535E0,6.5097363E2,4.9669092E2,-9.029098E-1,1.9659832E0,-1.0939603E0,-7.76507E-2,2.1866612E2,-5.463865E-1,-1.3130784E-1,4.1910732E-1,-9.8390985E-1,5.3013706E-1,5.6926365E1,-4.7629313E0,2.1067122E2,3.54183E2,1.5115749E2,2.7327472E2,7.764854E1,6.5068626E0,1.4490771E2,2.9823996E2,5.9483323E0,7.198594E1,1.0866089E2,2.7965155E2,2.6757077E2,4.646122E2],"split_indices":[7,31,31,0,26,31,0,31,0,28,28,0,0,30,4,26,22,0,7,16,0,26,20,0,0,0,0,0,0,0,0,0,0,0,0,0,0,0,0],"split_type":[0,0,0,0,0,0,0,0,0,0,0,0,0,0,0,0,0,0,0,0,0,0,0,0,0,0,0,0,0,0,0,0,0,0,0,0,0,0,0],"sum_hessian":[6.28E2,4.73E2,1.55E2,3.14E2,1.59E2,8.2E1,7.3E1,3E2,1.4E1,8.6E1,7.3E1,5.6E1,2.6E1,6.4E1,9E0,2.2E2,8E1,6E0,8E1,6E1,1.3E1,2.6E1,3.8E1,4E0,5E0,8E0,2.12E2,3.2E1,4.8E1,3.3E1,4.7E1,1.6E1,4.4E1,7E0,6E0,1.4E1,1.2E1,1.2E1,2.6E1],"tree_param":{"num_deleted":"0","num_feature":"36","num_nodes":"39","size_leaf_vector":"1"}},{"base_weights":[1.570282E4,2.3143508E4,1.2476107E4,6.223148E2,1.5960445E4,1.593125E4,5.8230166E3,2.746772E3,1.7366857E4,1.5507842E4,6.178826E2,4.1807656E3,1.1902127E4,6.98739E1,2.3034103E1,3.6997021E3,1.9177215E4,1.7163125E4,1.1411136E4,2.37821E3,7.557578E3,1.42132705E4,-9.6338625E0,1.3086168E2,-4.683553E0,2.4023828E2,4.206755E2,3.6457806E2,3.0718286E2,1.5754782E2,2.7693182E2,8.722206E1,1.7019705E1,1.9647865E2,2.1460445E1,3.719395E2,1.6123625E2],"categories":[],"categories_nodes":[],"categories_segments":[],"categories_sizes":[],"default_left":[0,0,0,0,0,0,0,0,0,0,0,0,0,0,0,0,0,0,0,0,0,0,0,0,0,0,0,0,0,0,0,0,0,0,0,0,0],"id":32,"left_children":[1,3,5,-1,7,9,11,13,15,17,-1,19,21,-1,-1,23,25,27,29,31,33,35,-1,-1,-1,-1,-1,-1,-1,-1,-1,-1,-1,-1,-1,-1,-1],"loss_changes":[1.4884913E10,1.0383737E10,1.0090643E10,0E0,1.847849E9,1.3645005E9,1.4777027E9,9.081136E6,2.20535E9,1.73679E9,0E0,7.246267E8,9.227131E8,0E0,0E0,1.3575915E8,8.248709E8,1.0646323E8,6.224558E8,2.4158246E8,6.0670234E8,5.781586E8,0E0,0E0,0E0,0E0,0E0,0E0,0E0,0E0,0E0,0E0,0E0,0E0,0E0,0E0,0E0],"parents":[2147483647,0,0,1,1,2,2,4,4,5,5,6,6,7,7,8,8,9,9,11,11,12,12,15,15,16,16,17,17,18,18,19,19,20,20,21,21],"right_children":[2,4,6,-1,8,10,12,14,16,18,-1,20,22,-1,-1,24,26,28,30,32,34,36,-1,-1,-1,-1,-1,-1,-1,-1,-1,-1,-1,-1,-1,-1,-1],"split_conditions":[-3.5496324E-1,6.80325E-1,5.1643237E-2,6.223148E2,-1.012067E0,-7.003392E-2,6.506503E-1,6.630502E-2,-5.0194246E-1,-6.1914986E-1,6.178826E2,9.5615107E-1,8.4605E-1,6.98739E1,2.3034103E1,3.3786145E-1,8.571052E-2,-1.2173312E0,7.151462E-2,1.0779766E0,1.6089965E0,1.3187482E0,-9.6338625E0,1.3086168E2,-4.683553E0,2.4023828E2,4.206755E2,3.6457806E2,3.0718286E2,1.5754782E2,2.7693182E2,8.722206E1,1.7019705E1,1.9647865E2,2.1460445E1,3.719395E2,1.6123625E2],"split_indices":[3,31,31,0,26,0,4,13,34,31,0,26,0,0,0,0,21,25,28,31,28,31,0,0,0,0,0,0,0,0,0,0,0,0,0,0,0],"split_type":[0,0,0,0,0,0,0,0,0,0,0,0,0,0,0,0,0,0,0,0,0,0,0,0,0,0,0,0,0,0,0,0,0,0,0,0,0],"sum_hessian":[6.31E2,1.89E2,4.42E2,8.8E1,1.01E2,2.9E2,1.52E2,1E1,9.1E1,2.84E2,6E0,1.21E2,3.1E1,6E0,4E0,1.1E1,8E1,2E2,8.4E1,8E1,4.1E1,2.6E1,5E0,6E0,5E0,1.8E1,6.2E1,1.2E2,8E1,3.6E1,4.8E1,3.4E1,4.6E1,3E1,1.1E1,1.4E1,1.2E1],"tree_param":{"num_deleted":"0","num_feature":"36","num_nodes":"37","size_leaf_vector":"1"}},{"base_weights":[1.5425264E4,2.2032973E4,1.2841746E4,2.9458482E4,1.4092233E4,1.6545021E4,7.121993E3,6.255046E2,4.7113177E2,3.6849956E3,1.5730096E4,1.6156829E4,5.797632E2,4.2240527E3,1.1574156E4,9.386323E1,2.2665556E1,3.1838406E3,1.7418285E4,1.737809E4,1.3603861E4,8.414047E3,2.397207E3,4.4516E3,1.4140369E4,1.3288062E2,-4.6054935E0,3.8564484E2,1.6958401E2,3.5079156E2,1.6629935E2,3.3165985E2,2.1423781E2,1.1951807E2,2.8503522E2,2.0817099E2,3.1700607E1,3.4812195E1,1.8475246E2,1.9044939E2,3.7124164E2],"categories":[],"categories_nodes":[],"categories_segments":[],"categories_sizes":[],"default_left":[0,0,0,0,0,0,0,0,0,0,0,0,0,0,0,0,0,0,0,0,0,0,0,0,0,0,0,0,0,0,0,0,0,0,0,0,0,0,0,0,0],"id":33,"left_children":[1,3,5,7,9,11,13,-1,-1,15,17,19,-1,21,23,-1,-1,25,27,29,31,33,35,37,39,-1,-1,-1,-1,-1,-1,-1,-1,-1,-1,-1,-1,-1,-1,-1,-1],"loss_changes":[1.036945E10,9.844597E9,9.435169E9,2.1753856E8,1.407955E9,8.503132E8,2.2605855E9,0E0,0E0,2.8123984E7,1.511893E9,5.960499E8,0E0,8.218207E8,1.216511E9,0E0,0E0,1.1966548E8,9.195356E8,1.1321344E8,6.0637696E8,3.8452634E8,4.910176E8,2.4341702E8,8.646113E8,0E0,0E0,0E0,0E0,0E0,0E0,0E0,0E0,0E0,0E0,0E0,0E0,0E0,0E0,0E0,0E0],"parents":[2147483647,0,0,1,1,2,2,3,3,4,4,5,5,6,6,9,9,10,10,11,11,13,13,14,14,17,17,18,18,19,19,20,20,21,21,22,22,23,23,24,24],"right_children":[2,4,6,8,10,12,14,-1,-1,16,18,20,-1,22,24,-1,-1,26,28,30,32,34,36,38,40,-1,-1,-1,-1,-1,-1,-1,-1,-1,-1,-1,-1,-1,-1,-1,-1],"split_conditions":[-4.0433353E-1,8.263622E-1,-3.9060697E-1,3.3707687E-1,-1.010084E0,-7.196599E-2,9.4167596E-1,6.255046E2,4.7113177E2,6.033384E-1,-8.1233555E-1,-7.589416E-1,5.797632E2,3.2657337E-1,-1.1939673E0,9.386323E1,2.2665556E1,2.3822324E-1,9.022704E-1,-1.1081027E-1,-1.0664934E0,6.4104795E-2,-1.0202638E0,-1.0315193E0,-8.861714E-2,1.3288062E2,-4.6054935E0,3.8564484E2,1.6958401E2,3.5079156E2,1.6629935E2,3.3165985E2,2.1423781E2,1.1951807E2,2.8503522E2,2.0817099E2,3.1700607E1,3.4812195E1,1.8475246E2,1.9044939E2,3.7124164E2],"split_indices":[3,31,31,31,26,1,26,0,0,25,34,31,0,25,35,0,0,1,27,1,20,22,28,11,22,0,0,0,0,0,0,0,0,0,0,0,0,0,0,0,0],"split_type":[0,0,0,0,0,0,0,0,0,0,0,0,0,0,0,0,0,0,0,0,0,0,0,0,0,0,0,0,0,0,0,0,0,0,0,0,0,0,0,0,0],"sum_hessian":[6.23E2,1.73E2,4.5E2,8.8E1,8.5E1,2.72E2,1.78E2,6.4E1,2.4E1,1.2E1,7.3E1,2.66E2,6E0,1.09E2,6.9E1,8E0,4E0,9E0,6.4E1,1.76E2,9E1,3.2E1,7.7E1,1.9E1,5E1,4E0,5E0,5.2E1,1.2E1,1.72E2,4E0,4.2E1,4.8E1,2.4E1,8E0,6E0,7.1E1,1.3E1,6E0,2.6E1,2.4E1],"tree_param":{"num_deleted":"0","num_feature":"36","num_nodes":"41","size_leaf_vector":"1"}},{"base_weights":[1.4395957E4,1.19102295E4,2.1573234E4,1.5579492E4,5.273595E3,2.8911254E4,1.4057273E4,1.4821739E4,6.1986694E2,2.6512886E3,8.660338E3,6.104391E2,4.6018433E2,8.898253E3,1.9812396E4,1.631095E4,1.05871045E4,2.0364328E2,2.0291815E3,1.0032128E4,9.653676E2,1.127798E4,1.6124703E3,4.6978503E2,2.2434972E2,3.4867358E2,2.9327045E2,2.8750522E2,1.7200958E2,1.0013616E2,5.393819E0,1.709737E2,2.9703714E2,3.580857E1,-3.1616297E0,2.9765292E2,1.1920398E2,7.77958E1,-2.480166E-1],"categories":[],"categories_nodes":[],"categories_segments":[],"categories_sizes":[],"default_left":[0,0,0,0,0,0,0,0,0,0,0,0,0,0,0,0,0,0,0,0,0,0,0,0,0,0,0,0,0,0,0,0,0,0,0,0,0,0,0],"id":34,"left_children":[1,3,5,7,9,11,13,15,-1,17,19,-1,-1,21,23,25,27,-1,29,31,33,35,37,-1,-1,-1,-1,-1,-1,-1,-1,-1,-1,-1,-1,-1,-1,-1,-1],"loss_changes":[1.0786472E10,1.116826E10,8.3076383E9,3.0095524E9,1.4512963E9,4.871373E7,2.1989652E9,1.6245965E9,0E0,4.2441325E8,7.5033805E8,0E0,0E0,7.446935E8,9.0578944E8,1.3092454E8,4.5583872E8,0E0,4.6492963E8,3.091712E8,1.1406165E7,5.4386534E8,4.445284E7,0E0,0E0,0E0,0E0,0E0,0E0,0E0,0E0,0E0,0E0,0E0,0E0,0E0,0E0,0E0,0E0],"parents":[2147483647,0,0,1,1,2,2,3,3,4,4,5,5,6,6,7,7,9,9,10,10,13,13,14,14,15,15,16,16,18,18,19,19,20,20,21,21,22,22],"right_children":[2,4,6,8,10,12,14,16,-1,18,20,-1,-1,22,24,26,28,-1,30,32,34,36,38,-1,-1,-1,-1,-1,-1,-1,-1,-1,-1,-1,-1,-1,-1,-1,-1],"split_conditions":[2.4654597E-1,-1.1538321E-1,7.599043E-1,-7.864784E-2,9.4167596E-1,3.3707687E-1,1.9519758E-1,-6.1914986E-1,6.1986694E2,-1.0710164E0,1.6089965E0,6.104391E2,4.6018433E2,-2.430962E-1,2.6771826E-1,-1.0426325E0,-3.2113132E-1,2.0364328E2,1.0000055E0,1.9939071E-1,-5.578987E-1,8.707475E-1,8.1784207E-1,4.6978503E2,2.2434972E2,3.4867358E2,2.9327045E2,2.8750522E2,1.7200958E2,1.0013616E2,5.393819E0,1.709737E2,2.9703714E2,3.580857E1,-3.1616297E0,2.9765292E2,1.1920398E2,7.77958E1,-2.480166E-1],"split_indices":[2,31,31,0,26,31,12,31,0,28,28,0,0,22,8,20,0,0,31,19,2,27,4,0,0,0,0,0,0,0,0,0,0,0,0,0,0,0,0],"split_type":[0,0,0,0,0,0,0,0,0,0,0,0,0,0,0,0,0,0,0,0,0,0,0,0,0,0,0,0,0,0,0,0,0,0,0,0,0,0,0],"sum_hessian":[6.18E2,4.61E2,1.57E2,2.96E2,1.65E2,7.8E1,7.9E1,2.84E2,1.2E1,9.4E1,7.1E1,5.8E1,2E1,4.3E1,3.6E1,2.08E2,7.6E1,6E0,8.8E1,6E1,1.1E1,3.2E1,1.1E1,2.4E1,1.2E1,1.18E2,9E1,2.4E1,5.2E1,3.2E1,5.6E1,4.8E1,1.2E1,6E0,5E0,1.8E1,1.4E1,4E0,7E0],"tree_param":{"num_deleted":"0","num_feature":"36","num_nodes":"39","size_leaf_vector":"1"}},{"base_weights":[1.4521305E4,2.1557357E4,1.1484516E4,5.812534E2,1.4797253E4,1.5568992E4,4.848751E3,3.6858489E3,1.6237818E4,1.5054406E4,5.82103E2,2.6803538E3,8.815612E3,9.541115E1,1.992367E1,2.2968685E1,1.749658E4,1.6129261E4,1.0991711E4,9.435836E3,1.9255422E3,5.0547383E3,1.2170789E4,3.7871512E2,1.658112E2,3.257824E2,1.26982605E2,1.456256E2,2.5415587E2,2.4039911E2,7.861762E1,1.5602989E2,2.9540571E1,1.4152725E2,2.8651928E1,2.944469E2,1.23863815E2],"categories":[],"categories_nodes":[],"categories_segments":[],"categories_sizes":[],"default_left":[0,0,0,0,0,0,0,0,0,0,0,0,0,0,0,0,0,0,0,0,0,0,0,0,0,0,0,0,0,0,0,0,0,0,0,0,0],"id":35,"left_children":[1,3,5,-1,7,9,11,13,15,17,-1,19,21,-1,-1,-1,23,25,27,29,31,33,35,-1,-1,-1,-1,-1,-1,-1,-1,-1,-1,-1,-1,-1,-1],"loss_changes":[1.3299098E10,9.20993E9,1.1985621E10,0E0,1.5728312E9,1.4773535E9,1.447266E9,3.3174608E7,1.6893583E9,9.886474E8,0E0,5.529307E8,6.955817E8,0E0,0E0,0E0,9.426821E8,2.233344E8,2.8314573E8,1.0922944E8,2.5729149E8,2.095399E8,3.8163712E8,0E0,0E0,0E0,0E0,0E0,0E0,0E0,0E0,0E0,0E0,0E0,0E0,0E0,0E0],"parents":[2147483647,0,0,1,1,2,2,4,4,5,5,6,6,7,7,8,8,9,9,11,11,12,12,16,16,17,17,18,18,19,19,20,20,21,21,22,22],"right_children":[2,4,6,-1,8,10,12,14,16,18,-1,20,22,-1,-1,-1,24,26,28,30,32,34,36,-1,-1,-1,-1,-1,-1,-1,-1,-1,-1,-1,-1,-1,-1],"split_conditions":[-4.0433353E-1,6.80325E-1,-2.393625E-1,5.812534E2,-1.010084E0,-6.7834154E-2,9.5615107E-1,-5.7541776E-1,-2.4912927E0,-6.1914986E-1,5.82103E2,-7.173546E-1,-6.62168E-1,9.541115E1,1.992367E1,2.2968685E1,9.022704E-1,1.0834912E0,-3.8786048E-1,-6.191125E-1,-1.0710164E0,-3.257104E-2,1.3987051E0,3.7871512E2,1.658112E2,3.257824E2,1.26982605E2,1.456256E2,2.5415587E2,2.4039911E2,7.861762E1,1.5602989E2,2.9540571E1,1.4152725E2,2.8651928E1,2.944469E2,1.23863815E2],"split_indices":[3,31,31,0,26,1,26,28,3,31,0,15,34,0,0,0,27,28,28,2,28,22,31,0,0,0,0,0,0,0,0,0,0,0,0,0,0],"split_type":[0,0,0,0,0,0,0,0,0,0,0,0,0,0,0,0,0,0,0,0,0,0,0,0,0,0,0,0,0,0,0,0,0,0,0,0,0],"sum_hessian":[6.33E2,1.89E2,4.44E2,8.8E1,1.01E2,2.74E2,1.7E2,1.2E1,8.9E1,2.66E2,8E0,1.11E2,5.9E1,8E0,4E0,7E0,8.2E1,2.08E2,5.8E1,1E1,1.01E2,2.9E1,3E1,7E1,1.2E1,2.04E2,4E0,2E1,3.8E1,6E0,4E0,6E0,9.5E1,1.8E1,1.1E1,2E1,1E1],"tree_param":{"num_deleted":"0","num_feature":"36","num_nodes":"37","size_leaf_vector":"1"}},{"base_weights":[1.4395892E4,1.1551746E4,2.1585162E4,1.4929949E4,4.65172E3,5.743871E2,1.4604074E4,1.4213541E4,5.9856445E2,2.6665574E3,9.912727E3,1.9331586E4,1.0919313E4,1.5771991E4,1.0080449E4,7.9783394E3,1.687958E3,2.5820132E3,1.2857087E4,1.4227672E2,2.133742E4,2.2566732E1,1.2353534E4,1.7726187E2,3.1861935E2,2.803908E2,1.5640381E2,1.8194768E2,1.0160128E2,2.576725E0,6.1771774E1,6.352131E1,3.238175E1,3.5480252E2,1.4233801E2,2.0224257E2,4.5074078E2,1.5215956E2,3.3949265E2],"categories":[],"categories_nodes":[],"categories_segments":[],"categories_sizes":[],"default_left":[0,0,0,0,0,0,0,0,0,0,0,0,0,0,0,0,0,0,0,0,0,0,0,0,0,0,0,0,0,0,0,0,0,0,0,0,0,0,0],"id":36,"left_children":[1,3,5,7,9,-1,11,13,-1,15,17,19,21,23,25,27,29,31,33,-1,35,-1,37,-1,-1,-1,-1,-1,-1,-1,-1,-1,-1,-1,-1,-1,-1,-1,-1],"loss_changes":[1.267336E10,1.053646E10,8.4457636E9,2.8518031E9,1.550603E9,0E0,1.3915259E9,1.7282826E9,0E0,5.6352166E8,8.517563E8,8.039711E8,7.443507E8,9.055027E7,6.293417E8,8.919424E6,2.0705843E8,2.29356E6,6.865997E8,0E0,2.1648077E8,0E0,9.015496E8,0E0,0E0,0E0,0E0,0E0,0E0,0E0,0E0,0E0,0E0,0E0,0E0,0E0,0E0,0E0,0E0],"parents":[2147483647,0,0,1,1,2,2,3,3,4,4,6,6,7,7,9,9,10,10,11,11,12,12,13,13,14,14,15,15,16,16,17,17,18,18,20,20,22,22],"right_children":[2,4,6,8,10,-1,12,14,-1,16,18,20,22,24,26,28,30,32,34,-1,36,-1,38,-1,-1,-1,-1,-1,-1,-1,-1,-1,-1,-1,-1,-1,-1,-1,-1],"split_conditions":[1.6781385E-1,8.392915E-2,6.80325E-1,-7.003392E-2,1.0886264E0,5.743871E2,1.2262839E0,-6.1914986E-1,5.9856445E2,4.4883946E-1,-4.876749E-1,-2.2331023E-1,-2.4912927E0,-1.6897614E0,-3.2113132E-1,-1.818688E-1,-8.7104696E-1,1.8162245E0,1.3896801E0,1.4227672E2,1.7997454E-1,2.2566732E1,1.18743785E-1,1.7726187E2,3.1861935E2,2.803908E2,1.5640381E2,1.8194768E2,1.0160128E2,2.576725E0,6.1771774E1,6.352131E1,3.238175E1,3.5480252E2,1.4233801E2,2.0224257E2,4.5074078E2,1.5215956E2,3.3949265E2],"split_indices":[2,31,31,0,15,0,35,31,0,31,2,34,3,35,0,16,30,28,31,0,7,0,19,0,0,0,0,0,0,0,0,0,0,0,0,0,0,0,0],"split_type":[0,0,0,0,0,0,0,0,0,0,0,0,0,0,0,0,0,0,0,0,0,0,0,0,0,0,0,0,0,0,0,0,0,0,0,0,0,0,0],"sum_hessian":[6.31E2,4.54E2,1.77E2,3.04E2,1.5E2,8.6E1,9.1E1,2.92E2,1.2E1,1.1E2,4E1,3.8E1,5.3E1,2.1E2,8.2E1,1.6E1,9.4E1,1.2E1,2.8E1,6E0,3.2E1,7E0,4.6E1,6E0,2.04E2,2.8E1,5.4E1,1E1,6E0,4.5E1,4.9E1,6E0,6E0,1.4E1,1.4E1,4E0,2.8E1,2.4E1,2.2E1],"tree_param":{"num_deleted":"0","num_feature":"36","num_nodes":"39","size_leaf_vector":"1"}},{"base_weights":[1.4040925E4,2.088458E4,1.1511624E4,2.6827031E4,1.2639264E4,1.4860724E4,5.185698E3,5.784041E2,2.2018031E4,3.292784E3,1.4117491E4,1.4368147E4,5.783444E2,3.5665005E3,1.290971E4,1.8949034E2,4.6842917E2,9.229315E1,1.5671676E1,7.4061543E3,1.5959033E4,1.5795195E4,1.0123756E4,8.435793E3,1.652642E3,3.6682553E2,8.635767E3,9.00797E1,2.4619354E2,3.631376E2,2.0119656E2,3.1828757E2,1.5308496E2,2.597289E2,1.538274E2,1.0527695E2,2.0275351E2,-1.6525931E0,5.682769E1,9.1437546E1,2.0873598E2],"categories":[],"categories_nodes":[],"categories_segments":[],"categories_sizes":[],"default_left":[0,0,0,0,0,0,0,0,0,0,0,0,0,0,0,0,0,0,0,0,0,0,0,0,0,0,0,0,0,0,0,0,0,0,0,0,0,0,0,0,0],"id":37,"left_children":[1,3,5,7,9,11,13,-1,15,17,19,21,-1,23,25,-1,-1,-1,-1,27,29,31,33,35,37,-1,39,-1,-1,-1,-1,-1,-1,-1,-1,-1,-1,-1,-1,-1,-1],"loss_changes":[1.0422346E10,7.745495E9,9.499079E9,3.195003E8,9.344635E8,1.6270582E9,1.9300152E9,0E0,3.5902054E8,3.2868784E7,6.3571456E8,1.5784305E9,0E0,1.2161838E9,4.683899E8,0E0,0E0,0E0,0E0,1.5801856E8,4.267223E8,8.485683E7,4.2235136E8,1.4637184E8,1.9826302E8,0E0,7.670912E7,0E0,0E0,0E0,0E0,0E0,0E0,0E0,0E0,0E0,0E0,0E0,0E0,0E0,0E0],"parents":[2147483647,0,0,1,1,2,2,3,3,4,4,5,5,6,6,8,8,9,9,10,10,11,11,13,13,14,14,19,19,20,20,21,21,22,22,23,23,24,24,26,26],"right_children":[2,4,6,8,10,12,14,-1,16,18,20,22,-1,24,26,-1,-1,-1,-1,28,30,32,34,36,38,-1,40,-1,-1,-1,-1,-1,-1,-1,-1,-1,-1,-1,-1,-1,-1],"split_conditions":[-4.0433353E-1,9.4720316E-1,-1.8316418E-1,3.3707687E-1,-1.010084E0,-7.003392E-2,6.506503E-1,5.784041E2,1.2540463E-1,6.033384E-1,-1.6600096E0,-6.1914986E-1,5.783444E2,4.4883946E-1,1.288106E0,1.8949034E2,4.6842917E2,9.229315E1,1.5671676E1,2.2721129E-2,1.9527273E-1,7.792496E-2,-3.8433594E-1,-1.0945709E-1,-7.778982E-1,3.6682553E2,-7.096082E-2,9.00797E1,2.4619354E2,3.631376E2,2.0119656E2,3.1828757E2,1.5308496E2,2.597289E2,1.538274E2,1.0527695E2,2.0275351E2,-1.6525931E0,5.682769E1,9.1437546E1,2.0873598E2],"split_indices":[3,31,31,31,26,0,4,0,21,25,3,31,0,31,31,0,0,0,0,0,8,19,25,13,30,0,16,0,0,0,0,0,0,0,0,0,0,0,0,0,0],"split_type":[0,0,0,0,0,0,0,0,0,0,0,0,0,0,0,0,0,0,0,0,0,0,0,0,0,0,0,0,0,0,0,0,0,0,0,0,0,0,0,0,0],"sum_hessian":[6.15E2,1.64E2,4.51E2,9.4E1,7E1,2.94E2,1.57E2,6.2E1,3.2E1,1E1,6E1,2.86E2,8E0,1.31E2,2.6E1,4E0,2.8E1,6E0,4E0,1.4E1,4.6E1,2.12E2,7.4E1,3.6E1,9.5E1,1E1,1.6E1,1E1,4E0,3.2E1,1.4E1,2.08E2,4E0,3.2E1,4.2E1,1.4E1,2.2E1,3.9E1,5.6E1,6E0,1E1],"tree_param":{"num_deleted":"0","num_feature":"36","num_nodes":"41","size_leaf_vector":"1"}},{"base_weights":[1.3570192E4,2.013831E4,1.1023006E4,2.671456E4,1.2774296E4,1.4298368E4,4.5495825E3,5.670755E2,4.2505753E2,8.512247E3,1.703663E4,1.3702365E4,5.7531006E2,3.8908938E3,3.5652386E2,1.1520854E4,2.5271262E3,4.429735E2,1.3565618E4,1.5267297E4,1.0206411E4,2.0204058E3,7.1095117E3,6.8132904E1,2.889951E2,8.065696E1,-1.3090682E1,3.6351443E2,2.1335797E2,1.3593832E2,3.081238E2,2.7097842E2,1.6799352E2,-1.5335493E0,6.489967E1,2.7295845E1,1.7094699E2],"categories":[],"categories_nodes":[],"categories_segments":[],"categories_sizes":[],"default_left":[0,0,0,0,0,0,0,0,0,0,0,0,0,0,0,0,0,0,0,0,0,0,0,0,0,0,0,0,0,0,0,0,0,0,0,0,0],"id":38,"left_children":[1,3,5,7,9,11,13,-1,-1,15,17,19,-1,21,-1,23,25,-1,27,29,31,33,35,-1,-1,-1,-1,-1,-1,-1,-1,-1,-1,-1,-1,-1,-1],"loss_changes":[1.0267861E10,8.0851436E9,9.561022E9,2.1210317E8,1.3809449E9,2.2011986E9,1.2773921E9,0E0,0E0,7.631864E8,4.270377E8,1.4362132E9,0E0,8.766518E8,0E0,6.399785E8,7.929108E7,0E0,1.6678758E8,1.2940493E8,4.478208E8,2.4421315E8,4.3437235E8,0E0,0E0,0E0,0E0,0E0,0E0,0E0,0E0,0E0,0E0,0E0,0E0,0E0,0E0],"parents":[2147483647,0,0,1,1,2,2,3,3,4,4,5,5,6,6,9,9,10,10,11,11,13,13,15,15,16,16,18,18,19,19,20,20,21,21,22,22],"right_children":[2,4,6,8,10,12,14,-1,-1,16,18,20,-1,22,-1,24,26,-1,28,30,32,34,36,-1,-1,-1,-1,-1,-1,-1,-1,-1,-1,-1,-1,-1,-1],"split_conditions":[-4.0433353E-1,8.263622E-1,8.392915E-2,3.3707687E-1,1.1733832E-1,-7.003392E-2,5.0851126E0,5.670755E2,4.2505753E2,-1.3764288E-1,-9.227346E-1,-6.1914986E-1,5.7531006E2,9.4167596E-1,3.5652386E2,-1.010084E0,1.0078139E-2,4.429735E2,-9.926346E-1,-6.072913E-1,-3.2113132E-1,-1.0790887E0,-1.6575828E-1,6.8132904E1,2.889951E2,8.065696E1,-1.3090682E1,3.6351443E2,2.1335797E2,1.3593832E2,3.081238E2,2.7097842E2,1.6799352E2,-1.5335493E0,6.489967E1,2.7295845E1,1.7094699E2],"split_indices":[3,31,31,31,12,0,23,0,0,16,27,31,0,26,0,26,0,0,26,23,0,26,15,0,0,0,0,0,0,0,0,0,0,0,0,0,0],"split_type":[0,0,0,0,0,0,0,0,0,0,0,0,0,0,0,0,0,0,0,0,0,0,0,0,0,0,0,0,0,0,0,0,0,0,0,0,0],"sum_hessian":[6.26E2,1.73E2,4.53E2,9E1,8.3E1,3E2,1.53E2,6.6E1,2.4E1,4.3E1,4E1,2.9E2,1E1,1.47E2,6E0,2.8E1,1.5E1,1.4E1,2.6E1,1.98E2,9.2E1,9.4E1,5.3E1,8E0,2E1,1E1,5E0,8E0,1.8E1,4E0,1.94E2,3E1,6.2E1,3.5E1,5.9E1,1.1E1,4.2E1],"tree_param":{"num_deleted":"0","num_feature":"36","num_nodes":"37","size_leaf_vector":"1"}},{"base_weights":[1.3397106E4,2.1221662E4,1.0719807E4,5.3365234E2,1.5040874E4,1.4296903E4,4.7991606E3,1.0096195E4,1.8895088E4,1.3702251E4,5.572695E2,2.9662314E3,1.0147217E4,4.1178164E3,1.303631E4,2.3573071E2,4.0522406E2,1.4880693E4,8.485366E3,8.066545E3,1.9745834E3,1.4255374E3,1.3011242E4,6.012569E1,1.058998E2,3.1812784E2,1.6918529E2,3.024861E2,1.4815222E2,9.171195E1,1.9535402E2,1.0341966E2,2.045755E2,4.8785367E0,6.778308E1,-1.2590156E1,8.8570435E1,3.1662152E2,1.4910509E2],"categories":[],"categories_nodes":[],"categories_segments":[],"categories_sizes":[],"default_left":[0,0,0,0,0,0,0,0,0,0,0,0,0,0,0,0,0,0,0,0,0,0,0,0,0,0,0,0,0,0,0,0,0,0,0,0,0,0,0],"id":39,"left_children":[1,3,5,-1,7,9,11,13,15,17,-1,19,21,23,25,-1,-1,27,29,31,33,35,37,-1,-1,-1,-1,-1,-1,-1,-1,-1,-1,-1,-1,-1,-1,-1,-1],"loss_changes":[1.2593095E10,4.830388E9,9.63124E9,0E0,1.238569E9,1.9174072E9,1.6755538E9,5.615163E8,1.593426E8,1.564373E9,0E0,6.466318E8,1.0805315E9,1.090976E6,1.6758067E8,0E0,0E0,2.9394534E8,2.2025088E8,7.858394E7,2.7091597E8,7.684339E7,3.9898317E8,0E0,0E0,0E0,0E0,0E0,0E0,0E0,0E0,0E0,0E0,0E0,0E0,0E0,0E0,0E0,0E0],"parents":[2147483647,0,0,1,1,2,2,4,4,5,5,6,6,7,7,8,8,9,9,11,11,12,12,13,13,14,14,17,17,18,18,19,19,20,20,21,21,22,22],"right_children":[2,4,6,-1,8,10,12,14,16,18,-1,20,22,24,26,-1,-1,28,30,32,34,36,38,-1,-1,-1,-1,-1,-1,-1,-1,-1,-1,-1,-1,-1,-1,-1,-1],"split_conditions":[-5.97252E-1,6.80325E-1,5.1643237E-2,5.3365234E2,7.5889164E-1,-7.35093E-2,6.506503E-1,-9.8430645E-1,1.7233253E-1,-5.021341E-1,5.572695E2,4.4883946E-1,-8.192584E-2,-1.6235653E-2,2.9055422E-2,2.3573071E2,4.0522406E2,-1.0689619E-1,-1.0967364E0,-1.0945709E-1,-8.7104696E-1,4.472399E-1,1.3896801E0,6.012569E1,1.058998E2,3.1812784E2,1.6918529E2,3.024861E2,1.4815222E2,9.171195E1,1.9535402E2,1.0341966E2,2.045755E2,4.8785367E0,6.778308E1,-1.2590156E1,8.8570435E1,3.1662152E2,1.4910509E2],"split_indices":[3,31,31,0,29,0,4,26,18,31,0,31,16,0,0,0,0,13,26,13,30,8,31,0,0,0,0,0,0,0,0,0,0,0,0,0,0,0,0],"split_type":[0,0,0,0,0,0,0,0,0,0,0,0,0,0,0,0,0,0,0,0,0,0,0,0,0,0,0,0,0,0,0,0,0,0,0,0,0,0,0],"sum_hessian":[6.11E2,1.54E2,4.57E2,8E1,7.4E1,2.84E2,1.73E2,3.4E1,4E1,2.74E2,1E1,1.3E2,4.3E1,1.2E1,2.2E1,8E0,3.2E1,2.22E2,5.2E1,2E1,1.1E2,1.1E1,3.2E1,8E0,4E0,1.2E1,1E1,2.14E2,8E0,1.4E1,3.8E1,1E1,1E1,5E1,6E1,7E0,4E0,2E1,1.2E1],"tree_param":{"num_deleted":"0","num_feature":"36","num_nodes":"39","size_leaf_vector":"1"}},{"base_weights":[1.31943125E4,1.089393E4,1.9466654E4,1.3795535E4,4.40202E3,2.5661223E4,1.2282376E4,1.3246799E4,5.451501E2,2.7149583E3,9.48259E3,5.456256E2,4.1363657E2,8.545949E3,1.7430543E4,1.437157E4,9.045734E3,5.59631E3,1.2563335E3,6.9804E0,1.1837622E4,1.0073924E4,5.7630634E-1,1.04808044E2,3.8084796E2,3.1400522E2,2.5690292E2,1.2181974E2,2.4179875E2,1.4238814E2,4.942212E1,-4.148879E0,4.213367E1,1.496157E2,2.964873E2,2.3951228E2,1.0698669E2],"categories":[],"categories_nodes":[],"categories_segments":[],"categories_sizes":[],"default_left":[0,0,0,0,0,0,0,0,0,0,0,0,0,0,0,0,0,0,0,0,0,0,0,0,0,0,0,0,0,0,0,0,0,0,0,0,0],"id":40,"left_children":[1,3,5,7,9,11,13,15,-1,17,19,-1,-1,21,23,25,27,29,31,-1,33,35,-1,-1,-1,-1,-1,-1,-1,-1,-1,-1,-1,-1,-1,-1,-1],"loss_changes":[8.4596244E9,8.2652037E9,6.805381E9,1.8919834E9,1.1570844E9,1.2145459E8,1.3129533E9,1.2639396E9,0E0,4.342636E8,7.272023E8,0E0,0E0,5.983516E8,5.0931917E8,2.6682982E8,5.110236E8,1.4900595E8,8.881258E7,0E0,2.4044416E8,2.863401E8,0E0,0E0,0E0,0E0,0E0,0E0,0E0,0E0,0E0,0E0,0E0,0E0,0E0,0E0,0E0],"parents":[2147483647,0,0,1,1,2,2,3,3,4,4,5,5,6,6,7,7,9,9,10,10,13,13,14,14,15,15,16,16,17,17,18,18,20,20,21,21],"right_children":[2,4,6,8,10,12,14,16,-1,18,20,-1,-1,22,24,26,28,30,32,-1,34,36,-1,-1,-1,-1,-1,-1,-1,-1,-1,-1,-1,-1,-1,-1,-1],"split_conditions":[1.4386573E-1,8.392915E-2,8.263622E-1,-7.003392E-2,6.506503E-1,3.3707687E-1,7.5889164E-1,-5.021341E-1,5.451501E2,-6.2115306E-1,5.87402E-1,5.456256E2,4.1363657E2,-1.7824842E-1,4.5140097E-1,-1.2173312E0,-6.310513E-2,4.4493865E-2,-8.940849E-1,6.9804E0,2.004036E-1,1.5180187E0,5.7630634E-1,1.04808044E2,3.8084796E2,3.1400522E2,2.5690292E2,1.2181974E2,2.4179875E2,1.4238814E2,4.942212E1,-4.148879E0,4.213367E1,1.496157E2,2.964873E2,2.3951228E2,1.0698669E2],"split_indices":[7,31,31,0,4,31,29,31,0,2,25,0,0,22,20,25,22,18,26,0,0,2,0,0,0,0,0,0,0,0,0,0,0,0,0,0,0],"split_type":[0,0,0,0,0,0,0,0,0,0,0,0,0,0,0,0,0,0,0,0,0,0,0,0,0,0,0,0,0,0,0,0,0,0,0,0,0],"sum_hessian":[6E2,4.41E2,1.59E2,3.04E2,1.37E2,8.4E1,7.5E1,2.94E2,1E1,1.04E2,3.3E1,6E1,2.4E1,4.5E1,3E1,2.3E2,6.4E1,3.4E1,7E1,7E0,2.6E1,3.8E1,7E0,4E0,2.6E1,1.18E2,1.12E2,3.4E1,3E1,2.2E1,1.2E1,2.6E1,4.4E1,1.2E1,1.4E1,2.6E1,1.2E1],"tree_param":{"num_deleted":"0","num_feature":"36","num_nodes":"37","size_leaf_vector":"1"}},{"base_weights":[1.2581468E4,1.0207915E4,1.9089912E4,1.3191109E4,