{"learner":{"attributes":{"best_iteration":"599","best_score":"0.40723"},"feature_names":[],"feature_types":[],"gradient_booster":{"model":{"cats":{"enc":[],"feature_segments":[],"sorted_idx":[]},"gbtree_model_param":{"num_parallel_tree":"1","num_trees":"600"},"iteration_indptr":[0,1,2,3,4,5,6,7,8,9,10,11,12,13,14,15,16,17,18,19,20,21,22,23,24,25,26,27,28,29,30,31,32,33,34,35,36,37,38,39,40,41,42,43,44,45,46,47,48,49,50,51,52,53,54,55,56,57,58,59,60,61,62,63,64,65,66,67,68,69,70,71,72,73,74,75,76,77,78,79,80,81,82,83,84,85,86,87,88,89,90,91,92,93,94,95,96,97,98,99,100,101,102,103,104,105,106,107,108,109,110,111,112,113,114,115,116,117,118,119,120,121,122,123,124,125,126,127,128,129,130,131,132,133,134,135,136,137,138,139,140,141,142,143,144,145,146,147,148,149,150,151,152,153,154,155,156,157,158,159,160,161,162,163,164,165,166,167,168,169,170,171,172,173,174,175,176,177,178,179,180,181,182,183,184,185,186,187,188,189,190,191,192,193,194,195,196,197,198,199,200,201,202,203,204,205,206,207,208,209,210,211,212,213,214,215,216,217,218,219,220,221,222,223,224,225,226,227,228,229,230,231,232,233,234,235,236,237,238,239,240,241,242,243,244,245,246,247,248,249,250,251,252,253,254,255,256,257,258,259,260,261,262,263,264,265,266,267,268,269,270,271,272,273,274,275,276,277,278,279,280,281,282,283,284,285,286,287,288,289,290,291,292,293,294,295,296,297,298,299,300,301,302,303,304,305,306,307,308,309,310,311,312,313,314,315,316,317,318,319,320,321,322,323,324,325,326,327,328,329,330,331,332,333,334,335,336,337,338,339,340,341,342,343,344,345,346,347,348,349,350,351,352,353,354,355,356,357,358,359,360,361,362,363,364,365,366,367,368,369,370,371,372,373,374,375,376,377,378,379,380,381,382,383,384,385,386,387,388,389,390,391,392,393,394,395,396,397,398,399,400,401,402,403,404,405,406,407,408,409,410,411,412,413,414,415,416,417,418,419,420,421,422,423,424,425,426,427,428,429,430,431,432,433,434,435,436,437,438,439,440,441,442,443,444,445,446,447,448,449,450,451,452,453,454,455,456,457,458,459,460,461,462,463,464,465,466,467,468,469,470,471,472,473,474,475,476,477,478,479,480,481,482,483,484,485,486,487,488,489,490,491,492,493,494,495,496,497,498,499,500,501,502,503,504,505,506,507,508,509,510,511,512,513,514,515,516,517,518,519,520,521,522,523,524,525,526,527,528,529,530,531,532,533,534,535,536,537,538,539,540,541,542,543,544,545,546,547,548,549,550,551,552,553,554,555,556,557,558,559,560,561,562,563,564,565,566,567,568,569,570,571,572,573,574,575,576,577,578,579,580,581,582,583,584,585,586,587,588,589,590,591,592,593,594,595,596,597,598,599,600],"tree_info":[0,0,0,0,0,0,0,0,0,0,0,0,0,0,0,0,0,0,0,0,0,0,0,0,0,0,0,0,0,0,0,0,0,0,0,0,0,0,0,0,0,0,0,0,0,0,0,0,0,0,0,0,0,0,0,0,0,0,0,0,0,0,0,0,0,0,0,0,0,0,0,0,0,0,0,0,0,0,0,0,0,0,0,0,0,0,0,0,0,0,0,0,0,0,0,0,0,0,0,0,0,0,0,0,0,0,0,0,0,0,0,0,0,0,0,0,0,0,0,0,0,0,0,0,0,0,0,0,0,0,0,0,0,0,0,0,0,0,0,0,0,0,0,0,0,0,0,0,0,0,0,0,0,0,0,0,0,0,0,0,0,0,0,0,0,0,0,0,0,0,0,0,0,0,0,0,0,0,0,0,0,0,0,0,0,0,0,0,0,0,0,0,0,0,0,0,0,0,0,0,0,0,0,0,0,0,0,0,0,0,0,0,0,0,0,0,0,0,0,0,0,0,0,0,0,0,0,0,0,0,0,0,0,0,0,0,0,0,0,0,0,0,0,0,0,0,0,0,0,0,0,0,0,0,0,0,0,0,0,0,0,0,0,0,0,0,0,0,0,0,0,0,0,0,0,0,0,0,0,0,0,0,0,0,0,0,0,0,0,0,0,0,0,0,0,0,0,0,0,0,0,0,0,0,0,0,0,0,0,0,0,0,0,0,0,0,0,0,0,0,0,0,0,0,0,0,0,0,0,0,0,0,0,0,0,0,0,0,0,0,0,0,0,0,0,0,0,0,0,0,0,0,0,0,0,0,0,0,0,0,0,0,0,0,0,0,0,0,0,0,0,0,0,0,0,0,0,0,0,0,0,0,0,0,0,0,0,0,0,0,0,0,0,0,0,0,0,0,0,0,0,0,0,0,0,0,0,0,0,0,0,0,0,0,0,0,0,0,0,0,0,0,0,0,0,0,0,0,0,0,0,0,0,0,0,0,0,0,0,0,0,0,0,0,0,0,0,0,0,0,0,0,0,0,0,0,0,0,0,0,0,0,0,0,0,0,0,0,0,0,0,0,0,0,0,0,0,0,0,0,0,0,0,0,0,0,0,0,0,0,0,0,0,0,0,0,0,0,0,0,0,0,0,0,0,0,0,0,0,0,0,0,0,0,0,0,0,0,0,0,0,0,0,0,0,0,0,0,0,0,0,0,0,0,0,0,0,0,0,0,0,0,0,0,0,0,0,0,0,0,0,0,0,0,0,0,0,0,0,0,0,0,0,0,0,0,0,0,0,0,0,0,0,0,0,0,0,0,0,0,0,0,0,0,0,0,0,0,0,0,0,0,0,0,0,0,0,0,0,0],"trees":[{"base_weights":[2.6994152E4,3.4952617E4,1.4954168E4,2.8174848E4,3.6687805E4,1.9450482E4,5.3255327E3,6.318269E2,2.0351516E4,3.3412973E4,8.9686676E2,2.1748176E4,1.2643412E4,7.508083E3,3.2302795E3,2.303916E2,4.2970465E2,3.472046E4,2.4088404E4,2.0959052E2,2.3235867E4,1.4399513E4,6.5449907E3,5.052153E3,9.811288E3,4.870112E3,1.8777783E3,6.99671E2,3.839916E2,5.102512E2,2.543916E2,3.1704303E2,4.9361972E2,2.2079053E2,3.3034338E2,1.5427686E2,7.19916E1,4.31916E1,1.1359054E2,2.225362E2,1.2684828E2,1.14452156E2,3.35916E1,1.43916E1,4.1674633E1],"categories":[],"categories_nodes":[],"categories_segments":[],"categories_sizes":[],"default_left":[0,0,0,0,0,0,0,0,0,0,0,0,0,0,0,0,0,0,0,0,0,0,0,0,0,0,0,0,0,0,0,0,0,0,0,0,0,0,0,0,0,0,0,0,0],"id":0,"left_children":[1,3,5,7,9,11,13,-1,15,17,-1,19,21,23,25,-1,-1,27,29,-1,31,33,35,37,39,41,43,-1,-1,-1,-1,-1,-1,-1,-1,-1,-1,-1,-1,-1,-1,-1,-1,-1,-1],"loss_changes":[5.323224E10,2.9296886E9,9.637421E9,1.3082378E9,5.5792763E9,2.1180334E9,3.095744E8,0E0,2.819072E6,1.5166341E9,0E0,1.65086E9,3.448402E8,1.4840832E8,7.735149E7,0E0,0E0,1.024E7,1.126441E8,0E0,6.651126E8,3.823053E7,1.0102496E7,2.2213632E7,7.0048E6,3.662624E7,3.986608E6,0E0,0E0,0E0,0E0,0E0,0E0,0E0,0E0,0E0,0E0,0E0,0E0,0E0,0E0,0E0,0E0,0E0,0E0],"parents":[2147483647,0,0,1,1,2,2,3,3,4,4,5,5,6,6,8,8,9,9,11,11,12,12,13,13,14,14,17,17,18,18,20,20,21,21,22,22,23,23,24,24,25,25,26,26],"right_children":[2,4,6,8,10,12,14,-1,16,18,-1,20,22,24,26,-1,-1,28,30,-1,32,34,36,38,40,42,44,-1,-1,-1,-1,-1,-1,-1,-1,-1,-1,-1,-1,-1,-1,-1,-1,-1,-1],"split_conditions":[4.7059464E-3,-2.3484884E-1,1.4684951E0,-4.1934597E-1,-1.547717E-1,3.9349623E-2,1.800175E0,6.318269E2,-3.522381E-1,-3.0555898E-1,8.9686676E2,-1.0858772E0,6.6745245E-1,-6.506184E-1,1.294458E-1,2.303916E2,4.2970465E2,-1.571035E-1,5.632333E-3,2.0959052E2,-2.1361293E-1,1.0272217E0,-4.833857E-1,-1.0796406E0,7.219936E-2,1.9938661E0,1.1002729E-1,6.99671E2,3.839916E2,5.102512E2,2.543916E2,3.1704303E2,4.9361972E2,2.2079053E2,3.3034338E2,1.5427686E2,7.19916E1,4.31916E1,1.1359054E2,2.225362E2,1.2684828E2,1.14452156E2,3.35916E1,1.43916E1,4.1674633E1],"split_indices":[31,2,31,31,1,1,31,0,22,31,0,26,23,33,1,0,0,1,4,0,7,26,2,26,33,31,4,0,0,0,0,0,0,0,0,0,0,0,0,0,0,0,0,0,0],"split_type":[0,0,0,0,0,0,0,0,0,0,0,0,0,0,0,0,0,0,0,0,0,0,0,0,0,0,0,0,0,0,0,0,0,0,0,0,0,0,0,0,0,0,0,0,0],"sum_hessian":[5.6E2,3.36E2,2.24E2,7.2E1,2.64E2,1.52E2,7.2E1,4.8E1,2.4E1,1.92E2,7.2E1,1.12E2,4E1,3.4E1,3.8E1,4E0,2E1,1.66E2,2.6E1,1.4E1,9.8E1,3E1,1E1,1.8E1,1.6E1,1.6E1,2.2E1,1.62E2,4E0,2.2E1,4E0,1.8E1,8E1,1.4E1,1.6E1,6E0,4E0,4E0,1.4E1,1E1,6E0,1.2E1,4E0,4E0,1.8E1],"tree_param":{"num_deleted":"0","num_feature":"36","num_nodes":"45","size_leaf_vector":"1"}},{"base_weights":[2.6114871E4,3.2004691E4,9.63003E3,3.5590676E4,2.5420023E4,1.453366E4,5.455051E3,3.9031207E4,6.5485095E2,1.166093E4,2.7011508E4,1.6539996E4,7.6597246E3,7.734293E3,3.0427559E3,5.907859E2,4.3827605E4,2.8425897E2,1.5626483E2,1.717545E4,2.8839193E4,1.7123936E4,1.5485895E2,1.0226953E2,2.113342E2,9.432872E3,4.781418E3,2.0869E3,1.0919817E2,5.6394696E2,9.172204E2,2.3385384E2,3.864013E2,5.052519E2,6.672903E2,3.5298145E2,1.8365894E2,8.92681E1,2.0333778E2,1.1233919E2,3.3054134E1,1.6575481E1,4.71139E1],"categories":[],"categories_nodes":[],"categories_segments":[],"categories_sizes":[],"default_left":[0,0,0,0,0,0,0,0,0,0,0,0,0,0,0,0,0,0,0,0,0,0,0,0,0,0,0,0,0,0,0,0,0,0,0,0,0,0,0,0,0,0,0],"id":1,"left_children":[1,3,5,7,9,11,13,15,-1,17,19,21,23,25,27,-1,29,-1,-1,31,33,35,-1,-1,-1,37,39,41,-1,-1,-1,-1,-1,-1,-1,-1,-1,-1,-1,-1,-1,-1,-1],"loss_changes":[5.3384086E10,8.705573E9,2.9301821E9,1.2795904E9,2.9039247E9,7.9733146E8,4.218199E8,3.8499123E9,0E0,5.587789E7,1.8596905E9,1.2939162E8,7.179827E7,1.6053965E8,8.333347E7,0E0,1.0269655E9,0E0,0E0,4.453632E7,9.213051E8,3.392307E7,0E0,0E0,0E0,4.5811456E7,3.5156896E7,8.530864E6,0E0,0E0,0E0,0E0,0E0,0E0,0E0,0E0,0E0,0E0,0E0,0E0,0E0,0E0,0E0],"parents":[2147483647,0,0,1,1,2,2,3,3,4,4,5,5,6,6,7,7,9,9,10,10,11,11,12,12,13,13,14,14,16,16,19,19,20,20,21,21,25,25,26,26,27,27],"right_children":[2,4,6,8,10,12,14,16,-1,18,20,22,24,26,28,-1,30,-1,-1,32,34,36,-1,-1,-1,38,40,42,-1,-1,-1,-1,-1,-1,-1,-1,-1,-1,-1,-1,-1,-1,-1],"split_conditions":[6.3792497E-1,-2.842863E-1,1.4684949E0,-2.126361E-1,-1.0858772E0,3.601998E-1,1.9378804E-1,-2.3265654E-1,6.5485095E2,-2.9112962E-1,-3.2374936E-1,1.9886744E0,1.4914249E0,1.8001748E0,-8.633415E-1,5.907859E2,-5.78728E-1,2.8425897E2,1.5626483E2,-1.2122958E0,-1.4593945E-1,1.4890184E0,1.5485895E2,1.0226953E2,2.113342E2,-7.694514E-1,1.9938664E0,-3.064702E-1,1.0919817E2,5.6394696E2,9.172204E2,2.3385384E2,3.864013E2,5.052519E2,6.672903E2,3.5298145E2,1.8365894E2,8.92681E1,2.0333778E2,1.1233919E2,3.3054134E1,1.6575481E1,4.71139E1],"split_indices":[32,32,32,11,26,23,0,7,0,12,2,18,8,32,26,0,8,0,0,27,18,28,0,0,0,12,32,22,0,0,0,0,0,0,0,0,0,0,0,0,0,0,0],"split_type":[0,0,0,0,0,0,0,0,0,0,0,0,0,0,0,0,0,0,0,0,0,0,0,0,0,0,0,0,0,0,0,0,0,0,0,0,0,0,0,0,0,0,0],"sum_hessian":[5.52E2,4.06E2,1.46E2,2.6E2,1.46E2,6.6E1,8E1,1.12E2,1.48E2,1.6E1,1.3E2,5E1,1.6E1,4E1,4E1,4E1,7.2E1,8E0,8E0,2.2E1,1.08E2,4.6E1,4E0,1E1,6E0,2.4E1,1.6E1,3E1,1E1,1E1,6.2E1,8E0,1.4E1,6.4E1,4.4E1,4.2E1,4E0,4E0,2E1,1.2E1,4E0,6E0,2.4E1],"tree_param":{"num_deleted":"0","num_feature":"36","num_nodes":"43","size_leaf_vector":"1"}},{"base_weights":[2.6230996E4,3.1894875E4,1.0323368E4,3.4882375E4,2.4447158E4,1.3541806E4,4.602589E3,2.9988406E4,3.7764227E4,1.2313295E4,2.624744E4,8.541565E3,1.5205448E4,1.4328403E2,2.8329968E3,2.9695908E2,3.0423775E4,4.057068E4,5.875469E2,1.3760046E2,2.930286E2,3.1591068E2,2.8029027E4,1.17197716E2,1.9877373E2,1.8330917E2,1.6356617E4,2.1378643E3,1.2596294E2,6.205457E2,3.5084348E2,6.3867224E2,9.016287E2,5.740213E2,2.3072346E2,3.4358752E2,1.652126E2,2.4135017E1,5.8528934E1],"categories":[],"categories_nodes":[],"categories_segments":[],"categories_sizes":[],"default_left":[0,0,0,0,0,0,0,0,0,0,0,0,0,0,0,0,0,0,0,0,0,0,0,0,0,0,0,0,0,0,0,0,0,0,0,0,0,0,0],"id":2,"left_children":[1,3,5,7,9,11,13,15,17,19,21,23,25,-1,27,-1,29,31,-1,-1,-1,-1,33,-1,-1,-1,35,37,-1,-1,-1,-1,-1,-1,-1,-1,-1,-1,-1],"loss_changes":[4.8234037E10,7.9804826E9,2.570582E9,2.8306637E9,2.2325903E9,6.2711194E8,2.1995226E8,2.667561E8,2.8800942E9,1.1515904E8,1.4379745E9,3.5424384E7,3.159378E8,0E0,6.6022976E7,0E0,2.7199898E8,3.5082568E9,0E0,0E0,0E0,0E0,6.110249E8,0E0,0E0,0E0,2.2444237E8,1.7761632E7,0E0,0E0,0E0,0E0,0E0,0E0,0E0,0E0,0E0,0E0,0E0],"parents":[2147483647,0,0,1,1,2,2,3,3,4,4,5,5,6,6,7,7,8,8,9,9,10,10,11,11,12,12,14,14,16,16,17,17,22,22,26,26,27,27],"right_children":[2,4,6,8,10,12,14,16,18,20,22,24,26,-1,28,-1,30,32,-1,-1,-1,-1,34,-1,-1,-1,36,38,-1,-1,-1,-1,-1,-1,-1,-1,-1,-1,-1],"split_conditions":[5.189216E-1,-1.9793127E-1,1.6139362E0,-2.1245158E-1,-1.0858772E0,-7.6244664E-1,1.8164506E0,-5.7098344E-2,4.0618467E-1,-2.8350413E-1,-3.2374936E-1,-5.487444E-1,-1.5411092E-1,1.4328403E2,2.6165262E-1,2.9695908E2,-5.4479115E-2,-4.381923E-1,5.875469E2,1.3760046E2,2.930286E2,3.1591068E2,1.0353358E0,1.17197716E2,1.9877373E2,1.8330917E2,1.55192E0,2.7013084E-1,1.2596294E2,6.205457E2,3.5084348E2,6.3867224E2,9.016287E2,5.740213E2,2.3072346E2,3.4358752E2,1.652126E2,2.4135017E1,5.8528934E1],"split_indices":[31,31,31,16,26,33,31,13,12,21,2,5,21,0,19,0,13,25,0,0,0,0,11,0,0,0,31,29,0,0,0,0,0,0,0,0,0,0,0],"split_type":[0,0,0,0,0,0,0,0,0,0,0,0,0,0,0,0,0,0,0,0,0,0,0,0,0,0,0,0,0,0,0,0,0,0,0,0,0,0,0],"sum_hessian":[5.38E2,3.96E2,1.42E2,2.8E2,1.16E2,9E1,5.2E1,1.08E2,1.72E2,1.6E1,1E2,2.4E1,6.6E1,2E1,3.2E1,4E0,1.04E2,1.26E2,4.6E1,6E0,1E1,1.6E1,8.4E1,1E1,1.4E1,1.2E1,5.4E1,2.8E1,4E0,9.8E1,6E0,4.6E1,8E1,8E1,4E0,4.8E1,6E0,1.4E1,1.4E1],"tree_param":{"num_deleted":"0","num_feature":"36","num_nodes":"39","size_leaf_vector":"1"}},{"base_weights":[2.5930246E4,3.146346E4,9.07188E3,3.399193E4,2.4704646E4,1.2517358E4,3.9542927E3,3.7931062E4,3.138701E4,1.2651868E4,2.6163402E4,1.478455E4,7.0995166E3,6.0979253E3,2.3101443E3,5.6433325E2,4.2863375E4,2.9220773E2,6.3329535E2,1.4121059E2,3.1189825E2,3.168055E2,2.7547096E4,1.1428228E4,1.7862527E4,1.8004584E2,8.715765E1,3.538279E1,6.838206E3,9.007038E1,1.7010454E3,5.269499E2,8.8792816E2,2.526034E2,5.686134E2,1.8556203E2,3.1306354E2,3.7432303E2,2.0043742E2,1.5071852E2,8.732381E1,4.195088E1,1.7230698E1],"categories":[],"categories_nodes":[],"categories_segments":[],"categories_sizes":[],"default_left":[0,0,0,0,0,0,0,0,0,0,0,0,0,0,0,0,0,0,0,0,0,0,0,0,0,0,0,0,0,0,0,0,0,0,0,0,0,0,0,0,0,0,0],"id":3,"left_children":[1,3,5,7,9,11,13,15,17,19,21,23,25,27,29,-1,31,-1,-1,-1,-1,-1,33,35,37,-1,-1,-1,39,-1,41,-1,-1,-1,-1,-1,-1,-1,-1,-1,-1,-1,-1],"loss_changes":[5.316454E10,6.5258127E9,2.4719534E9,2.0006502E9,1.7964073E9,9.391145E8,1.938546E8,4.4923617E9,4.367319E8,1.3672269E8,1.0920346E9,4.0536986E8,1.0161907E8,6.801434E7,3.9098064E7,0E0,7.798456E8,0E0,0E0,0E0,0E0,0E0,8.666808E8,1.363753E8,6.52288E6,0E0,0E0,0E0,3.31584E6,0E0,7.845672E6,0E0,0E0,0E0,0E0,0E0,0E0,0E0,0E0,0E0,0E0,0E0,0E0],"parents":[2147483647,0,0,1,1,2,2,3,3,4,4,5,5,6,6,7,7,8,8,9,9,10,10,11,11,12,12,13,13,14,14,16,16,22,22,23,23,24,24,28,28,30,30],"right_children":[2,4,6,8,10,12,14,16,18,20,22,24,26,28,30,-1,32,-1,-1,-1,-1,-1,34,36,38,-1,-1,-1,40,-1,42,-1,-1,-1,-1,-1,-1,-1,-1,-1,-1,-1,-1],"split_conditions":[5.189216E-1,-1.9793127E-1,1.6139362E0,-1.893694E-1,-1.1050818E0,3.601998E-1,1.9378804E-1,-2.0122166E-1,-5.7098344E-2,-2.1176277E-1,-3.2374936E-1,1.0224701E0,1.6069987E0,-1.251895E-1,1.7516541E0,5.6433325E2,-2.1041037E-1,2.9220773E2,6.3329535E2,1.4121059E2,3.1189825E2,3.168055E2,-2.213865E-1,4.382348E-1,1.048032E0,1.8004584E2,8.715765E1,3.538279E1,1.7826189E0,9.007038E1,-1.0139489E0,5.269499E2,8.8792816E2,2.526034E2,5.686134E2,1.8556203E2,3.1306354E2,3.7432303E2,2.0043742E2,1.5071852E2,8.732381E1,4.195088E1,1.7230698E1],"split_indices":[31,31,31,11,26,23,0,7,13,22,2,26,28,6,31,0,16,0,0,0,0,0,24,35,17,0,0,0,29,0,11,0,0,0,0,0,0,0,0,0,0,0,0],"split_type":[0,0,0,0,0,0,0,0,0,0,0,0,0,0,0,0,0,0,0,0,0,0,0,0,0,0,0,0,0,0,0,0,0,0,0,0,0,0,0,0,0,0,0],"sum_hessian":[5.72E2,4.3E2,1.42E2,3.1E2,1.2E2,8.4E1,5.8E1,1.18E2,1.92E2,1.4E1,1.06E2,5.8E1,2.6E1,2.4E1,3.4E1,4.2E1,7.6E1,4E0,1.88E2,6E0,8E0,1.4E1,9.2E1,3E1,2.8E1,1.4E1,1.2E1,4E0,2E1,6E0,2.8E1,8E0,6.8E1,6E0,8.6E1,2.2E1,8E0,2.4E1,4E0,1.4E1,6E0,1.8E1,1E1],"tree_param":{"num_deleted":"0","num_feature":"36","num_nodes":"43","size_leaf_vector":"1"}},{"base_weights":[2.5195803E4,3.0625352E4,9.171783E3,3.3199E4,2.4281605E4,1.2999847E4,4.903443E3,3.0811168E4,3.711033E4,1.2452052E4,2.559068E4,1.4842241E4,6.400581E3,7.198474E3,2.7180679E3,3.7695175E2,6.2170874E2,5.6404224E2,4.1605207E4,2.826506E2,1.252913E2,2.7710623E2,2.7051258E4,1.2512082E4,3.4626202E2,1.541738E2,8.1811874E1,9.451731E1,8.283054E3,1.876224E3,1.0631467E2,5.352767E2,8.817214E2,2.4827306E2,5.5657404E2,1.9817863E2,3.0644693E2,7.2420456E1,1.8147896E2,4.5178802E1,1.3793816E1],"categories":[],"categories_nodes":[],"categories_segments":[],"categories_sizes":[],"default_left":[0,0,0,0,0,0,0,0,0,0,0,0,0,0,0,0,0,0,0,0,0,0,0,0,0,0,0,0,0,0,0,0,0,0,0,0,0,0,0,0,0],"id":4,"left_children":[1,3,5,7,9,11,13,15,17,19,21,23,25,27,29,-1,-1,-1,31,-1,-1,-1,33,35,-1,-1,-1,-1,37,39,-1,-1,-1,-1,-1,-1,-1,-1,-1,-1,-1],"loss_changes":[5.113797E10,6.393889E9,2.4035144E9,1.7612145E9,1.7099735E9,8.6551654E8,3.4656486E8,6.705971E7,3.3513144E9,6.743296E7,1.6306258E9,1.3458125E8,2.5878272E7,5.471488E7,7.531206E7,0E0,0E0,0E0,1.5078932E9,0E0,0E0,0E0,8.266629E8,1.042135E8,0E0,0E0,0E0,0E0,5.194688E7,1.2519016E7,0E0,0E0,0E0,0E0,0E0,0E0,0E0,0E0,0E0,0E0,0E0],"parents":[2147483647,0,0,1,1,2,2,3,3,4,4,5,5,6,6,7,7,8,8,9,9,10,10,11,11,12,12,13,13,14,14,18,18,22,22,23,23,28,28,29,29],"right_children":[2,4,6,8,10,12,14,16,18,20,22,24,26,28,30,-1,-1,-1,32,-1,-1,-1,34,36,-1,-1,-1,-1,38,40,-1,-1,-1,-1,-1,-1,-1,-1,-1,-1,-1],"split_conditions":[6.3792527E-1,-1.9793127E-1,1.5007999E0,-1.7603718E-1,-1.0858772E0,3.601998E-1,1.9378804E-1,-5.7098344E-2,-1.6266878E-1,-2.1631508E-1,-3.3866084E-1,1.0224701E0,5.0958693E-1,-3.4994274E-1,1.5359704E0,3.7695175E2,6.2170874E2,5.6404224E2,-2.1041037E-1,2.826506E2,1.252913E2,2.7710623E2,-2.213865E-1,-2.4348424E-1,3.4626202E2,1.541738E2,8.1811874E1,9.451731E1,-5.844479E-1,-1.0139489E0,1.0631467E2,5.352767E2,8.817214E2,2.4827306E2,5.5657404E2,1.9817863E2,3.0644693E2,7.2420456E1,1.8147896E2,4.5178802E1,1.3793816E1],"split_indices":[31,31,31,6,26,23,0,13,7,14,2,26,29,2,8,0,0,0,16,0,0,0,24,2,0,0,0,0,27,11,0,0,0,0,0,0,0,0,0,0,0],"split_type":[0,0,0,0,0,0,0,0,0,0,0,0,0,0,0,0,0,0,0,0,0,0,0,0,0,0,0,0,0,0,0,0,0,0,0,0,0,0,0,0,0],"sum_hessian":[5.9E2,4.4E2,1.5E2,3.1E2,1.3E2,7.8E1,7.2E1,1.98E2,1.12E2,1.4E1,1.16E2,6E1,1.8E1,3.4E1,3.8E1,6E0,1.92E2,4E1,7.2E1,1E1,4E0,1.4E1,1.02E2,3.4E1,2.6E1,1E1,8E0,1.2E1,2.2E1,3E1,8E0,1.2E1,6E1,6E0,9.6E1,2E1,1.4E1,4E0,1.8E1,2.2E1,8E0],"tree_param":{"num_deleted":"0","num_feature":"36","num_nodes":"41","size_leaf_vector":"1"}},{"base_weights":[2.5296977E4,3.0599629E4,9.361225E3,3.2505092E4,2.2997482E4,1.3943764E4,5.240256E3,2.8780537E4,3.50673E4,1.2666599E4,2.5032514E4,1.5717358E4,6.510991E3,7.0655938E3,2.4817341E3,2.910519E4,2.747878E2,2.7590898E4,3.7764457E4,3.4162784E2,1.3688786E2,2.8230612E2,2.6887928E4,2.2499228E2,1.7261824E4,9.311531E1,1.8580539E2,8.073038E3,1.914924E3,8.13912E1,1.8108433E3,5.9780304E2,4.305794E2,3.0469626E2,5.6471967E2,6.0428E2,8.382584E2,2.2395767E2,5.5523724E2,3.6142688E2,1.6285622E2,9.432531E1,1.8780513E2,6.2231827E0,6.2713676E1,4.361944E1,1.8209908E1],"categories":[],"categories_nodes":[],"categories_segments":[],"categories_sizes":[],"default_left":[0,0,0,0,0,0,0,0,0,0,0,0,0,0,0,0,0,0,0,0,0,0,0,0,0,0,0,0,0,0,0,0,0,0,0,0,0,0,0,0,0,0,0,0,0,0,0],"id":5,"left_children":[1,3,5,7,9,11,13,15,17,19,21,23,25,27,29,31,-1,33,35,-1,-1,-1,37,-1,39,-1,-1,41,43,-1,45,-1,-1,-1,-1,-1,-1,-1,-1,-1,-1,-1,-1,-1,-1,-1,-1],"loss_changes":[4.8978035E10,5.582684E9,2.7029514E9,2.3021814E9,1.596076E9,8.072704E8,3.8024755E8,3.1793152E8,3.011199E9,3.200512E8,1.1396588E9,1.8532352E8,3.408813E7,2.2842368E8,2.77836E7,2.0692173E8,0E0,2.4158208E7,3.275473E9,0E0,0E0,0E0,5.529805E8,0E0,1.407447E8,0E0,0E0,1.2815437E8,1.6644264E7,0E0,6.34504E6,0E0,0E0,0E0,0E0,0E0,0E0,0E0,0E0,0E0,0E0,0E0,0E0,0E0,0E0,0E0,0E0],"parents":[2147483647,0,0,1,1,2,2,3,3,4,4,5,5,6,6,7,7,8,8,9,9,10,10,11,11,12,12,13,13,14,14,15,15,17,17,18,18,22,22,24,24,27,27,28,28,30,30],"right_children":[2,4,6,8,10,12,14,16,18,20,22,24,26,28,30,32,-1,34,36,-1,-1,-1,38,-1,40,-1,-1,42,44,-1,46,-1,-1,-1,-1,-1,-1,-1,-1,-1,-1,-1,-1,-1,-1,-1,-1],"split_conditions":[5.189216E-1,-1.23320065E-1,1.4684951E0,-2.1177796E-1,-5.4863274E-1,3.601998E-1,1.2282841E0,-7.447592E-2,-1.7124535E-1,-6.485443E-1,-3.2374936E-1,-4.1694438E-1,1.4914249E0,1.0360205E-1,-5.7323605E-2,-3.2885274E-1,2.747878E2,-1.834324E0,-2.83166E-1,3.4162784E2,1.3688786E2,2.8230612E2,-2.229046E-1,2.2499228E2,1.048032E0,9.311531E1,1.8580539E2,-3.4994274E-1,4.9803346E-2,8.13912E1,-1.0139489E0,5.9780304E2,4.305794E2,3.0469626E2,5.6471967E2,6.0428E2,8.382584E2,2.2395767E2,5.5523724E2,3.6142688E2,1.6285622E2,9.432531E1,1.8780513E2,6.2231827E0,6.2713676E1,4.361944E1,1.8209908E1],"split_indices":[31,31,31,16,8,23,14,4,7,8,2,5,8,2,34,23,0,35,19,0,0,0,24,0,17,0,0,2,3,0,11,0,0,0,0,0,0,0,0,0,0,0,0,0,0,0,0],"split_type":[0,0,0,0,0,0,0,0,0,0,0,0,0,0,0,0,0,0,0,0,0,0,0,0,0,0,0,0,0,0,0,0,0,0,0,0,0,0,0,0,0,0,0,0,0,0,0],"sum_hessian":[5.82E2,4.36E2,1.46E2,3.46E2,9E1,6.8E1,7.8E1,1.46E2,2E2,1.6E1,7.4E1,5.4E1,1.4E1,4.6E1,3.2E1,1.42E2,4E0,5.6E1,1.44E2,8E0,8E0,1.2E1,6.2E1,1.6E1,3.8E1,1E1,4E0,3.8E1,8E0,8E0,2.4E1,1.26E2,1.6E1,4E0,5.2E1,5.4E1,9E1,4E0,5.8E1,3.4E1,4E0,1.2E1,2.6E1,4E0,4E0,1.6E1,8E0],"tree_param":{"num_deleted":"0","num_feature":"36","num_nodes":"47","size_leaf_vector":"1"}},{"base_weights":[2.4185508E4,2.9322217E4,8.603853E3,3.2136986E4,2.250876E4,1.3192424E4,5.04204E3,3.5693348E4,2.9726504E4,1.442968E4,2.4064094E4,1.5291972E4,6.858767E3,7.356309E3,2.8257935E3,5.4583636E2,4.089883E4,2.7885724E2,6.000263E2,3.5585678E2,1.4442212E2,2.710841E2,2.553205E4,1.596019E4,1.3508331E2,8.765958E1,1.9538905E2,7.997956E3,2.7869946E1,1.9165394E3,1.0593311E2,8.4281726E2,4.775568E2,2.3828464E2,5.270628E2,3.3148807E2,1.6445885E2,9.789144E1,1.7472386E2,2.6099863E1,5.1267776E1],"categories":[],"categories_nodes":[],"categories_segments":[],"categories_sizes":[],"default_left":[0,0,0,0,0,0,0,0,0,0,0,0,0,0,0,0,0,0,0,0,0,0,0,0,0,0,0,0,0,0,0,0,0,0,0,0,0,0,0,0,0],"id":6,"left_children":[1,3,5,7,9,11,13,15,17,19,21,23,25,27,29,-1,31,-1,-1,-1,-1,-1,33,35,-1,-1,-1,37,-1,39,-1,-1,-1,-1,-1,-1,-1,-1,-1,-1,-1],"loss_changes":[4.4809355E10,7.3890857E9,2.2379325E9,1.485013E9,1.2486E9,7.062815E8,3.946597E8,3.9132037E9,3.7545574E8,4.291159E8,1.2738765E9,1.4892954E8,7.968538E7,1.3806886E8,8.64536E7,0E0,4.5246874E8,0E0,0E0,0E0,0E0,0E0,7.0352896E8,5.855232E7,0E0,0E0,0E0,3.742464E7,0E0,9.708504E6,0E0,0E0,0E0,0E0,0E0,0E0,0E0,0E0,0E0,0E0,0E0],"parents":[2147483647,0,0,1,1,2,2,3,3,4,4,5,5,6,6,7,7,8,8,9,9,10,10,11,11,12,12,13,13,14,14,16,16,22,22,23,23,27,27,29,29],"right_children":[2,4,6,8,10,12,14,16,18,20,22,24,26,28,30,-1,32,-1,-1,-1,-1,-1,34,36,-1,-1,-1,38,-1,40,-1,-1,-1,-1,-1,-1,-1,-1,-1,-1,-1],"split_conditions":[6.3792527E-1,-1.9793127E-1,1.4684951E0,-2.126361E-1,-5.663467E-1,3.601998E-1,1.9630356E-1,-2.0122166E-1,-5.684152E-2,-6.2271017E-1,-3.3866084E-1,1.126617E0,1.4914249E0,1.9938661E0,1.5359704E0,5.4583636E2,5.506078E-1,2.7885724E2,6.000263E2,3.5585678E2,1.4442212E2,2.710841E2,-2.213865E-1,1.4890184E0,1.3508331E2,8.765958E1,1.9538905E2,-4.9609432E-1,2.7869946E1,5.763944E-1,1.0593311E2,8.4281726E2,4.775568E2,2.3828464E2,5.270628E2,3.3148807E2,1.6445885E2,9.789144E1,1.7472386E2,2.6099863E1,5.1267776E1],"split_indices":[31,31,31,11,8,23,1,7,13,8,2,25,8,31,8,0,28,0,0,0,0,0,24,28,0,0,0,33,0,1,0,0,0,0,0,0,0,0,0,0,0],"split_type":[0,0,0,0,0,0,0,0,0,0,0,0,0,0,0,0,0,0,0,0,0,0,0,0,0,0,0,0,0,0,0,0,0,0,0,0,0,0,0,0,0],"sum_hessian":[5.62E2,4.22E2,1.4E2,2.96E2,1.26E2,6E1,8E1,1.14E2,1.82E2,2.2E1,1.04E2,4.4E1,1.6E1,3.8E1,4.2E1,4.6E1,6.8E1,4E0,1.78E2,1.4E1,8E0,1.4E1,9E1,4E1,4E0,1E1,6E0,3.4E1,4E0,3.2E1,1E1,6.2E1,6E0,6E0,8.4E1,3.6E1,4E0,8E0,2.6E1,1.8E1,1.4E1],"tree_param":{"num_deleted":"0","num_feature":"36","num_nodes":"41","size_leaf_vector":"1"}},{"base_weights":[2.4099008E4,2.8001938E4,8.308565E3,1.6621377E4,2.9008812E4,4.7587646E3,1.3192141E4,2.3420822E4,9.677998E3,3.0636463E4,2.173955E4,6.837306E3,2.663029E3,1.4947375E4,8.2406456E1,5.888551E2,3.6753265E2,1.20322525E2,2.148333E2,3.1254604E4,9.588075E3,1.3859924E4,5.256191E2,1.6409946E2,8.204089E1,9.700181E1,1.8353744E3,3.176741E2,2.0122812E2,5.312322E2,6.746448E2,2.752043E2,3.6588863E1,1.4993651E2,3.017438E2,4.5084187E1,1.494451E1],"categories":[],"categories_nodes":[],"categories_segments":[],"categories_sizes":[],"default_left":[0,0,0,0,0,0,0,0,0,0,0,0,0,0,0,0,0,0,0,0,0,0,0,0,0,0,0,0,0,0,0,0,0,0,0,0,0],"id":7,"left_children":[1,3,5,7,9,11,13,15,17,19,21,23,25,27,-1,-1,-1,-1,-1,29,31,33,-1,-1,-1,-1,35,-1,-1,-1,-1,-1,-1,-1,-1,-1,-1],"loss_changes":[3.4464465E10,4.6857585E9,1.8961572E9,1.6145633E9,4.2205512E9,2.7364787E8,6.8679834E8,3.6076544E7,1.7170176E7,4.0589722E9,2.462724E9,8.979213E7,5.445221E7,1.8605056E7,0E0,0E0,0E0,0E0,0E0,2.8829614E9,3.308962E8,1.2897741E8,0E0,0E0,0E0,0E0,1.0620672E7,0E0,0E0,0E0,0E0,0E0,0E0,0E0,0E0,0E0,0E0],"parents":[2147483647,0,0,1,1,2,2,3,3,4,4,5,5,6,6,7,7,8,8,9,9,10,10,11,11,12,12,13,13,19,19,20,20,21,21,26,26],"right_children":[2,4,6,8,10,12,14,16,18,20,22,24,26,28,-1,-1,-1,-1,-1,30,32,34,-1,-1,-1,-1,36,-1,-1,-1,-1,-1,-1,-1,-1,-1,-1],"split_conditions":[6.18011E-3,-1.0796406E0,9.868327E-1,-6.5523314E-1,2.537602E-1,1.9378804E-1,1.6069987E0,-2.196329E-1,-2.8350413E-1,1.1206366E0,8.9872915E-1,1.0705324E0,-4.173972E-1,3.9538327E-1,8.2406456E1,5.888551E2,3.6753265E2,1.20322525E2,2.148333E2,-2.2347873E-1,1.4388132E0,-9.632252E-1,5.256191E2,1.6409946E2,8.204089E1,9.700181E1,-1.0139489E0,3.176741E2,2.0122812E2,5.312322E2,6.746448E2,2.752043E2,3.6588863E1,1.4993651E2,3.017438E2,4.5084187E1,1.494451E1],"split_indices":[0,26,26,8,20,0,28,0,21,8,26,29,7,0,0,0,0,0,0,16,8,26,0,0,0,0,11,0,0,0,0,0,0,0,0,0,0],"split_type":[0,0,0,0,0,0,0,0,0,0,0,0,0,0,0,0,0,0,0,0,0,0,0,0,0,0,0,0,0,0,0,0,0,0,0,0,0],"sum_hessian":[5.62E2,4.5E2,1.12E2,3.8E1,4.12E2,6.6E1,4.6E1,1.8E1,2E1,3.34E2,7.8E1,3.2E1,3.4E1,3.8E1,8E0,6E0,1.2E1,6E0,1.4E1,3.24E2,1E1,3E1,4.8E1,2E1,1.2E1,8E0,2.6E1,3E1,8E0,1.16E2,2.08E2,6E0,4E0,6E0,2.4E1,1.8E1,8E0],"tree_param":{"num_deleted":"0","num_feature":"36","num_nodes":"37","size_leaf_vector":"1"}},{"base_weights":[2.3228479E4,2.8226307E4,9.140306E3,3.137312E4,2.2271234E4,1.341703E4,5.072695E3,3.5044168E4,2.8906648E4,1.1136387E4,2.3716203E4,1.5557265E4,6.51545E3,7.142618E3,2.7665498E3,3.8916383E4,5.237569E2,2.660581E2,5.8408594E2,1.27627045E2,2.8028925E2,1.4575656E4,2.5231836E4,1.4282933E2,1.6077297E4,8.8903046E1,1.8858992E2,8.532019E3,4.165517E3,1.7820182E3,1.0221239E2,5.444402E2,8.1667017E2,1.9883168E2,3.3325293E2,2.2916304E2,5.238078E2,2.3816576E2,3.466582E2,7.581211E1,1.8383597E2,3.852893E1,1.0888339E2,1.3760421E1,4.0749805E1],"categories":[],"categories_nodes":[],"categories_segments":[],"categories_sizes":[],"default_left":[0,0,0,0,0,0,0,0,0,0,0,0,0,0,0,0,0,0,0,0,0,0,0,0,0,0,0,0,0,0,0,0,0,0,0,0,0,0,0,0,0,0,0,0,0],"id":8,"left_children":[1,3,5,7,9,11,13,15,17,19,21,23,25,27,29,31,-1,-1,-1,-1,-1,33,35,-1,37,-1,-1,39,41,43,-1,-1,-1,-1,-1,-1,-1,-1,-1,-1,-1,-1,-1,-1,-1],"loss_changes":[3.9946256E10,7.19061E9,2.5587415E9,1.4588641E9,2.1332214E9,9.769185E8,3.5734848E8,2.5816842E9,3.963945E8,1.7058842E8,1.4470595E9,1.2588851E8,7.270899E7,1.3405005E8,8.089674E7,4.8020685E8,0E0,0E0,0E0,0E0,0E0,3.7441024E7,1.1654185E9,0E0,6.0560384E7,0E0,0E0,4.9620096E7,3.2456304E7,6.702984E6,0E0,0E0,0E0,0E0,0E0,0E0,0E0,0E0,0E0,0E0,0E0,0E0,0E0,0E0,0E0],"parents":[2147483647,0,0,1,1,2,2,3,3,4,4,5,5,6,6,7,7,8,8,9,9,10,10,11,11,12,12,13,13,14,14,15,15,21,21,22,22,24,24,27,27,28,28,29,29],"right_children":[2,4,6,8,10,12,14,16,18,20,22,24,26,28,30,32,-1,-1,-1,-1,-1,34,36,-1,38,-1,-1,40,42,44,-1,-1,-1,-1,-1,-1,-1,-1,-1,-1,-1,-1,-1,-1,-1],"split_conditions":[5.189216E-1,-2.8428623E-1,1.4684951E0,-2.126361E-1,-1.0858772E0,3.601998E-1,1.9378804E-1,3.9976436E-1,-1.13941714E-1,-2.1176277E-1,-3.2374936E-1,-5.5801475E-1,1.4914249E0,1.8164506E0,1.5359704E0,-5.78728E-1,5.237569E2,2.660581E2,5.8408594E2,1.27627045E2,2.8028925E2,-1.834324E0,-2.213865E-1,1.4282933E2,-4.1694438E-1,8.8903046E1,1.8858992E2,-7.694514E-1,1.8566875E-1,-3.064702E-1,1.0221239E2,5.444402E2,8.1667017E2,1.9883168E2,3.3325293E2,2.2916304E2,5.238078E2,2.3816576E2,3.466582E2,7.581211E1,1.8383597E2,3.852893E1,1.0888339E2,1.3760421E1,4.0749805E1],"split_indices":[31,31,31,11,26,23,0,12,11,22,2,8,8,31,8,8,0,0,0,0,0,35,24,0,5,0,0,12,18,22,0,0,0,0,0,0,0,0,0,0,0,0,0,0,0],"split_type":[0,0,0,0,0,0,0,0,0,0,0,0,0,0,0,0,0,0,0,0,0,0,0,0,0,0,0,0,0,0,0,0,0,0,0,0,0,0,0,0,0,0,0,0,0],"sum_hessian":[5.7E2,4.2E2,1.5E2,2.72E2,1.48E2,7.2E1,7.8E1,1.04E2,1.68E2,1.8E1,1.3E2,5.4E1,1.8E1,4E1,3.8E1,7E1,3.4E1,4E0,1.64E2,8E0,1E1,2E1,1.1E2,4E0,5E1,1.2E1,6E0,2.6E1,1.4E1,2.8E1,1E1,1.2E1,5.8E1,8E0,1.2E1,8E0,1.02E2,1.4E1,3.6E1,4E0,2.2E1,6E0,8E0,6E0,2.2E1],"tree_param":{"num_deleted":"0","num_feature":"36","num_nodes":"45","size_leaf_vector":"1"}},{"base_weights":[2.3022898E4,2.7640346E4,8.944981E3,3.0245352E4,2.130734E4,1.253947E4,5.123253E3,2.63754E4,3.2778863E4,1.2594895E4,2.2790404E4,1.4485123E4,8.224405E3,6.9060645E3,2.3031064E3,2.6760668E4,2.3553624E2,3.5050895E4,4.9555518E2,3.2012543E2,1.2535812E2,2.6758917E2,2.475489E4,1.5460306E4,1.6866312E2,8.256645E1,1.981825E2,8.327009E3,3.6984958E3,8.5194E1,1.3548896E3,5.46431E2,3.7336084E2,7.836697E2,5.552363E2,5.1878613E2,2.799633E2,3.250784E2,1.2990953E2,2.1921216E2,1.1646499E2,9.0509796E1,4.2136936E1,3.5421257E1,1.2063922E1],"categories":[],"categories_nodes":[],"categories_segments":[],"categories_sizes":[],"default_left":[0,0,0,0,0,0,0,0,0,0,0,0,0,0,0,0,0,0,0,0,0,0,0,0,0,0,0,0,0,0,0,0,0,0,0,0,0,0,0,0,0,0,0,0,0],"id":9,"left_children":[1,3,5,7,9,11,13,15,17,19,21,23,25,27,29,31,-1,33,-1,-1,-1,-1,35,37,-1,-1,-1,39,41,-1,43,-1,-1,-1,-1,-1,-1,-1,-1,-1,-1,-1,-1,-1,-1],"loss_changes":[3.7000053E10,6.4659784E9,1.9001682E9,2.106196E9,1.3797745E9,4.9374618E8,3.4106688E8,3.87883E8,2.3855104E9,3.529303E8,1.6839475E9,1.5880602E8,1.3160934E8,1.6518566E8,4.803101E7,3.9182336E7,0E0,3.039019E9,0E0,0E0,0E0,0E0,7.707935E8,1.861202E8,0E0,0E0,0E0,1.2739494E8,1.0209104E7,0E0,5.500992E6,0E0,0E0,0E0,0E0,0E0,0E0,0E0,0E0,0E0,0E0,0E0,0E0,0E0,0E0],"parents":[2147483647,0,0,1,1,2,2,3,3,4,4,5,5,6,6,7,7,8,8,9,9,10,10,11,11,12,12,13,13,14,14,15,15,17,17,22,22,23,23,27,27,28,28,30,30],"right_children":[2,4,6,8,10,12,14,16,18,20,22,24,26,28,30,32,-1,34,-1,-1,-1,-1,36,38,-1,-1,-1,40,42,-1,44,-1,-1,-1,-1,-1,-1,-1,-1,-1,-1,-1,-1,-1,-1],"split_conditions":[5.189216E-1,-1.9793127E-1,1.9239545E-1,-2.1177796E-1,-5.4863274E-1,1.323989E0,1.8268498E0,-1.9648059E-1,4.0618467E-1,-6.2271017E-1,-3.2374936E-1,1.365266E0,-2.641555E-1,4.316503E-1,1.2853402E-1,-2.8125018E-1,2.3553624E2,-1.2423061E-1,4.9555518E2,3.2012543E2,1.2535812E2,2.6758917E2,5.6652796E-1,1.7379922E0,1.6866312E2,8.256645E1,1.981825E2,5.882995E-2,3.8038665E-1,8.5194E1,-1.0139489E0,5.46431E2,3.7336084E2,7.836697E2,5.552363E2,5.1878613E2,2.799633E2,3.250784E2,1.2990953E2,2.1921216E2,1.1646499E2,9.0509796E1,4.2136936E1,3.5421257E1,1.2063922E1],"split_indices":[31,31,23,16,8,31,31,24,12,8,2,28,12,4,0,31,0,8,0,0,0,0,5,21,0,0,0,3,27,0,11,0,0,0,0,0,0,0,0,0,0,0,0,0,0],"split_type":[0,0,0,0,0,0,0,0,0,0,0,0,0,0,0,0,0,0,0,0,0,0,0,0,0,0,0,0,0,0,0,0,0,0,0,0,0,0,0,0,0,0,0,0,0],"sum_hessian":[5.72E2,4.3E2,1.42E2,3.02E2,1.28E2,7.2E1,7E1,1.24E2,1.78E2,2E1,1.08E2,4.8E1,2.4E1,4.2E1,2.8E1,1.2E2,4E0,1.36E2,4.2E1,1.2E1,8E0,2E1,8.8E1,4E1,8E0,8E0,1.6E1,2.8E1,1.4E1,8E0,2E1,1.1E2,1E1,8.4E1,5.2E1,7.8E1,1E1,3.6E1,4E0,1.2E1,1.6E1,8E0,6E0,1.2E1,8E0],"tree_param":{"num_deleted":"0","num_feature":"36","num_nodes":"45","size_leaf_vector":"1"}},{"base_weights":[2.2647172E4,2.7202941E4,8.694053E3,2.9125309E4,2.0056777E4,1.2538773E4,4.389007E3,2.58185E4,3.1434857E4,2.5719864E2,2.1572143E4,1.3837596E4,5.2799526E3,6.4289766E3,1.9687648E3,3.2740662E2,2.6703262E4,3.373905E4,2.3004455E4,1.3977673E4,2.365219E4,1.4478422E4,1.6767831E2,1.3056448E2,6.5547745E1,7.891986E3,3.7570903E3,1.170675E3,6.213071E1,5.465678E2,2.3450966E2,7.4094E2,5.458317E2,2.7829092E2,4.9187537E2,3.159273E2,1.1452079E2,4.869929E2,2.249943E2,2.997472E2,1.27830986E2,7.3278046E1,1.7178532E2,9.1322075E1,2.4516443E1,2.9938786E1,1.4759533E1],"categories":[],"categories_nodes":[],"categories_segments":[],"categories_sizes":[],"default_left":[0,0,0,0,0,0,0,0,0,0,0,0,0,0,0,0,0,0,0,0,0,0,0,0,0,0,0,0,0,0,0,0,0,0,0,0,0,0,0,0,0,0,0,0,0,0,0],"id":10,"left_children":[1,3,5,7,9,11,13,15,17,-1,19,21,23,25,27,-1,29,31,33,35,37,39,-1,-1,-1,41,43,45,-1,-1,-1,-1,-1,-1,-1,-1,-1,-1,-1,-1,-1,-1,-1,-1,-1,-1,-1],"loss_changes":[3.6314644E10,5.3641544E9,2.3118582E9,1.7774346E9,7.5864064E8,6.340311E8,3.280101E8,7.749632E8,3.0117724E9,0E0,8.857518E8,9.878733E7,1.1100192E7,1.1498074E8,2.6328256E7,0E0,9.061171E8,2.209448E9,3.0788813E8,1.946834E8,2.3643136E8,1.3057024E8,0E0,0E0,0E0,3.6336256E7,2.5119648E7,1.859724E6,0E0,0E0,0E0,0E0,0E0,0E0,0E0,0E0,0E0,0E0,0E0,0E0,0E0,0E0,0E0,0E0,0E0,0E0,0E0],"parents":[2147483647,0,0,1,1,2,2,3,3,4,4,5,5,6,6,7,7,8,8,10,10,11,11,12,12,13,13,14,14,16,16,17,17,18,18,19,19,20,20,21,21,25,25,26,26,27,27],"right_children":[2,4,6,8,10,12,14,16,18,-1,20,22,24,26,28,-1,30,32,34,36,38,40,-1,-1,-1,42,44,46,-1,-1,-1,-1,-1,-1,-1,-1,-1,-1,-1,-1,-1,-1,-1,-1,-1,-1,-1],"split_conditions":[5.189216E-1,-1.0667676E-1,1.4999903E0,-2.1177796E-1,-2.1361293E-1,6.6745245E-1,1.9378804E-1,-1.0831053E0,4.8064587E-1,2.5719864E2,-2.3393136E-1,1.4890184E0,1.8163824E0,1.8164506E0,5.8370245E-1,3.2740662E2,-5.372064E-2,-1.2423061E-1,8.9595735E-1,-1.6884665E-1,4.5240042E-1,1.9886744E0,1.6767831E2,1.3056448E2,6.5547745E1,-7.694514E-1,1.9938661E0,-1.0139489E0,6.213071E1,5.465678E2,2.3450966E2,7.4094E2,5.458317E2,2.7829092E2,4.9187537E2,3.159273E2,1.1452079E2,4.869929E2,2.249943E2,2.997472E2,1.27830986E2,7.3278046E1,1.7178532E2,9.1322075E1,2.4516443E1,2.9938786E1,1.4759533E1],"split_indices":[31,31,31,16,7,23,0,26,12,0,16,28,28,31,0,0,13,8,26,0,11,18,0,0,0,12,31,11,0,0,0,0,0,0,0,0,0,0,0,0,0,0,0,0,0,0,0],"split_type":[0,0,0,0,0,0,0,0,0,0,0,0,0,0,0,0,0,0,0,0,0,0,0,0,0,0,0,0,0,0,0,0,0,0,0,0,0,0,0,0,0,0,0,0,0,0,0],"sum_hessian":[5.74E2,4.32E2,1.42E2,3.38E2,9.4E1,7.4E1,6.8E1,1.44E2,1.94E2,1.8E1,7.6E1,6.2E1,1.2E1,3.6E1,3.2E1,1.4E1,1.3E2,1.5E2,4.4E1,1.8E1,5.8E1,5.4E1,8E0,6E0,6E0,2.2E1,1.4E1,2E1,1.2E1,1.24E2,6E0,9.6E1,5.4E1,8E0,3.6E1,1.4E1,4E0,5.4E1,4E0,5E1,4E0,4E0,1.8E1,1E1,4E0,1E1,1E1],"tree_param":{"num_deleted":"0","num_feature":"36","num_nodes":"47","size_leaf_vector":"1"}},{"base_weights":[2.174674E4,2.6486496E4,7.7766216E3,2.9066361E4,2.035123E4,1.0596957E4,3.6772224E3,2.5726781E4,3.118136E4,9.964223E3,2.2005453E4,1.2405957E4,5.3384346E3,5.4060913E3,2.151259E3,5.248765E2,2.7705255E2,2.3954965E4,3.349637E4,1.1849202E2,2.4727039E2,2.592775E2,2.3227154E4,1.3134287E4,9.8221344E1,1.2134236E2,5.612253E1,1.2612289E2,3.8672382E1,1.5193677E3,1.0771914E2,4.9851788E2,2.240466E2,5.3314716E2,7.57653E2,3.8066815E2,5.155717E2,1.5119026E2,2.732527E2,1.6183283E1,4.662426E1],"categories":[],"categories_nodes":[],"categories_segments":[],"categories_sizes":[],"default_left":[0,0,0,0,0,0,0,0,0,0,0,0,0,0,0,0,0,0,0,0,0,0,0,0,0,0,0,0,0,0,0,0,0,0,0,0,0,0,0,0,0],"id":11,"left_children":[1,3,5,7,9,11,13,15,17,19,21,23,25,27,29,-1,-1,31,33,-1,-1,-1,35,37,-1,-1,-1,-1,-1,39,-1,-1,-1,-1,-1,-1,-1,-1,-1,-1,-1],"loss_changes":[3.6278452E10,5.9138376E9,1.5912289E9,1.2249498E9,1.928532E9,7.2332186E8,1.440226E8,3.5477094E8,2.0582728E9,1.1090202E8,8.808161E8,2.6847846E8,2.5414848E7,7.219155E7,5.926733E7,0E0,0E0,2.7795456E8,2.7998618E9,0E0,0E0,0E0,5.0444698E8,5.871309E7,0E0,0E0,0E0,0E0,0E0,1.4834044E7,0E0,0E0,0E0,0E0,0E0,0E0,0E0,0E0,0E0,0E0,0E0],"parents":[2147483647,0,0,1,1,2,2,3,3,4,4,5,5,6,6,7,7,8,8,9,9,10,10,11,11,12,12,13,13,14,14,17,17,18,18,22,22,23,23,29,29],"right_children":[2,4,6,8,10,12,14,16,18,20,22,24,26,28,30,-1,-1,32,34,-1,-1,-1,36,38,-1,-1,-1,-1,-1,40,-1,-1,-1,-1,-1,-1,-1,-1,-1,-1,-1],"split_conditions":[6.3792527E-1,-1.9793127E-1,1.6139362E0,-2.1177796E-1,-1.0858772E0,3.601998E-1,1.8268498E0,-5.4397084E-2,-2.3644966E-1,-2.1176277E-1,-3.2374936E-1,1.126617E0,-1.2437797E-1,8.3033746E-1,2.6165262E-1,5.248765E2,2.7705255E2,1.3587815E-1,-2.83166E-1,1.1849202E2,2.4727039E2,2.592775E2,-2.2746284E-1,-2.3567007E-1,9.8221344E1,1.2134236E2,5.612253E1,1.2612289E2,3.8672382E1,2.7013084E-1,1.0771914E2,4.9851788E2,2.240466E2,5.3314716E2,7.57653E2,3.8066815E2,5.155717E2,1.5119026E2,2.732527E2,1.6183283E1,4.662426E1],"split_indices":[31,31,31,16,26,23,31,13,2,22,2,25,2,27,19,0,0,3,19,0,0,0,18,16,0,0,0,0,0,29,0,0,0,0,0,0,0,0,0,0,0],"split_type":[0,0,0,0,0,0,0,0,0,0,0,0,0,0,0,0,0,0,0,0,0,0,0,0,0,0,0,0,0,0,0,0,0,0,0,0,0,0,0,0,0],"sum_hessian":[5.5E2,4.1E2,1.4E2,2.86E2,1.24E2,8.2E1,5.8E1,1.16E2,1.7E2,1.8E1,1.06E2,6E1,2.2E1,2.6E1,3.2E1,1.1E2,6E0,4.4E1,1.26E2,8E0,1E1,1.4E1,9.2E1,5.4E1,6E0,1.6E1,6E0,2E1,6E0,2.8E1,4E0,4E1,4E0,5.2E1,7.4E1,3.8E1,5.4E1,6E0,4.8E1,1.6E1,1.2E1],"tree_param":{"num_deleted":"0","num_feature":"36","num_nodes":"41","size_leaf_vector":"1"}},{"base_weights":[2.1715781E4,2.6914807E4,8.460718E3,2.8899688E4,2.0426127E4,1.2469352E4,4.018581E3,2.5664768E4,3.1133225E4,1.2149715E4,2.2753953E4,6.545127E3,1.4567449E4,5.8688623E3,2.3410562E3,5.23118E2,1.6899867E2,2.4812346E4,3.5699543E4,1.5112753E2,2.665279E2,1.6327827E4,5.4742444E2,1.640471E2,7.983125E1,1.1600351E4,3.310727E2,3.916729E3,1.5410849E2,1.6772845E3,9.029514E1,5.08679E2,2.2046185E2,4.6029648E2,7.4439124E2,3.5399323E2,1.0211203E2,2.6926282E2,1.533381E2,9.599271E1,3.434998E1,2.2133669E1,4.5764404E1],"categories":[],"categories_nodes":[],"categories_segments":[],"categories_sizes":[],"default_left":[0,0,0,0,0,0,0,0,0,0,0,0,0,0,0,0,0,0,0,0,0,0,0,0,0,0,0,0,0,0,0,0,0,0,0,0,0,0,0,0,0,0,0],"id":12,"left_children":[1,3,5,7,9,11,13,15,17,19,21,23,25,27,29,-1,-1,31,33,-1,-1,35,-1,-1,-1,37,-1,39,-1,41,-1,-1,-1,-1,-1,-1,-1,-1,-1,-1,-1,-1,-1],"loss_changes":[3.7330076E10,4.4454707E9,2.7099587E9,1.3468959E9,1.5538176E9,9.1145114E8,2.1905178E8,8.5273805E8,4.049797E9,2.3611136E7,1.7190748E9,6.459085E7,1.5566746E8,9.530125E7,5.158331E7,0E0,0E0,3.624919E8,1.0136535E9,0E0,0E0,4.1766605E8,0E0,0E0,0E0,9.46112E7,0E0,2.8648544E7,0E0,8.971144E6,0E0,0E0,0E0,0E0,0E0,0E0,0E0,0E0,0E0,0E0,0E0,0E0,0E0],"parents":[2147483647,0,0,1,1,2,2,3,3,4,4,5,5,6,6,7,7,8,8,9,9,10,10,11,11,12,12,13,13,14,14,17,17,18,18,21,21,25,25,27,27,29,29],"right_children":[2,4,6,8,10,12,14,16,18,20,22,24,26,28,30,-1,-1,32,34,-1,-1,36,-1,-1,-1,38,-1,40,-1,42,-1,-1,-1,-1,-1,-1,-1,-1,-1,-1,-1,-1,-1],"split_conditions":[3.762198E-1,-1.892292E-1,1.4684949E0,-3.1073165E-1,-1.9893073E-1,-1.1828192E0,1.9378804E-1,-5.4397084E-2,-2.0198259E-1,-6.798267E-1,-1.5313214E-1,-1.3081981E-1,-2.4009517E-1,4.4461265E-1,1.5359704E0,5.23118E2,1.6899867E2,1.3587815E-1,-2.2347873E-1,1.5112753E2,2.665279E2,-1.6129273E-1,5.4742444E2,1.640471E2,7.983125E1,-2.7688202E-1,3.310727E2,1.8763797E0,1.5410849E2,5.736201E-1,9.029514E1,5.08679E2,2.2046185E2,4.6029648E2,7.4439124E2,3.5399323E2,1.0211203E2,2.6926282E2,1.533381E2,9.599271E1,3.434998E1,2.2133669E1,4.5764404E1],"split_indices":[32,32,32,19,7,27,0,13,2,5,0,19,2,34,8,0,0,3,16,0,0,0,0,0,0,2,0,32,0,0,0,0,0,0,0,0,0,0,0,0,0,0,0],"split_type":[0,0,0,0,0,0,0,0,0,0,0,0,0,0,0,0,0,0,0,0,0,0,0,0,0,0,0,0,0,0,0,0,0,0,0,0,0,0,0,0,0,0,0],"sum_hessian":[5.44E2,3.9E2,1.54E2,2.96E2,9.4E1,8E1,7.4E1,1.26E2,1.7E2,2.2E1,7.2E1,2.2E1,5.8E1,3.4E1,4E1,1.22E2,4E0,7.4E1,9.6E1,6E0,1.6E1,3.2E1,4E1,1.2E1,1E1,2.6E1,3.2E1,1.8E1,1.6E1,3.2E1,8E0,7E1,4E0,1.2E1,8.4E1,2.8E1,4E0,1.6E1,1E1,1.2E1,6E0,1.8E1,1.4E1],"tree_param":{"num_deleted":"0","num_feature":"36","num_nodes":"43","size_leaf_vector":"1"}},{"base_weights":[2.1127572E4,2.5670941E4,7.6674424E3,2.7654064E4,1.8802695E4,1.1200515E4,4.3147817E3,2.4146635E4,3.0205393E4,1.3129585E4,2.0487969E4,6.058263E3,1.3175753E4,6.921932E3,2.2135994E3,2.4625703E4,1.4384095E4,4.5926807E2,3.219972E4,2.8746707E2,1.0559628E2,2.3618579E2,2.2347156E4,1.5293555E2,7.8379776E1,1.3875068E4,1.3995378E2,5.3953415E1,7.7607397E3,3.6570144E3,1.3906709E3,5.1340564E2,3.5664417E2,3.515323E2,1.6629471E2,5.367362E2,7.2137756E2,3.6052295E2,5.133702E2,2.996049E2,1.859632E2,8.989642E1,1.695963E2,8.941627E1,5.2354267E1,3.053455E1,8.644669E0],"categories":[],"categories_nodes":[],"categories_segments":[],"categories_sizes":[],"default_left":[0,0,0,0,0,0,0,0,0,0,0,0,0,0,0,0,0,0,0,0,0,0,0,0,0,0,0,0,0,0,0,0,0,0,0,0,0,0,0,0,0,0,0,0,0,0,0],"id":13,"left_children":[1,3,5,7,9,11,13,15,17,19,21,23,25,27,29,31,33,-1,35,-1,-1,-1,37,-1,-1,39,-1,-1,41,43,45,-1,-1,-1,-1,-1,-1,-1,-1,-1,-1,-1,-1,-1,-1,-1,-1],"loss_changes":[3.4110734E10,5.1870433E9,1.6455332E9,2.1610332E9,6.58389E8,6.2102016E8,3.9553408E8,3.0521754E8,1.9036406E9,1.6819251E8,9.1396915E8,4.1394816E7,1.1460506E8,9.599322E7,4.599037E7,4.8605594E8,2.8241408E7,0E0,1.9577569E9,0E0,0E0,0E0,3.840348E8,0E0,0E0,7.821568E7,0E0,0E0,2.5291392E7,9.8272E5,3.121556E6,0E0,0E0,0E0,0E0,0E0,0E0,0E0,0E0,0E0,0E0,0E0,0E0,0E0,0E0,0E0,0E0],"parents":[2147483647,0,0,1,1,2,2,3,3,4,4,5,5,6,6,7,7,8,8,9,9,10,10,11,11,12,12,13,13,14,14,15,15,16,16,18,18,22,22,25,25,28,28,29,29,30,30],"right_children":[2,4,6,8,10,12,14,16,18,20,22,24,26,28,30,32,34,-1,36,-1,-1,-1,38,-1,-1,40,-1,-1,42,44,46,-1,-1,-1,-1,-1,-1,-1,-1,-1,-1,-1,-1,-1,-1,-1,-1],"split_conditions":[5.189216E-1,-1.0667676E-1,1.4667258E0,-2.1245158E-1,-2.3393136E-1,-1.1828192E0,1.9378804E-1,-5.372064E-2,-2.3028421E-1,-4.6501905E-1,-3.2374936E-1,-1.3081981E-1,7.6141596E-1,-4.20488E-1,1.7516541E0,-3.5040355E-1,1.01454526E-1,4.5926807E2,-1.36657E-1,2.8746707E2,1.0559628E2,2.3618579E2,-1.1842719E-1,1.5293555E2,7.8379776E1,-4.6347648E-2,1.3995378E2,5.3953415E1,3.4008357E-1,-3.4994274E-1,6.940488E-2,5.1340564E2,3.5664417E2,3.515323E2,1.6629471E2,5.367362E2,7.2137756E2,3.6052295E2,5.133702E2,2.996049E2,1.859632E2,8.989642E1,1.695963E2,8.941627E1,5.2354267E1,3.053455E1,8.644669E0],"split_indices":[31,31,31,16,16,27,0,13,7,15,2,19,34,22,31,23,2,0,25,0,0,0,1,0,0,19,0,0,20,2,19,0,0,0,0,0,0,0,0,0,0,0,0,0,0,0,0],"split_type":[0,0,0,0,0,0,0,0,0,0,0,0,0,0,0,0,0,0,0,0,0,0,0,0,0,0,0,0,0,0,0,0,0,0,0,0,0,0,0,0,0,0,0,0,0,0,0],"sum_hessian":[5.6E2,4.18E2,1.42E2,3.22E2,9.6E1,6.8E1,7.4E1,1.4E2,1.82E2,2.4E1,7.2E1,2E1,4.8E1,3.2E1,4.2E1,1.32E2,8E0,4.2E1,1.4E2,2E1,4E0,1.4E1,5.8E1,1E1,1E1,4.2E1,6E0,6E0,2.6E1,1.4E1,2.8E1,1.12E2,2E1,4E0,4E0,6.2E1,7.8E1,2.8E1,3E1,3.2E1,1E1,6E0,2E1,6E0,8E0,2.4E1,4E0],"tree_param":{"num_deleted":"0","num_feature":"36","num_nodes":"47","size_leaf_vector":"1"}},{"base_weights":[2.057251E4,2.4674979E4,7.9026724E3,1.2288244E4,2.5677818E4,1.054966E4,3.138859E3,3.4988937E2,8.480184E3,2.7131924E4,2.0260695E4,1.1981045E4,6.045758E3,4.443484E3,9.597422E2,2.1718098E2,1.2361892E2,5.0458765E2,2.9797703E4,2.3940556E2,2.1726828E4,1.2421389E4,8.425239E1,7.3744077E3,6.31916E1,3.4774315E1,1.1297336E2,2.0508612E2,3.7186024E1,4.564159E2,6.6613824E2,1.7119778E2,4.4770306E2,2.0619789E2,2.8791592E2,9.4895584E1,1.7200568E2,7.9581804E0,-1.0807661E0],"categories":[],"categories_nodes":[],"categories_segments":[],"categories_sizes":[],"default_left":[0,0,0,0,0,0,0,0,0,0,0,0,0,0,0,0,0,0,0,0,0,0,0,0,0,0,0,0,0,0,0,0,0,0,0,0,0,0,0],"id":14,"left_children":[1,3,5,7,9,11,13,-1,15,17,19,21,23,25,27,-1,-1,-1,29,-1,31,33,-1,35,-1,-1,-1,37,-1,-1,-1,-1,-1,-1,-1,-1,-1,-1,-1],"loss_changes":[2.8392686E10,4.839555E9,1.681811E9,5.0588672E8,2.467201E9,4.8843776E8,1.3788138E8,0E0,4.774029E7,7.6467405E8,7.7307904E8,1.7002086E8,6.489747E7,9.122982E7,1.319563E7,0E0,0E0,0E0,2.1534392E9,0E0,4.2381926E8,1.0588467E8,0E0,7.54624E6,0E0,0E0,0E0,6.2111825E5,0E0,0E0,0E0,0E0,0E0,0E0,0E0,0E0,0E0,0E0,0E0],"parents":[2147483647,0,0,1,1,2,2,3,3,4,4,5,5,6,6,8,8,9,9,10,10,11,11,12,12,13,13,14,14,18,18,20,20,21,21,23,23,27,27],"right_children":[2,4,6,8,10,12,14,-1,16,18,20,22,24,26,28,-1,-1,-1,30,-1,32,34,-1,36,-1,-1,-1,38,-1,-1,-1,-1,-1,-1,-1,-1,-1,-1,-1],"split_conditions":[6.3792497E-1,-1.0796406E0,1.6139363E0,-6.56507E-1,-1.0667675E-1,3.601998E-1,1.9938664E0,3.4988937E2,-2.4586102E-1,-1.7603718E-1,-1.7373276E-1,1.8604532E0,1.6069987E0,-8.8840723E-1,2.7013084E-1,2.1718098E2,1.2361892E2,5.0458765E2,-1.6266878E-1,2.3940556E2,-5.0110525E-1,1.0224701E0,8.425239E1,1.1215148E0,6.31916E1,3.4774315E1,1.1297336E2,4.5321682E-1,3.7186024E1,4.564159E2,6.6613824E2,1.7119778E2,4.4770306E2,2.0619789E2,2.8791592E2,9.4895584E1,1.7200568E2,7.9581804E0,-1.0807661E0],"split_indices":[32,26,32,8,32,23,32,0,12,6,7,8,28,30,29,0,0,0,7,0,23,26,0,8,0,0,0,2,0,0,0,0,0,0,0,0,0,0,0],"split_type":[0,0,0,0,0,0,0,0,0,0,0,0,0,0,0,0,0,0,0,0,0,0,0,0,0,0,0,0,0,0,0,0,0,0,0,0,0,0,0],"sum_hessian":[5.49E2,4.14E2,1.35E2,3.2E1,3.82E2,8.6E1,4.9E1,1.2E1,2E1,2.98E2,8.4E1,6.4E1,2.2E1,3E1,1.9E1,8E0,1.2E1,1.8E2,1.18E2,1.4E1,7E1,6E1,4E0,1.4E1,8E0,1E1,2E1,1.1E1,8E0,4.2E1,7.6E1,4E0,6.6E1,3.2E1,2.8E1,6E0,8E0,6E0,5E0],"tree_param":{"num_deleted":"0","num_feature":"36","num_nodes":"39","size_leaf_vector":"1"}},{"base_weights":[2.020225E4,2.4663979E4,7.0795654E3,2.704345E4,1.8980127E4,1.0600025E4,3.9648157E3,3.032737E4,2.465585E4,8.736472E3,2.0377982E4,1.2026798E4,5.6961724E3,5.843411E3,2.3803667E3,4.504957E2,3.4604555E4,1.6685486E4,2.5463371E4,1.0535272E2,2.2469154E2,2.2920634E2,2.1759268E4,1.2870674E4,1.3317245E2,1.505984E2,6.45901E1,7.432074E3,6.459432E1,3.4330955E3,9.454321E2,7.065851E2,3.4785773E2,2.0222505E2,4.1095065E2,2.798555E2,5.13436E2,4.5460052E2,2.4559624E2,2.8127734E2,1.6242041E2,1.710775E2,9.971793E1,9.176618E1,3.0913902E1,2.8591862E1,8.095809E-1],"categories":[],"categories_nodes":[],"categories_segments":[],"categories_sizes":[],"default_left":[0,0,0,0,0,0,0,0,0,0,0,0,0,0,0,0,0,0,0,0,0,0,0,0,0,0,0,0,0,0,0,0,0,0,0,0,0,0,0,0,0,0,0,0,0,0,0],"id":15,"left_children":[1,3,5,7,9,11,13,15,17,19,21,23,25,27,29,-1,31,33,35,-1,-1,-1,37,39,-1,-1,-1,41,-1,43,45,-1,-1,-1,-1,-1,-1,-1,-1,-1,-1,-1,-1,-1,-1,-1,-1],"loss_changes":[3.2730399E10,5.1535053E9,1.536982E9,1.549566E9,1.6404972E9,4.002693E8,2.1825984E8,3.191931E9,7.014728E8,8.813248E7,1.117909E9,1.4533069E8,5.257619E7,1.2132531E8,6.3220064E7,0E0,3.210199E8,2.746455E8,1.6130048E7,0E0,0E0,0E0,5.9509146E8,1.2947661E8,0E0,0E0,0E0,1.4976512E7,0E0,4.7416E7,8.704844E6,0E0,0E0,0E0,0E0,0E0,0E0,0E0,0E0,0E0,0E0,0E0,0E0,0E0,0E0,0E0,0E0],"parents":[2147483647,0,0,1,1,2,2,3,3,4,4,5,5,6,6,7,7,8,8,9,9,10,10,11,11,12,12,13,13,14,14,16,16,17,17,18,18,22,22,23,23,27,27,29,29,30,30],"right_children":[2,4,6,8,10,12,14,16,18,20,22,24,26,28,30,-1,32,34,36,-1,-1,-1,38,40,-1,-1,-1,42,-1,44,46,-1,-1,-1,-1,-1,-1,-1,-1,-1,-1,-1,-1,-1,-1,-1,-1],"split_conditions":[6.3792527E-1,-1.9793127E-1,1.4684951E0,-2.1560626E-1,-1.0858772E0,1.6069987E0,1.7516541E0,-2.0122166E-1,-1.0569271E-1,-2.1176277E-1,-2.372907E-1,1.9886744E0,1.9378804E-1,1.1051494E0,-1.7643683E-1,4.504957E2,7.310911E-1,-1.821704E-1,-5.206182E-1,1.0535272E2,2.2469154E2,2.2920634E2,5.6652796E-1,1.0169234E0,1.3317245E2,1.505984E2,6.45901E1,1.5382338E-1,6.459432E1,1.480031E0,-9.9281925E-1,7.065851E2,3.4785773E2,2.0222505E2,4.1095065E2,2.798555E2,5.13436E2,4.5460052E2,2.4559624E2,2.8127734E2,1.6242041E2,1.710775E2,9.971793E1,9.176618E1,3.0913902E1,2.8591862E1,8.095809E-1],"split_indices":[31,31,31,11,26,28,31,7,7,22,7,18,0,28,7,0,28,4,23,0,0,0,5,17,0,0,0,18,0,20,11,0,0,0,0,0,0,0,0,0,0,0,0,0,0,0,0],"split_type":[0,0,0,0,0,0,0,0,0,0,0,0,0,0,0,0,0,0,0,0,0,0,0,0,0,0,0,0,0,0,0,0,0,0,0,0,0,0,0,0,0,0,0,0,0,0,0],"sum_hessian":[5.61E2,4.18E2,1.43E2,2.92E2,1.26E2,6.6E1,7.7E1,1.18E2,1.74E2,1.6E1,1.1E2,5E1,1.6E1,3.4E1,4.3E1,4.4E1,7.4E1,1.8E1,1.56E2,8E0,8E0,1.6E1,9.4E1,4.2E1,8E0,8E0,8E0,2E1,1.4E1,2.4E1,1.9E1,7E1,4E0,8E0,1E1,4E0,1.52E2,8.4E1,1E1,3.2E1,1E1,1.2E1,8E0,1.4E1,1E1,1.2E1,7E0],"tree_param":{"num_deleted":"0","num_feature":"36","num_nodes":"47","size_leaf_vector":"1"}},{"base_weights":[2.0002611E4,2.4361807E4,6.512423E3,2.6821248E4,1.8326912E4,9.357137E3,3.7382356E3,2.4572115E4,3.0268715E4,9.199868E3,1.9630082E4,1.0941933E4,4.9443677E3,6.0008354E3,2.3981616E3,5.1365814E2,2.0905994E4,4.0789124E2,3.376023E4,1.0347979E2,2.4407056E2,1.1981644E4,2.0870455E4,1.0623536E2,2.3921272E2,1.4473018E2,6.659587E1,4.401936E1,6.619807E3,1.4721573E3,8.304039E1,4.4703406E2,2.46367E2,4.503434E2,7.087567E2,1.5520245E2,2.7157632E2,2.8817343E2,4.4178714E2,1.4245317E2,7.17226E1,3.7083138E1,1.2180873E1],"categories":[],"categories_nodes":[],"categories_segments":[],"categories_sizes":[],"default_left":[0,0,0,0,0,0,0,0,0,0,0,0,0,0,0,0,0,0,0,0,0,0,0,0,0,0,0,0,0,0,0,0,0,0,0,0,0,0,0,0,0,0,0],"id":16,"left_children":[1,3,5,7,9,11,13,15,17,19,21,23,25,27,29,-1,31,-1,33,-1,-1,35,37,-1,-1,-1,-1,-1,39,41,-1,-1,-1,-1,-1,-1,-1,-1,-1,-1,-1,-1,-1],"loss_changes":[3.1537955E10,5.5493263E9,1.0146253E9,1.4815887E9,1.2585902E9,4.004644E8,1.9481971E8,1.9201229E8,3.0693294E9,1.4242752E8,7.460618E8,2.060334E8,4.6218656E7,4.4229376E7,6.6970576E7,0E0,3.081769E8,0E0,6.9208474E8,0E0,0E0,9.246976E6,3.8270157E8,0E0,0E0,0E0,0E0,0E0,6.491392E6,9.09148E6,0E0,0E0,0E0,0E0,0E0,0E0,0E0,0E0,0E0,0E0,0E0,0E0,0E0],"parents":[2147483647,0,0,1,1,2,2,3,3,4,4,5,5,6,6,7,7,8,8,9,9,10,10,11,11,12,12,13,13,14,14,16,16,18,18,21,21,22,22,28,28,29,29],"right_children":[2,4,6,8,10,12,14,16,18,20,22,24,26,28,30,-1,32,-1,34,-1,-1,36,38,-1,-1,-1,-1,-1,40,42,-1,-1,-1,-1,-1,-1,-1,-1,-1,-1,-1,-1,-1],"split_conditions":[6.3792527E-1,-1.9793127E-1,1.5007999E0,-1.7771247E-1,-1.0858772E0,1.4890184E0,1.1746107E-1,-4.2874828E-1,-2.8339085E-1,-2.1176277E-1,-3.2374936E-1,-5.6764595E-2,1.9378804E-1,-4.3096533E-1,-7.0198333E-1,5.1365814E2,-3.175942E-1,4.0789124E2,-2.1032582E-1,1.0347979E2,2.4407056E2,-1.2122958E0,-2.3972179E-1,1.0623536E2,2.3921272E2,1.4473018E2,6.659587E1,4.401936E1,2.8503065E0,-1.0139489E0,8.304039E1,4.4703406E2,2.46367E2,4.503434E2,7.087567E2,1.5520245E2,2.7157632E2,2.8817343E2,4.4178714E2,1.4245317E2,7.17226E1,3.7083138E1,1.2180873E1],"split_indices":[31,31,31,6,26,28,0,31,2,22,2,13,0,22,26,0,23,0,16,0,0,27,16,0,0,0,0,0,8,11,0,0,0,0,0,0,0,0,0,0,0,0,0],"split_type":[0,0,0,0,0,0,0,0,0,0,0,0,0,0,0,0,0,0,0,0,0,0,0,0,0,0,0,0,0,0,0,0,0,0,0,0,0,0,0,0,0,0,0],"sum_hessian":[5.38E2,4.06E2,1.32E2,2.86E2,1.2E2,6.4E1,6.8E1,1.78E2,1.08E2,1.6E1,1.04E2,4.6E1,1.8E1,2.4E1,4.4E1,1.32E2,4.6E1,3E1,7.8E1,8E0,8E0,1.6E1,8.8E1,8E0,3.8E1,6E0,1.2E1,4E0,2E1,3E1,1.4E1,3.8E1,8E0,1.2E1,6.6E1,6E0,1E1,1.6E1,7.2E1,1.6E1,4E0,2E1,1E1],"tree_param":{"num_deleted":"0","num_feature":"36","num_nodes":"43","size_leaf_vector":"1"}},{"base_weights":[1.9988037E4,2.4268066E4,8.450054E3,2.6504406E4,1.868961E4,1.1791156E4,4.184955E3,2.425311E4,3.0276486E4,1.0089886E4,2.0574914E4,1.2591007E4,7.631181E1,5.8696855E3,2.2712998E3,5.137423E2,2.1883883E4,4.2844293E2,3.3716035E4,2.5401768E2,1.2173774E2,1.2620272E4,2.2527879E4,1.3834404E4,1.7469826E2,7.668129E1,6.765046E3,1.462237E3,8.532638E1,1.9222684E2,4.4879843E2,6.8748145E2,3.631021E2,1.5252032E2,2.8219135E2,2.6818777E2,4.880164E2,1.1622311E2,2.8699463E2,1.4396034E2,7.5334526E1,3.5751953E1,7.4041953E0],"categories":[],"categories_nodes":[],"categories_segments":[],"categories_sizes":[],"default_left":[0,0,0,0,0,0,0,0,0,0,0,0,0,0,0,0,0,0,0,0,0,0,0,0,0,0,0,0,0,0,0,0,0,0,0,0,0,0,0,0,0,0,0],"id":17,"left_children":[1,3,5,7,9,11,13,15,17,19,21,23,-1,25,27,-1,29,-1,31,-1,-1,33,35,37,-1,-1,39,41,-1,-1,-1,-1,-1,-1,-1,-1,-1,-1,-1,-1,-1,-1,-1],"loss_changes":[2.6708623E10,4.457349E9,2.0739226E9,1.651966E9,1.6893256E9,4.8143565E8,2.0267482E8,5.2813824E7,2.3536763E9,1.6308122E8,1.1915264E9,2.3875584E8,0E0,3.785293E7,4.7026224E7,0E0,2.9612032E8,0E0,1.0294886E8,0E0,0E0,4.859469E7,9.536758E8,1.4401229E8,0E0,0E0,2.744192E6,8.220572E6,0E0,0E0,0E0,0E0,0E0,0E0,0E0,0E0,0E0,0E0,0E0,0E0,0E0,0E0,0E0],"parents":[2147483647,0,0,1,1,2,2,3,3,4,4,5,5,6,6,7,7,8,8,9,9,10,10,11,11,13,13,14,14,16,16,18,18,21,21,22,22,23,23,26,26,27,27],"right_children":[2,4,6,8,10,12,14,16,18,20,22,24,-1,26,28,-1,30,-1,32,-1,-1,34,36,38,-1,-1,40,42,-1,-1,-1,-1,-1,-1,-1,-1,-1,-1,-1,-1,-1,-1,-1],"split_conditions":[3.7621975E-1,-2.8125018E-1,1.4999903E0,-1.7445242E-1,-1.0796406E0,4.026421E0,1.9378804E-1,-6.164767E-1,-1.6266878E-1,-6.4183897E-1,-2.372907E-1,8.1673664E-1,7.631181E1,-5.844479E-1,1.5359704E0,5.137423E2,-1.0851842E0,4.2844293E2,3.8279745E-1,2.5401768E2,1.2173774E2,-1.2122958E0,-8.9455336E-1,-5.5801475E-1,1.7469826E2,7.668129E1,1.2519076E0,-1.0139489E0,8.532638E1,1.9222684E2,4.4879843E2,6.8748145E2,3.631021E2,1.5252032E2,2.8219135E2,2.6818777E2,4.880164E2,1.1622311E2,2.8699463E2,1.4396034E2,7.5334526E1,3.5751953E1,7.4041953E0],"split_indices":[31,31,31,6,26,21,0,31,7,8,7,12,0,27,8,0,26,0,5,0,0,27,29,8,0,0,12,11,0,0,0,0,0,0,0,0,0,0,0,0,0,0,0],"split_type":[0,0,0,0,0,0,0,0,0,0,0,0,0,0,0,0,0,0,0,0,0,0,0,0,0,0,0,0,0,0,0,0,0,0,0,0,0,0,0,0,0,0,0],"sum_hessian":[5.44E2,3.96E2,1.48E2,2.8E2,1.16E2,8.2E1,6.6E1,1.8E2,1E2,2.2E1,9.4E1,7.4E1,8E0,3.4E1,3.2E1,1.06E2,7.4E1,3E1,7E1,1.2E1,1E1,2E1,7.4E1,5.4E1,2E1,1.2E1,2.2E1,2.4E1,8E0,4E0,7E1,6.6E1,4E0,6E0,1.4E1,1.4E1,6E1,4E0,5E1,1.8E1,4E0,1.8E1,6E0],"tree_param":{"num_deleted":"0","num_feature":"36","num_nodes":"43","size_leaf_vector":"1"}},{"base_weights":[1.9330646E4,2.4158674E4,8.670904E3,2.6022584E4,1.9256068E4,1.2394509E4,3.954557E3,2.92111E4,2.3574244E4,1.4926265E4,2.2090602E4,1.3521081E4,5.1842905E3,5.9123755E3,2.042424E3,6.63713E2,4.3198816E2,2.5945898E2,4.7518707E2,3.7746924E2,9.98686E3,1.2353728E4,2.5556771E4,1.4238883E4,1.4795569E2,1.5146075E2,7.2543755E1,3.682043E3,7.6487485E3,3.0120361E3,8.2524384E2,1.0782273E2,2.2583496E2,1.5269635E2,2.788877E2,2.8286636E2,5.257914E2,1.5941814E2,2.9736655E2,8.9827E1,4.567525E1,1.0759045E2,1.7262758E2,8.885807E1,3.139198E1,1.6449002E0,3.448408E1],"categories":[],"categories_nodes":[],"categories_segments":[],"categories_sizes":[],"default_left":[0,0,0,0,0,0,0,0,0,0,0,0,0,0,0,0,0,0,0,0,0,0,0,0,0,0,0,0,0,0,0,0,0,0,0,0,0,0,0,0,0,0,0,0,0,0,0],"id":18,"left_children":[1,3,5,7,9,11,13,15,17,19,21,23,25,27,29,-1,-1,-1,-1,-1,31,33,35,37,-1,-1,-1,39,41,43,45,-1,-1,-1,-1,-1,-1,-1,-1,-1,-1,-1,-1,-1,-1,-1,-1],"loss_changes":[2.892002E10,3.0535844E9,3.0769848E9,1.4893875E9,1.0325688E9,7.340626E8,2.8741248E8,2.8228157E9,1.1640832E7,7.278602E8,1.8780017E9,2.6826342E8,2.832288E7,1.2287066E8,4.7082016E7,0E0,0E0,0E0,0E0,0E0,7.705139E7,3.615232E7,2.1272576E7,1.773824E8,0E0,0E0,0E0,1.124328E7,3.91936E5,4.04964E7,1.3216539E7,0E0,0E0,0E0,0E0,0E0,0E0,0E0,0E0,0E0,0E0,0E0,0E0,0E0,0E0,0E0,0E0],"parents":[2147483647,0,0,1,1,2,2,3,3,4,4,5,5,6,6,7,7,8,8,9,9,10,10,11,11,12,12,13,13,14,14,20,20,21,21,22,22,23,23,27,27,28,28,29,29,30,30],"right_children":[2,4,6,8,10,12,14,16,18,20,22,24,26,28,30,-1,-1,-1,-1,-1,32,34,36,38,-1,-1,-1,40,42,44,46,-1,-1,-1,-1,-1,-1,-1,-1,-1,-1,-1,-1,-1,-1,-1,-1],"split_conditions":[2.8260413E-1,-2.8428623E-1,1.3455659E0,-1.893694E-1,-2.0208824E-1,3.601998E-1,1.7516541E0,3.9976436E-1,-5.206182E-1,-2.3400298E-1,-3.2374936E-1,1.4890184E0,-1.0068253E0,-6.6394174E-1,1.9938661E0,6.63713E2,4.3198816E2,2.5945898E2,4.7518707E2,3.7746924E2,-2.8350413E-1,-1.2122958E0,-1.5039131E-1,-2.1306391E-1,1.4795569E2,1.5146075E2,7.2543755E1,-2.6382655E-1,2.1519667E-2,1.2853402E-1,2.7013084E-1,1.0782273E2,2.2583496E2,1.5269635E2,2.788877E2,2.8286636E2,5.257914E2,1.5941814E2,2.9736655E2,8.9827E1,4.567525E1,1.0759045E2,1.7262758E2,8.885807E1,3.139198E1,1.6449002E0,3.448408E1],"split_indices":[31,31,31,11,17,23,31,12,23,0,2,28,11,33,31,0,0,0,0,0,21,27,0,24,0,0,0,2,3,0,29,0,0,0,0,0,0,0,0,0,0,0,0,0,0,0,0],"split_type":[0,0,0,0,0,0,0,0,0,0,0,0,0,0,0,0,0,0,0,0,0,0,0,0,0,0,0,0,0,0,0,0,0,0,0,0,0,0,0,0,0,0,0,0,0,0,0],"sum_hessian":[5.65E2,3.88E2,1.77E2,2.78E2,1.1E2,9.8E1,7.9E1,1.16E2,1.62E2,4.6E1,6.4E1,8.4E1,1.4E1,3.8E1,4.1E1,7.4E1,4.2E1,4E0,1.58E2,2.4E1,2.2E1,1.8E1,4.6E1,7.4E1,1E1,4E0,1E1,1.8E1,2E1,2.2E1,1.9E1,6E0,1.6E1,6E0,1.2E1,4E0,4.2E1,8E0,6.6E1,1E1,8E0,8E0,1.2E1,1E1,1.2E1,1.1E1,8E0],"tree_param":{"num_deleted":"0","num_feature":"36","num_nodes":"47","size_leaf_vector":"1"}},{"base_weights":[1.8740064E4,2.2842078E4,7.266226E3,2.464088E4,1.6523578E4,1.0052194E4,3.5681409E3,2.1637023E4,2.6787848E4,1.1792297E4,1.896737E4,1.1459696E4,5.216961E3,5.721602E3,2.0253488E3,2.2109307E4,1.2358573E4,2.8655717E4,1.9619725E4,8.677656E1,1.3184775E4,2.3106198E2,2.1346814E4,9.481734E3,2.7176273E2,7.029558E1,1.4191989E2,6.778E3,5.7113663E1,3.0825469E3,8.140183E2,4.581071E2,3.3697574E2,3.1337253E2,1.3153568E2,4.5169577E2,6.297079E2,2.0577438E2,4.1850717E2,1.6253137E2,2.830195E2,4.5354578E2,3.0345715E2,1.384419E2,2.4171774E2,7.526573E1,1.4662062E2,7.8713326E1,3.0154942E1,-2.0268342E0,2.6294151E1],"categories":[],"categories_nodes":[],"categories_segments":[],"categories_sizes":[],"default_left":[0,0,0,0,0,0,0,0,0,0,0,0,0,0,0,0,0,0,0,0,0,0,0,0,0,0,0,0,0,0,0,0,0,0,0,0,0,0,0,0,0,0,0,0,0,0,0,0,0,0,0],"id":19,"left_children":[1,3,5,7,9,11,13,15,17,19,21,23,25,27,29,31,33,35,37,-1,39,-1,41,43,-1,-1,-1,45,-1,47,49,-1,-1,-1,-1,-1,-1,-1,-1,-1,-1,-1,-1,-1,-1,-1,-1,-1,-1,-1,-1],"loss_changes":[2.6379158E10,4.309631E9,1.5095424E9,1.4905672E9,8.747438E8,5.186898E8,2.076857E8,3.358556E8,1.8879939E9,3.0605005E8,8.29526E8,1.448064E8,4.222573E7,6.238707E7,4.871501E7,1.6265216E8,6.919104E7,1.7454612E9,2.8419994E8,0E0,2.6728448E7,0E0,2.555904E7,1.6296934E8,0E0,0E0,0E0,4.087552E6,0E0,2.22788E7,9.299576E6,0E0,0E0,0E0,0E0,0E0,0E0,0E0,0E0,0E0,0E0,0E0,0E0,0E0,0E0,0E0,0E0,0E0,0E0,0E0,0E0],"parents":[2147483647,0,0,1,1,2,2,3,3,4,4,5,5,6,6,7,7,8,8,9,9,10,10,11,11,12,12,13,13,14,14,15,15,16,16,17,17,18,18,20,20,22,22,23,23,27,27,29,29,30,30],"right_children":[2,4,6,8,10,12,14,16,18,20,22,24,26,28,30,32,34,36,38,-1,40,-1,42,44,-1,-1,-1,46,-1,48,50,-1,-1,-1,-1,-1,-1,-1,-1,-1,-1,-1,-1,-1,-1,-1,-1,-1,-1,-1,-1],"split_conditions":[5.189216E-1,-1.23320065E-1,1.4999903E0,-2.1041037E-1,-2.0208824E-1,3.601998E-1,1.7516541E0,-5.372064E-2,4.8064587E-1,-3.329268E-1,-2.1361293E-1,1.0224701E0,1.4914249E0,1.1051494E0,-2.4372384E-1,-3.5040355E-1,1.01454526E-1,-2.83166E-1,8.9595735E-1,8.677656E1,-1.1133971E0,2.3106198E2,3.7621975E-1,-2.4009517E-1,2.7176273E2,7.029558E1,1.4191989E2,-3.4994274E-1,5.7113663E1,1.2853402E-1,1.063417E0,4.581071E2,3.3697574E2,3.1337253E2,1.3153568E2,4.5169577E2,6.297079E2,2.0577438E2,4.1850717E2,1.6253137E2,2.830195E2,4.5354578E2,3.0345715E2,1.384419E2,2.4171774E2,7.526573E1,1.4662062E2,7.8713326E1,3.0154942E1,-2.0268342E0,2.6294151E1],"split_indices":[31,31,31,16,17,23,31,13,12,22,7,26,8,28,2,23,2,19,26,0,26,0,31,2,0,0,0,2,0,0,12,0,0,0,0,0,0,0,0,0,0,0,0,0,0,0,0,0,0,0,0],"split_type":[0,0,0,0,0,0,0,0,0,0,0,0,0,0,0,0,0,0,0,0,0,0,0,0,0,0,0,0,0,0,0,0,0,0,0,0,0,0,0,0,0,0,0,0,0,0,0,0,0,0,0],"sum_hessian":[5.63E2,4.14E2,1.49E2,3.2E2,9.4E1,8.4E1,6.5E1,1.38E2,1.82E2,3.4E1,6E1,6.4E1,2E1,2.6E1,3.9E1,1.3E2,8E0,1.42E2,4E1,6E0,2.8E1,1.6E1,4.4E1,3.6E1,2.8E1,1.2E1,8E0,1.8E1,8E0,2E1,1.9E1,1.1E2,2E1,4E0,4E0,4.8E1,9.4E1,6E0,3.4E1,6E0,2.2E1,3.4E1,1E1,2E1,1.6E1,4E0,1.4E1,1.2E1,8E0,7E0,1.2E1],"tree_param":{"num_deleted":"0","num_feature":"36","num_nodes":"51","size_leaf_vector":"1"}},{"base_weights":[1.864438E4,2.2494059E4,6.6596973E3,2.421099E4,1.6491713E4,9.744035E3,3.7771235E3,2.128156E4,2.6076627E4,8.194261E3,1.776195E4,1.1085698E4,5.145862E3,5.499828E3,1.5886499E3,2.167227E4,2.2082237E2,2.063827E4,2.8167312E4,9.515519E1,2.2883994E2,2.2312897E2,1.8907307E4,9.865128E1,1.1796501E4,1.3691165E2,5.7487347E1,6.7707847E3,5.6908882E1,2.6074983E3,5.381404E2,4.397191E2,1.8991273E2,2.8576425E2,4.533759E2,4.4418604E2,6.27977E2,2.5511302E2,4.038891E2,2.4474504E2,1.1646047E2,9.0808784E1,1.5631323E2,7.425722E1,3.3340622E1,-1.9913644E0,1.9060314E1],"categories":[],"categories_nodes":[],"categories_segments":[],"categories_sizes":[],"default_left":[0,0,0,0,0,0,0,0,0,0,0,0,0,0,0,0,0,0,0,0,0,0,0,0,0,0,0,0,0,0,0,0,0,0,0,0,0,0,0,0,0,0,0,0,0,0,0],"id":20,"left_children":[1,3,5,7,9,11,13,15,17,19,21,23,25,27,29,31,-1,33,35,-1,-1,-1,37,-1,39,-1,-1,41,-1,43,45,-1,-1,-1,-1,-1,-1,-1,-1,-1,-1,-1,-1,-1,-1,-1,-1],"loss_changes":[2.6148389E10,4.0424243E9,1.2079109E9,1.2649595E9,8.978821E8,3.5628902E8,2.7024902E8,3.008512E8,1.6812851E9,1.129728E8,4.321403E8,1.6486758E8,4.595773E7,1.1905101E8,3.4987024E7,2.839593E8,0E0,4.368425E8,2.0173947E9,0E0,0E0,0E0,3.0458675E8,0E0,4.721715E7,0E0,0E0,2.7434112E7,0E0,1.1482472E7,4.8572275E6,0E0,0E0,0E0,0E0,0E0,0E0,0E0,0E0,0E0,0E0,0E0,0E0,0E0,0E0,0E0,0E0],"parents":[2147483647,0,0,1,1,2,2,3,3,4,4,5,5,6,6,7,7,8,8,9,9,10,10,11,11,12,12,13,13,14,14,15,15,17,17,18,18,22,22,24,24,27,27,29,29,30,30],"right_children":[2,4,6,8,10,12,14,16,18,20,22,24,26,28,30,32,-1,34,36,-1,-1,-1,38,-1,40,-1,-1,42,-1,44,46,-1,-1,-1,-1,-1,-1,-1,-1,-1,-1,-1,-1,-1,-1,-1,-1],"split_conditions":[6.3792527E-1,-1.23320065E-1,1.4684951E0,-2.1316665E-1,-1.0858772E0,1.6069987E0,1.8268498E0,-1.9761005E-1,-1.7124535E-1,-2.1176277E-1,-2.1361293E-1,-1.0062593E0,1.9630356E-1,1.1051494E0,-2.4372384E-1,-7.447592E-2,2.2082237E2,8.9892715E-1,-2.2134435E-1,9.515519E1,2.2883994E2,2.2312897E2,-2.3626174E-1,9.865128E1,3.0058867E-1,1.3691165E2,5.7487347E1,-4.314479E-1,5.6908882E1,1.480031E0,4.9803346E-2,4.397191E2,1.8991273E2,2.8576425E2,4.533759E2,4.4418604E2,6.27977E2,2.5511302E2,4.038891E2,2.4474504E2,1.1646047E2,9.0808784E1,1.5631323E2,7.425722E1,3.3340622E1,-1.9913644E0,1.9060314E1],"split_indices":[31,31,31,16,26,28,31,24,7,22,7,14,1,28,2,4,0,26,1,0,0,0,16,0,4,0,0,35,0,20,3,0,0,0,0,0,0,0,0,0,0,0,0,0,0,0,0],"split_type":[0,0,0,0,0,0,0,0,0,0,0,0,0,0,0,0,0,0,0,0,0,0,0,0,0,0,0,0,0,0,0,0,0,0,0,0,0,0,0,0,0,0,0,0,0,0,0],"sum_hessian":[5.69E2,4.3E2,1.39E2,3.32E2,9.8E1,6.6E1,7.3E1,1.34E2,1.98E2,1.4E1,8.4E1,5E1,1.6E1,4E1,3.3E1,1.28E2,6E0,5.8E1,1.4E2,8E0,6E0,1.4E1,7E1,6E0,4.4E1,8E0,8E0,2.6E1,1.4E1,1.6E1,1.7E1,1.24E2,4E0,1.6E1,4.2E1,5.2E1,8.8E1,1.4E1,5.6E1,4E1,4E0,1E1,1.6E1,6E0,1E1,7E0,1E1],"tree_param":{"num_deleted":"0","num_feature":"36","num_nodes":"47","size_leaf_vector":"1"}},{"base_weights":[1.7857043E4,2.1939852E4,6.232796E3,2.4095197E4,1.7549988E4,9.594897E3,3.556968E3,2.2173906E4,2.743188E4,8.731443E3,1.8608908E4,1.0974363E4,5.0543804E3,5.303333E3,1.6843312E3,4.6506943E2,1.9417418E4,3.9830774E2,3.0825918E4,7.7780464E1,9.922256E3,1.1247012E4,1.9904059E4,1.1671996E4,1.024224E2,1.3447768E2,5.646535E1,3.226044E3,1.3938808E2,2.818351E3,7.163808E2,4.079425E2,1.9011253E2,4.0590222E2,6.4743207E2,1.1530755E2,2.2258296E2,1.4666136E2,2.6183008E2,3.2731137E2,4.6134E2,2.5214566E2,1.5610072E2,8.498494E1,3.81911E1,7.361239E1,2.9026129E1,2.7116716E1,3.2554924E0],"categories":[],"categories_nodes":[],"categories_segments":[],"categories_sizes":[],"default_left":[0,0,0,0,0,0,0,0,0,0,0,0,0,0,0,0,0,0,0,0,0,0,0,0,0,0,0,0,0,0,0,0,0,0,0,0,0,0,0,0,0,0,0,0,0,0,0,0,0],"id":21,"left_children":[1,3,5,7,9,11,13,15,17,19,21,23,25,27,29,-1,31,-1,33,-1,35,37,39,41,-1,-1,-1,43,-1,45,47,-1,-1,-1,-1,-1,-1,-1,-1,-1,-1,-1,-1,-1,-1,-1,-1,-1,-1],"loss_changes":[2.6630455E10,3.5226583E9,1.2973384E9,1.1674911E9,1.1541955E9,3.5165645E8,2.6577254E8,8.709734E7,1.8606735E9,5.9439744E7,9.679831E8,1.4031206E8,4.4338176E7,1.2633446E8,4.408299E7,0E0,3.5961446E8,0E0,4.0103936E8,0E0,1.054336E6,5.560115E7,7.9765504E8,5.711616E7,0E0,0E0,0E0,2.017296E7,0E0,1.7054192E7,8.275303E6,0E0,0E0,0E0,0E0,0E0,0E0,0E0,0E0,0E0,0E0,0E0,0E0,0E0,0E0,0E0,0E0,0E0,0E0],"parents":[2147483647,0,0,1,1,2,2,3,3,4,4,5,5,6,6,7,7,8,8,9,9,10,10,11,11,12,12,13,13,14,14,16,16,18,18,20,20,21,21,22,22,23,23,27,27,29,29,30,30],"right_children":[2,4,6,8,10,12,14,16,18,20,22,24,26,28,30,-1,32,-1,34,-1,36,38,40,42,-1,-1,-1,44,-1,46,48,-1,-1,-1,-1,-1,-1,-1,-1,-1,-1,-1,-1,-1,-1,-1,-1,-1,-1],"split_conditions":[6.3792527E-1,-2.8428623E-1,1.4684951E0,-1.7603718E-1,-1.0961725E0,1.4890184E0,1.8164506E0,-5.7149947E-1,-1.6266878E-1,-2.8350413E-1,-3.2374936E-1,1.9886744E0,1.9378804E-1,-6.506184E-1,-1.3483955E-1,4.6506943E2,-1.9586612E-1,3.9830774E2,-2.1041037E-1,7.7780464E1,-2.114224E-1,-1.2122958E0,-1.22695625E-1,1.048032E0,1.024224E2,1.3447768E2,5.646535E1,-2.6382655E-1,1.3938808E2,1.2853402E-1,-1.0139489E0,4.079425E2,1.9011253E2,4.0590222E2,6.4743207E2,1.1530755E2,2.2258296E2,1.4666136E2,2.6183008E2,3.2731137E2,4.6134E2,2.5214566E2,1.5610072E2,8.498494E1,3.81911E1,7.361239E1,2.9026129E1,2.7116716E1,3.2554924E0],"split_indices":[31,31,31,6,26,28,31,31,7,21,2,18,0,33,5,0,18,0,16,0,24,27,1,17,0,0,0,2,0,0,11,0,0,0,0,0,0,0,0,0,0,0,0,0,0,0,0,0,0],"split_type":[0,0,0,0,0,0,0,0,0,0,0,0,0,0,0,0,0,0,0,0,0,0,0,0,0,0,0,0,0,0,0,0,0,0,0,0,0,0,0,0,0,0,0,0,0,0,0,0,0],"sum_hessian":[5.63E2,4.16E2,1.47E2,2.76E2,1.4E2,6.4E1,8.3E1,1.8E2,9.6E1,1.6E1,1.24E2,4.8E1,1.6E1,4.2E1,4.1E1,1.24E2,5.6E1,3.2E1,6.4E1,4E0,1.2E1,2E1,1.04E2,4.2E1,6E0,8E0,8E0,2E1,2.2E1,1.8E1,2.3E1,5E1,6E0,1E1,5.4E1,4E0,8E0,8E0,1.2E1,5.2E1,5.2E1,3.2E1,1E1,1E1,1E1,1E1,8E0,1E1,1.3E1],"tree_param":{"num_deleted":"0","num_feature":"36","num_nodes":"49","size_leaf_vector":"1"}},{"base_weights":[1.8073246E4,2.2641201E4,9.104041E3,1.906907E4,2.4458783E4,1.2543357E4,4.5865156E3,4.2337332E2,1.3573391E4,2.5758436E4,1.7754404E4,1.3319638E4,8.833044E1,9.053668E3,3.4194402E3,3.39404E2,1.0992365E4,2.256608E4,2.8638719E4,2.2699191E2,3.8702652E2,1.0601107E2,1.3966363E4,2.0125125E2,9.239574E1,4.5563643E3,2.0410846E3,1.7542586E2,2.7932675E2,6.068549E2,4.1931787E2,5.867834E2,4.0226398E2,3.0446246E2,1.8104495E2,1.13307846E2,5.1041798E1,6.649767E1,2.2983053E1],"categories":[],"categories_nodes":[],"categories_segments":[],"categories_sizes":[],"default_left":[0,0,0,0,0,0,0,0,0,0,0,0,0,0,0,0,0,0,0,0,0,0,0,0,0,0,0,0,0,0,0,0,0,0,0,0,0,0,0],"id":22,"left_children":[1,3,5,7,9,11,13,-1,15,17,19,21,-1,23,25,-1,27,29,31,-1,-1,-1,33,-1,-1,35,37,-1,-1,-1,-1,-1,-1,-1,-1,-1,-1,-1,-1],"loss_changes":[2.3024386E10,1.9683246E9,2.9411471E9,1.224237E9,1.6774431E9,6.2882E8,4.1218803E8,0E0,1.5537766E8,1.2202885E9,2.2016922E8,4.3939635E8,0E0,2.9558144E7,9.882835E7,0E0,4.2630144E7,6.2068326E8,2.49856E7,0E0,0E0,0E0,4.2419814E8,0E0,0E0,6.778406E7,3.396576E7,0E0,0E0,0E0,0E0,0E0,0E0,0E0,0E0,0E0,0E0,0E0,0E0],"parents":[2147483647,0,0,1,1,2,2,3,3,4,4,5,5,6,6,8,8,9,9,10,10,11,11,13,13,14,14,16,16,17,17,18,18,22,22,25,25,26,26],"right_children":[2,4,6,8,10,12,14,-1,16,18,20,22,-1,24,26,-1,28,30,32,-1,-1,-1,34,-1,-1,36,38,-1,-1,-1,-1,-1,-1,-1,-1,-1,-1,-1,-1],"split_conditions":[1.21516E-1,-2.2347873E-1,1.2688599E0,-3.1070188E-1,4.8064587E-1,1.9886744E0,-1.6450468E-2,4.2337332E2,-2.3400298E-1,-1.8006696E-1,8.9872915E-1,-5.5801475E-1,8.833044E1,6.164553E-1,1.800175E0,3.39404E2,-2.1389988E-1,-1.0951912E0,7.310911E-1,2.2699191E2,3.8702652E2,1.0601107E2,5.51749E-1,2.0125125E2,9.239574E1,1.6069987E0,1.2853402E-1,1.7542586E2,2.7932675E2,6.068549E2,4.1931787E2,5.867834E2,4.0226398E2,3.0446246E2,1.8104495E2,1.13307846E2,5.1041798E1,6.649767E1,2.2983053E1],"split_indices":[31,16,31,31,12,18,8,0,0,6,26,8,0,25,31,0,12,31,28,0,0,0,20,0,0,28,0,0,0,0,0,0,0,0,0,0,0,0,0],"split_type":[0,0,0,0,0,0,0,0,0,0,0,0,0,0,0,0,0,0,0,0,0,0,0,0,0,0,0,0,0,0,0,0,0,0,0,0,0,0,0],"sum_hessian":[5.66E2,3.74E2,1.92E2,1.3E2,2.44E2,1.08E2,8.4E1,9.2E1,3.8E1,2.02E2,4.2E1,9.8E1,1E1,1.6E1,6.8E1,1.4E1,2.4E1,1E2,1.02E2,1E1,3.2E1,8E0,9E1,1.2E1,4E0,3.6E1,3.2E1,1.6E1,8E0,1.4E1,8.6E1,9.2E1,1E1,7E1,2E1,2.2E1,1.4E1,1.2E1,2E1],"tree_param":{"num_deleted":"0","num_feature":"36","num_nodes":"39","size_leaf_vector":"1"}},{"base_weights":[1.7135111E4,2.098283E4,5.606769E3,2.3401469E4,1.6013895E4,7.616922E3,2.5641858E3,2.1478393E4,2.6616074E4,7.751661E3,1.7315488E4,9.042688E3,3.8333691E3,3.3564639E3,6.170916E2,4.52396E2,1.8734803E4,3.7955148E2,3.0554662E4,8.674255E1,1.9038557E2,1.0473873E4,1.8409422E4,7.1862544E3,1.0843363E4,1.2521031E2,2.7373958E3,4.7216484E3,1.5272109E3,-9.895983E1,1.3441497E3,3.933607E2,1.7984969E2,3.6226007E2,6.3025824E2,2.4692966E2,1.4042705E2,3.022525E2,4.3468402E2,1.12626465E2,1.8290538E2,2.3515524E2,1.500987E2,3.49791E1,6.1181133E1,3.9630787E1,1.0388433E2,3.887403E1,1.6969313E1,-5.7939587E0,2.993957E0,3.5878815E1,1.2510173E1],"categories":[],"categories_nodes":[],"categories_segments":[],"categories_sizes":[],"default_left":[0,0,0,0,0,0,0,0,0,0,0,0,0,0,0,0,0,0,0,0,0,0,0,0,0,0,0,0,0,0,0,0,0,0,0,0,0,0,0,0,0,0,0,0,0,0,0,0,0,0,0,0,0],"id":23,"left_children":[1,3,5,7,9,11,13,15,17,19,21,23,25,27,29,-1,31,-1,33,-1,-1,35,37,39,41,-1,43,45,47,49,51,-1,-1,-1,-1,-1,-1,-1,-1,-1,-1,-1,-1,-1,-1,-1,-1,-1,-1,-1,-1,-1,-1],"loss_changes":[2.4811438E10,4.6848573E9,8.489477E8,1.1654431E9,1.382101E9,4.2386483E8,8.740147E7,1.4302413E8,2.458714E9,8.545971E7,7.127777E8,1.2598784E8,4.9363776E7,9.517642E7,9.504138E6,0E0,3.5955098E8,0E0,2.0414874E8,0E0,0E0,3.6148224E7,8.0052634E8,4.902093E7,2.83904E5,0E0,6.90272E5,1.9489152E7,3.721684E6,5.1766612E5,1.786779E6,0E0,0E0,0E0,0E0,0E0,0E0,0E0,0E0,0E0,0E0,0E0,0E0,0E0,0E0,0E0,0E0,0E0,0E0,0E0,0E0,0E0,0E0],"parents":[2147483647,0,0,1,1,2,2,3,3,4,4,5,5,6,6,7,7,8,8,9,9,10,10,11,11,12,12,13,13,14,14,16,16,18,18,21,21,22,22,23,23,24,24,26,26,27,27,28,28,29,29,30,30],"right_children":[2,4,6,8,10,12,14,16,18,20,22,24,26,28,30,-1,32,-1,34,-1,-1,36,38,40,42,-1,44,46,48,50,52,-1,-1,-1,-1,-1,-1,-1,-1,-1,-1,-1,-1,-1,-1,-1,-1,-1,-1,-1,-1,-1,-1],"split_conditions":[6.3792497E-1,-2.842863E-1,1.6139363E0,-1.7603718E-1,-1.0858772E0,1.6069987E0,1.9938664E0,-5.714995E-1,-1.6266878E-1,-2.1176277E-1,-3.3866084E-1,1.0224701E0,9.3636644E-1,1.2282841E0,5.502618E-2,4.52396E2,-1.9586612E-1,3.7955148E2,-2.3028666E-1,8.674255E1,1.9038557E2,-3.0714022E-2,-1.22695625E-1,-1.6226709E-1,3.9538327E-1,1.2521031E2,-2.1177796E-1,-4.20488E-1,-5.482642E-2,-1.9774023E-1,-2.9497913E-1,3.933607E2,1.7984969E2,3.6226007E2,6.3025824E2,2.4692966E2,1.4042705E2,3.022525E2,4.3468402E2,1.12626465E2,1.8290538E2,2.3515524E2,1.500987E2,3.49791E1,6.1181133E1,3.9630787E1,1.0388433E2,3.887403E1,1.6969313E1,-5.7939587E0,2.993957E0,3.5878815E1,1.2510173E1],"split_indices":[32,32,32,6,26,28,32,32,7,22,2,26,32,14,3,0,18,0,16,0,0,0,1,2,0,0,16,22,13,0,2,0,0,0,0,0,0,0,0,0,0,0,0,0,0,0,0,0,0,0,0,0,0],"split_type":[0,0,0,0,0,0,0,0,0,0,0,0,0,0,0,0,0,0,0,0,0,0,0,0,0,0,0,0,0,0,0,0,0,0,0,0,0,0,0,0,0,0,0,0,0,0,0,0,0,0,0,0,0],"sum_hessian":[5.61E2,4.2E2,1.41E2,2.8E2,1.4E2,8.4E1,5.7E1,1.8E2,1E2,2E1,1.2E2,6E1,2.4E1,4E1,1.7E1,1.22E2,5.8E1,3.6E1,6.4E1,8E0,1.2E1,1.8E1,1.02E2,3.2E1,2.8E1,6E0,1.8E1,2.2E1,1.8E1,9E0,8E0,5.2E1,6E0,6E0,5.8E1,1E1,8E0,5.4E1,4.8E1,2E1,1.2E1,2E1,8E0,6E0,1.2E1,4E0,1.8E1,1E1,8E0,5E0,4E0,4E0,4E0],"tree_param":{"num_deleted":"0","num_feature":"36","num_nodes":"53","size_leaf_vector":"1"}},{"base_weights":[1.7088396E4,2.1338055E4,7.7529673E3,2.3315113E4,1.841799E4,1.1051937E4,3.5735793E3,2.5995809E4,2.0999637E4,1.0011354E4,1.9817611E4,5.2883643E3,1.226744E4,5.3063574E3,1.8794833E3,3.94434E2,3.1305912E4,2.1946883E2,4.2472952E2,2.571523E2,1.04399086E2,1.0497795E4,2.0793053E4,1.369426E2,5.5911976E1,1.419323E4,1.0411401E4,3.2742922E3,1.3784409E2,2.777584E3,7.5268835E2,3.46413E2,6.418816E2,1.335289E2,2.4607047E2,4.59025E2,3.111227E2,1.2488768E2,2.9935E2,2.1682086E2,9.6120766E1,8.06514E1,3.9673744E1,7.214574E1,3.0890184E1,-5.697393E0,2.2350779E1],"categories":[],"categories_nodes":[],"categories_segments":[],"categories_sizes":[],"default_left":[0,0,0,0,0,0,0,0,0,0,0,0,0,0,0,0,0,0,0,0,0,0,0,0,0,0,0,0,0,0,0,0,0,0,0,0,0,0,0,0,0,0,0,0,0,0,0],"id":24,"left_children":[1,3,5,7,9,11,13,15,17,19,21,23,25,27,29,-1,31,-1,-1,-1,-1,33,35,-1,-1,37,39,41,-1,43,45,-1,-1,-1,-1,-1,-1,-1,-1,-1,-1,-1,-1,-1,-1,-1,-1],"loss_changes":[2.2209774E10,1.8047795E9,2.4147098E9,8.631009E8,1.6959365E9,6.286817E8,2.2486554E8,2.7475272E9,6.853837E7,2.738217E8,1.0271744E9,5.468432E7,1.4174822E8,1.0311104E8,4.041195E7,0E0,2.8311552E7,0E0,0E0,0E0,0E0,2.1359232E7,1.0331464E9,0E0,0E0,1.3425357E8,5.62688E7,1.0594144E7,0E0,1.795896E7,7.889511E6,0E0,0E0,0E0,0E0,0E0,0E0,0E0,0E0,0E0,0E0,0E0,0E0,0E0,0E0,0E0,0E0],"parents":[2147483647,0,0,1,1,2,2,3,3,4,4,5,5,6,6,7,7,8,8,9,9,10,10,11,11,12,12,13,13,14,14,16,16,21,21,22,22,25,25,26,26,27,27,29,29,30,30],"right_children":[2,4,6,8,10,12,14,16,18,20,22,24,26,28,30,-1,32,-1,-1,-1,-1,34,36,-1,-1,38,40,42,-1,44,46,-1,-1,-1,-1,-1,-1,-1,-1,-1,-1,-1,-1,-1,-1,-1,-1],"split_conditions":[2.8260413E-1,-4.2275125E-1,1.4684951E0,-1.893694E-1,-1.0545955E0,-1.3773379E0,1.800175E0,-2.0727174E-1,-5.1786804E-1,6.1831856E-1,-2.6979184E-1,-1.5732466E-1,6.3792527E-1,-6.6394174E-1,-2.4372384E-1,3.94434E2,-2.2588721E-1,2.1946883E2,4.2472952E2,2.571523E2,1.04399086E2,-1.2122958E0,-1.38118705E-2,1.369426E2,5.5911976E1,-2.1370189E-1,4.3471475E0,-2.6382655E-1,1.3784409E2,1.480031E0,-1.9774023E-1,3.46413E2,6.418816E2,1.335289E2,2.4607047E2,4.59025E2,3.111227E2,1.2488768E2,2.9935E2,2.1682086E2,9.6120766E1,8.06514E1,3.9673744E1,7.214574E1,3.0890184E1,-5.697393E0,2.2350779E1],"split_indices":[31,31,31,11,26,27,31,2,23,33,7,19,31,33,2,0,19,0,0,0,0,27,22,0,0,24,22,2,0,20,0,0,0,0,0,0,0,0,0,0,0,0,0,0,0,0,0],"split_type":[0,0,0,0,0,0,0,0,0,0,0,0,0,0,0,0,0,0,0,0,0,0,0,0,0,0,0,0,0,0,0,0,0,0,0,0,0,0,0,0,0,0,0,0,0,0,0],"sum_hessian":[5.63E2,3.86E2,1.77E2,2.26E2,1.6E2,9.8E1,7.9E1,1E2,1.26E2,2.4E1,1.36E2,1.8E1,8E1,3.8E1,4.1E1,4.8E1,5.2E1,4E0,1.22E2,1.4E1,1E1,1.4E1,1.22E2,1E1,8E0,3.6E1,4.4E1,1.8E1,2E1,2.2E1,1.9E1,4E0,4.8E1,6E0,8E0,8.4E1,3.8E1,4E0,3.2E1,4E1,4E0,1E1,8E0,1.2E1,1E1,5E0,1.4E1],"tree_param":{"num_deleted":"0","num_feature":"36","num_nodes":"47","size_leaf_vector":"1"}},{"base_weights":[1.7134443E4,2.1111027E4,7.6261494E3,1.3370841E4,2.1802982E4,1.0730991E4,3.481132E3,1.0335931E4,4.197982E2,2.2604E4,1.5353497E4,1.1867984E4,5.5583843E3,5.0324106E3,1.8357664E3,1.0659689E2,1.2163233E4,1.9209152E4,2.5151873E4,1.0632105E4,3.5515143E2,1.2291009E4,1.176373E2,1.3350041E2,5.381122E1,3.0440728E3,6.1103477E3,1.277764E3,6.859578E1,2.717939E2,1.555294E2,4.0104443E2,1.8731326E2,4.1228912E2,5.4312933E2,2.3181383E2,1.2026681E2,2.5212816E2,1.1212853E2,3.9968605E1,7.038218E1,5.8012196E1,1.3266826E2,1.1171238E1,3.0502855E1],"categories":[],"categories_nodes":[],"categories_segments":[],"categories_sizes":[],"default_left":[0,0,0,0,0,0,0,0,0,0,0,0,0,0,0,0,0,0,0,0,0,0,0,0,0,0,0,0,0,0,0,0,0,0,0,0,0,0,0,0,0,0,0,0,0],"id":25,"left_children":[1,3,5,7,9,11,13,15,-1,17,19,21,23,25,27,-1,29,31,33,35,-1,37,-1,-1,-1,39,41,43,-1,-1,-1,-1,-1,-1,-1,-1,-1,-1,-1,-1,-1,-1,-1,-1,-1],"loss_changes":[2.105072E10,1.8240307E9,2.11187E9,5.923584E8,1.5179284E9,4.9274675E8,1.7708768E8,1.8215629E8,0E0,2.2760817E9,2.992722E8,1.2268851E8,4.2883584E7,6.070099E7,2.85274E7,0E0,1.3211392E7,9.823191E8,1.0683105E9,5.566592E6,0E0,7.901286E7,0E0,0E0,0E0,4.17536E5,1.93728E7,4.307452E6,0E0,0E0,0E0,0E0,0E0,0E0,0E0,0E0,0E0,0E0,0E0,0E0,0E0,0E0,0E0,0E0,0E0],"parents":[2147483647,0,0,1,1,2,2,3,3,4,4,5,5,6,6,7,7,9,9,10,10,11,11,12,12,13,13,14,14,16,16,17,17,18,18,19,19,21,21,25,25,26,26,27,27],"right_children":[2,4,6,8,10,12,14,16,-1,18,20,22,24,26,28,-1,30,32,34,36,-1,38,-1,-1,-1,40,42,44,-1,-1,-1,-1,-1,-1,-1,-1,-1,-1,-1,-1,-1,-1,-1,-1,-1],"split_conditions":[2.8260413E-1,-1.0545955E0,1.4684951E0,-1.4854485E-1,4.6676612E-1,1.4890184E0,1.9630356E-1,-3.3628878E-1,4.197982E2,-8.223736E-1,8.9872915E-1,1.2746054E0,7.2486594E-2,-3.3499208E-1,1.5359704E0,1.0659689E2,-3.0407678E-2,-5.372064E-2,-2.0366323E-1,1.1583835E0,3.5515143E2,3.4365207E-1,1.176373E2,1.3350041E2,5.381122E1,9.660442E-1,-5.6049332E-2,-3.6587662E-1,6.859578E1,2.717939E2,1.555294E2,4.0104443E2,1.8731326E2,4.1228912E2,5.4312933E2,2.3181383E2,1.2026681E2,2.5212816E2,1.1212853E2,3.9968605E1,7.038218E1,5.8012196E1,1.3266826E2,1.1171238E1,3.0502855E1],"split_indices":[31,26,31,2,20,28,1,20,0,12,26,15,3,2,8,0,11,13,2,30,0,7,0,0,0,26,6,29,0,0,0,0,0,0,0,0,0,0,0,0,0,0,0,0,0],"split_type":[0,0,0,0,0,0,0,0,0,0,0,0,0,0,0,0,0,0,0,0,0,0,0,0,0,0,0,0,0,0,0,0,0,0,0,0,0,0,0,0,0,0,0,0,0],"sum_hessian":[5.6E2,3.94E2,1.66E2,3.4E1,3.6E2,9.4E1,7.2E1,2.6E1,8E0,3.18E2,4.2E1,7.6E1,1.8E1,3.6E1,3.6E1,8E0,1.8E1,1.4E2,1.78E2,1.6E1,2.6E1,7E1,6E0,1.2E1,6E0,1.4E1,2.2E1,2.8E1,8E0,1.2E1,6E0,1.28E2,1.2E1,5.8E1,1.2E2,1.2E1,4E0,6.6E1,4E0,6E0,8E0,4E0,1.8E1,8E0,2E1],"tree_param":{"num_deleted":"0","num_feature":"36","num_nodes":"45","size_leaf_vector":"1"}},{"base_weights":[1.6293758E4,2.084172E4,7.919471E3,2.192545E4,1.6265838E4,1.1011691E4,3.4108215E3,1.9912844E4,2.4713957E4,9.404243E3,1.8026912E4,8.77571E3,1.4394243E4,5.0788926E3,1.532372E3,2.1484491E2,2.0066334E4,1.9952668E4,5.9436896E2,1.2979509E2,2.2547609E2,1.4305216E4,4.4436935E2,5.59167E3,1.1408161E4,1.5125786E4,1.1033448E2,2.8060203E3,1.3206232E2,2.6523516E3,4.9545898E2,4.063922E2,2.6611804E2,4.1435928E2,1.3863261E2,3.4612183E2,2.3532649E2,1.2751085E2,6.603598E1,2.5437752E2,1.5616696E2,3.2665628E2,1.8038727E2,7.705399E1,3.3890884E1,3.8641186E1,8.5654755E1,-4.7632885E0,1.7074017E1],"categories":[],"categories_nodes":[],"categories_segments":[],"categories_sizes":[],"default_left":[0,0,0,0,0,0,0,0,0,0,0,0,0,0,0,0,0,0,0,0,0,0,0,0,0,0,0,0,0,0,0,0,0,0,0,0,0,0,0,0,0,0,0,0,0,0,0,0,0],"id":26,"left_children":[1,3,5,7,9,11,13,15,17,19,21,23,25,27,29,-1,31,33,-1,-1,-1,35,-1,37,39,41,-1,43,-1,45,47,-1,-1,-1,-1,-1,-1,-1,-1,-1,-1,-1,-1,-1,-1,-1,-1,-1,-1],"loss_changes":[2.1086913E10,1.4335672E9,2.722904E9,1.1297915E9,7.125811E8,7.585864E8,2.4915437E8,2.79552E7,2.1948826E9,1.9463808E7,5.7133875E8,5.4808115E8,2.0879667E8,1.3043827E8,4.5138416E7,0E0,1.8997248E7,4.8417792E8,0E0,0E0,0E0,4.7791616E7,0E0,4.177203E7,8.469914E7,1.5488102E8,0E0,1.5574704E7,0E0,1.4037608E7,5.9853045E6,0E0,0E0,0E0,0E0,0E0,0E0,0E0,0E0,0E0,0E0,0E0,0E0,0E0,0E0,0E0,0E0,0E0,0E0],"parents":[2147483647,0,0,1,1,2,2,3,3,4,4,5,5,6,6,7,7,8,8,9,9,10,10,11,11,12,12,13,13,14,14,16,16,17,17,21,21,23,23,24,24,25,25,27,27,29,29,30,30],"right_children":[2,4,6,8,10,12,14,16,18,20,22,24,26,28,30,-1,32,34,-1,-1,-1,36,-1,38,40,42,-1,44,-1,46,48,-1,-1,-1,-1,-1,-1,-1,-1,-1,-1,-1,-1,-1,-1,-1,-1,-1,-1],"split_conditions":[1.7938009E-1,-1.8922926E-1,1.4684951E0,-1.8424879E-1,-1.9893073E-1,-1.424355E-1,1.8164506E0,-5.206182E-1,-1.7646712E-1,8.0171627E-1,-1.5039131E-1,9.868327E-1,3.597489E-1,-6.506184E-1,-1.3483955E-1,2.1484491E2,1.3389263E-1,1.2471841E-1,5.9436896E2,1.2979509E2,2.2547609E2,-9.325149E-1,4.4436935E2,1.9378804E-1,1.2280492E0,1.1585851E0,1.1033448E2,-2.6382655E-1,1.3206232E2,1.5111461E-1,2.1921447E-1,4.063922E2,2.6611804E2,4.1435928E2,1.3863261E2,3.4612183E2,2.3532649E2,1.2751085E2,6.603598E1,2.5437752E2,1.5616696E2,3.2665628E2,1.8038727E2,7.705399E1,3.3890884E1,3.8641186E1,8.5654755E1,-4.7632885E0,1.7074017E1],"split_indices":[31,31,31,19,7,7,31,23,2,26,0,26,7,33,5,0,3,3,0,0,0,20,0,0,31,31,0,2,0,19,0,0,0,0,0,0,0,0,0,0,0,0,0,0,0,0,0,0,0],"split_type":[0,0,0,0,0,0,0,0,0,0,0,0,0,0,0,0,0,0,0,0,0,0,0,0,0,0,0,0,0,0,0,0,0,0,0,0,0,0,0,0,0,0,0,0,0,0,0,0,0],"sum_hessian":[5.57E2,3.6E2,1.97E2,2.88E2,7.2E1,1.16E2,8.1E1,1.72E2,1.16E2,1.6E1,5.6E1,7.2E1,4.4E1,4.2E1,3.9E1,4E0,1.68E2,6.2E1,5.4E1,8E0,8E0,3.2E1,2.4E1,3.4E1,3.8E1,4E1,4E0,1.8E1,2.4E1,1.8E1,2.1E1,1.6E2,8E0,5.8E1,4E0,1.2E1,2E1,2.4E1,1E1,2.6E1,1.2E1,3.2E1,8E0,8E0,1E1,1.4E1,4E0,7E0,1.4E1],"tree_param":{"num_deleted":"0","num_feature":"36","num_nodes":"49","size_leaf_vector":"1"}},{"base_weights":[1.6124034E4,1.9866152E4,6.761605E3,1.1368241E4,2.0622447E4,9.975009E3,3.5049294E3,1.4352998E4,7.3636104E3,1.5146465E4,2.1601285E4,1.1289958E4,5.0899062E3,4.9511714E3,1.7000367E3,3.107591E2,1.5855019E2,7.413208E1,1.8042735E2,9.71081E3,3.5369965E2,1.8559506E4,2.4282176E4,1.1706316E4,8.237829E1,1.15533295E2,4.0232567E1,6.1795225E3,2.9450266E3,3.9141458E2,2.5364636E3,1.3056174E2,2.233448E2,3.8093057E2,1.19178894E2,4.1231393E2,5.297752E2,2.4639433E2,1.3859337E2,1.6665675E2,1.03349655E2,8.2562195E1,3.418621E1,-4.67993E0,1.8077124E1,6.864082E1,2.4949133E1],"categories":[],"categories_nodes":[],"categories_segments":[],"categories_sizes":[],"default_left":[0,0,0,0,0,0,0,0,0,0,0,0,0,0,0,0,0,0,0,0,0,0,0,0,0,0,0,0,0,0,0,0,0,0,0,0,0,0,0,0,0,0,0,0,0,0,0],"id":27,"left_children":[1,3,5,7,9,11,13,15,17,19,21,23,25,27,29,-1,-1,-1,-1,31,-1,33,35,37,-1,-1,-1,39,41,43,45,-1,-1,-1,-1,-1,-1,-1,-1,-1,-1,-1,-1,-1,-1,-1,-1],"loss_changes":[1.9555533E10,2.3427645E9,1.6603684E9,3.126574E8,1.6399729E9,4.6285056E8,2.0562778E8,2.1485056E7,6.962138E7,6.4237466E8,2.069119E9,1.3988198E8,2.8545408E7,9.269146E7,4.0600424E7,0E0,0E0,0E0,0E0,2.4441088E7,0E0,8.008745E8,7.564575E8,8.749619E7,0E0,0E0,0E0,1.5778368E7,2.072032E7,5.339353E6,2.2269536E7,0E0,0E0,0E0,0E0,0E0,0E0,0E0,0E0,0E0,0E0,0E0,0E0,0E0,0E0,0E0,0E0],"parents":[2147483647,0,0,1,1,2,2,3,3,4,4,5,5,6,6,7,7,8,8,9,9,10,10,11,11,12,12,13,13,14,14,19,19,21,21,22,22,23,23,27,27,28,28,29,29,30,30],"right_children":[2,4,6,8,10,12,14,16,18,20,22,24,26,28,30,-1,-1,-1,-1,32,-1,34,36,38,-1,-1,-1,40,42,44,46,-1,-1,-1,-1,-1,-1,-1,-1,-1,-1,-1,-1,-1,-1,-1,-1],"split_conditions":[3.7621975E-1,-1.0545955E0,1.4684951E0,-6.5523314E-1,-2.372907E-1,1.1691248E0,1.8164506E0,9.871058E-2,-2.500906E-1,8.9872915E-1,-7.938812E-1,1.9886744E0,3.886471E-2,3.0735466E-1,7.5008065E-2,3.107591E2,1.5855019E2,7.413208E1,1.8042735E2,-1.2122958E0,3.5369965E2,-2.0930465E-1,-1.5236516E-1,1.048032E0,8.237829E1,1.15533295E2,4.0232567E1,1.55192E0,-3.189366E-1,2.1921447E-1,1.480031E0,1.3056174E2,2.233448E2,3.8093057E2,1.19178894E2,4.1231393E2,5.297752E2,2.4639433E2,1.3859337E2,1.6665675E2,1.03349655E2,8.2562195E1,3.418621E1,-4.67993E0,1.8077124E1,6.864082E1,2.4949133E1],"split_indices":[31,26,31,8,7,28,31,3,21,26,17,18,22,28,29,0,0,0,0,27,0,0,2,17,0,0,0,31,2,0,20,0,0,0,0,0,0,0,0,0,0,0,0,0,0,0,0],"split_type":[0,0,0,0,0,0,0,0,0,0,0,0,0,0,0,0,0,0,0,0,0,0,0,0,0,0,0,0,0,0,0,0,0,0,0,0,0,0,0,0,0,0,0,0,0,0,0],"sum_hessian":[5.61E2,4E2,1.61E2,3.4E1,3.66E2,8E1,8.1E1,1.8E1,1.6E1,5.8E1,3.08E2,6.2E1,1.8E1,4.4E1,3.7E1,1.4E1,4E0,6E0,1E1,2E1,3.8E1,1.48E2,1.6E2,5.8E1,4E0,1.4E1,4E0,2.6E1,1.8E1,1.5E1,2.2E1,8E0,1.2E1,1.42E2,6E0,6.4E1,9.6E1,5E1,8E0,6E0,2E1,8E0,1E1,7E0,8E0,1.2E1,1E1],"tree_param":{"num_deleted":"0","num_feature":"36","num_nodes":"47","size_leaf_vector":"1"}},{"base_weights":[1.5842473E4,1.9462451E4,7.2559585E3,1.2009368E4,2.023955E4,9.848653E3,3.1156787E3,1.5934332E4,7.0391733E3,2.1055877E4,1.45462295E4,1.0834739E4,5.0226567E3,2.1750154E3,5.278594E3,1.5601338E2,3.477853E2,8.069649E1,1.7714685E2,1.839057E4,2.4414975E4,1.9126834E2,3.3619006E2,9.375858E3,1.3227968E4,6.0158467E3,2.077073E1,3.7336025E3,1.2501414E3,1.2921402E2,6.494552E1,3.8120645E2,1.7362556E2,3.5789426E2,5.1420447E2,1.3729636E2,2.2196883E2,1.4317966E2,2.7825284E2,6.3890217E1,1.3502734E2,8.165123E1,4.159136E1,1.4821758E1,3.79594E1],"categories":[],"categories_nodes":[],"categories_segments":[],"categories_sizes":[],"default_left":[0,0,0,0,0,0,0,0,0,0,0,0,0,0,0,0,0,0,0,0,0,0,0,0,0,0,0,0,0,0,0,0,0,0,0,0,0,0,0,0,0,0,0,0,0],"id":28,"left_children":[1,3,5,7,9,11,13,15,17,19,21,23,25,27,29,-1,-1,-1,-1,31,33,-1,-1,35,37,39,-1,41,43,-1,-1,-1,-1,-1,-1,-1,-1,-1,-1,-1,-1,-1,-1,-1,-1],"loss_changes":[1.6985522E10,1.9983565E9,1.740502E9,6.4863846E8,1.3157335E9,4.262236E8,1.2076563E8,1.1286272E8,6.804685E7,2.2637527E9,3.6928205E8,1.6576307E8,6.893434E7,6.308232E7,2.4642816E7,0E0,0E0,0E0,0E0,9.595208E8,6.462587E8,0E0,0E0,1.617106E8,2.0900864E7,9.558976E6,0E0,1.321664E6,8.816336E6,0E0,0E0,0E0,0E0,0E0,0E0,0E0,0E0,0E0,0E0,0E0,0E0,0E0,0E0,0E0,0E0],"parents":[2147483647,0,0,1,1,2,2,3,3,4,4,5,5,6,6,7,7,8,8,9,9,10,10,11,11,12,12,13,13,14,14,19,19,20,20,23,23,24,24,25,25,27,27,28,28],"right_children":[2,4,6,8,10,12,14,16,18,20,22,24,26,28,30,-1,-1,-1,-1,32,34,-1,-1,36,38,40,-1,42,44,-1,-1,-1,-1,-1,-1,-1,-1,-1,-1,-1,-1,-1,-1,-1,-1],"split_conditions":[2.8260413E-1,-1.0545955E0,3.601998E-1,-6.5523314E-1,5.081185E-1,1.4684951E0,1.5359704E0,-5.7098344E-2,-2.1176277E-1,-1.36657E-1,8.9872915E-1,6.7502104E-2,-1.1270454E-1,5.171757E-2,8.981145E-1,1.5601338E2,3.477853E2,8.069649E1,1.7714685E2,-5.372064E-2,-2.1177796E-1,1.9126834E2,3.3619006E2,-5.6200027E-2,-2.1306157E-1,-3.7999415E-1,2.077073E1,1.333804E0,6.101607E-1,1.2921402E2,6.494552E1,3.8120645E2,1.7362556E2,3.5789426E2,5.1420447E2,1.3729636E2,2.2196883E2,1.4317966E2,2.7825284E2,6.3890217E1,1.3502734E2,8.165123E1,4.159136E1,1.4821758E1,3.79594E1],"split_indices":[31,26,23,8,12,31,8,13,22,25,26,3,2,4,0,0,0,0,0,13,16,0,0,13,21,2,0,20,28,0,0,0,0,0,0,0,0,0,0,0,0,0,0,0,0],"split_type":[0,0,0,0,0,0,0,0,0,0,0,0,0,0,0,0,0,0,0,0,0,0,0,0,0,0,0,0,0,0,0,0,0,0,0,0,0,0,0,0,0,0,0,0,0],"sum_hessian":[5.5E2,3.86E2,1.64E2,3.8E1,3.48E2,1E2,6.4E1,2E1,1.8E1,3.02E2,4.6E1,8.2E1,1.8E1,4.6E1,1.8E1,4E0,1.6E1,8E0,1E1,1.72E2,1.3E2,1.6E1,3E1,5.4E1,2.8E1,1.4E1,4E0,1.6E1,3E1,1E1,8E0,1.6E2,1.2E1,2.4E1,1.06E2,2.4E1,3E1,4E0,2.4E1,4E0,1E1,1.2E1,4E0,1.8E1,1.2E1],"tree_param":{"num_deleted":"0","num_feature":"36","num_nodes":"45","size_leaf_vector":"1"}},{"base_weights":[1.6021078E4,1.9903043E4,7.300475E3,1.6537771E4,2.149008E4,1.0000514E4,3.0076536E3,3.6779938E2,1.1791931E4,1.6651668E4,2.33157E4,5.8172183E3,1.1140053E4,4.787828E3,1.9518287E3,2.988276E2,9.430579E3,1.2133617E4,3.8170218E2,1.8000686E4,2.580794E4,6.7628433E3,4.8389534E1,8.475088E1,1.1622876E4,3.300595E3,1.1813517E2,1.0607615E3,3.115349E3,1.0838162E2,2.0824297E2,2.8795328E2,1.6479156E2,1.774534E2,3.6938297E2,5.323217E2,3.3596082E2,7.6029976E1,1.459819E2,1.710379E2,2.6406384E2,7.539861E1,3.5913025E1,1.1043763E1,3.1319443E1,3.0255768E1,6.883679E1],"categories":[],"categories_nodes":[],"categories_segments":[],"categories_sizes":[],"default_left":[0,0,0,0,0,0,0,0,0,0,0,0,0,0,0,0,0,0,0,0,0,0,0,0,0,0,0,0,0,0,0,0,0,0,0,0,0,0,0,0,0,0,0,0,0,0,0],"id":29,"left_children":[1,3,5,7,9,11,13,-1,15,17,19,21,23,25,27,-1,29,31,-1,33,35,37,-1,-1,39,41,-1,43,45,-1,-1,-1,-1,-1,-1,-1,-1,-1,-1,-1,-1,-1,-1,-1,-1,-1,-1],"loss_changes":[1.8913985E10,1.7221714E9,1.9983084E9,9.170862E8,1.917182E9,4.4526592E8,1.2034336E8,0E0,1.491328E8,5.930066E8,2.0124959E9,6.396128E7,2.2735974E8,2.2106048E7,4.334979E7,0E0,4.2013184E7,1.3703962E8,0E0,1.0552115E8,4.63061E8,2.423872E6,0E0,0E0,2.6077594E8,2.412176E6,0E0,6.072364E6,4.73392E6,0E0,0E0,0E0,0E0,0E0,0E0,0E0,0E0,0E0,0E0,0E0,0E0,0E0,0E0,0E0,0E0,0E0,0E0],"parents":[2147483647,0,0,1,1,2,2,3,3,4,4,5,5,6,6,8,8,9,9,10,10,11,11,12,12,13,13,14,14,16,16,17,17,19,19,20,20,21,21,24,24,25,25,27,27,28,28],"right_children":[2,4,6,8,10,12,14,-1,16,18,20,22,24,26,28,-1,30,32,-1,34,36,38,-1,-1,40,42,-1,44,46,-1,-1,-1,-1,-1,-1,-1,-1,-1,-1,-1,-1,-1,-1,-1,-1,-1,-1],"split_conditions":[1.7938009E-1,-2.2347873E-1,1.4684951E0,-3.1070188E-1,-1.7124535E-1,-1.3773379E0,1.1746107E-1,3.6779938E2,-2.3400298E-1,8.9892715E-1,-3.1051356E-1,-1.3081981E-1,-5.5801475E-1,5.836412E-1,-7.0198333E-1,2.988276E2,-2.1306391E-1,-1.5978236E-1,3.8170218E2,-2.937316E-1,-4.3679822E-2,-3.9974362E-1,4.8389534E1,8.475088E1,-2.1361293E-1,1.3582726E-1,1.1813517E2,2.7013084E-1,9.19576E-1,1.0838162E2,2.0824297E2,2.8795328E2,1.6479156E2,1.774534E2,3.6938297E2,5.323217E2,3.3596082E2,7.6029976E1,1.459819E2,1.710379E2,2.6406384E2,7.539861E1,3.5913025E1,1.1043763E1,3.1319443E1,3.0255768E1,6.883679E1],"split_indices":[31,16,31,31,7,27,0,0,0,26,19,19,8,34,26,0,24,16,0,8,31,22,0,0,7,3,0,29,15,0,0,0,0,0,0,0,0,0,0,0,0,0,0,0,0,0,0],"split_type":[0,0,0,0,0,0,0,0,0,0,0,0,0,0,0,0,0,0,0,0,0,0,0,0,0,0,0,0,0,0,0,0,0,0,0,0,0,0,0,0,0,0,0,0,0,0,0],"sum_hessian":[5.62E2,3.88E2,1.74E2,1.28E2,2.6E2,1.06E2,6.8E1,9E1,3.8E1,7.4E1,1.86E2,2.4E1,8.2E1,2.4E1,4.4E1,1.4E1,2.4E1,2.8E1,4.6E1,6.2E1,1.24E2,1.8E1,6E0,6E0,7.6E1,1.2E1,1.2E1,2.6E1,1.8E1,6E0,1.8E1,1.6E1,1.2E1,4E0,5.8E1,1.12E2,1.2E1,4E0,1.4E1,2.8E1,4.8E1,8E0,4E0,1.4E1,1.2E1,4E0,1.4E1],"tree_param":{"num_deleted":"0","num_feature":"36","num_nodes":"47","size_leaf_vector":"1"}},{"base_weights":[1.4875912E4,1.8750236E4,6.941135E3,2.139208E4,1.6480861E4,9.756118E3,3.3205923E3,3.6726703E2,2.3786336E4,8.275945E3,1.7523082E4,1.0540135E4,3.5175198E3,4.656801E3,1.6508535E3,1.892513E4,5.586918E2,1.1059451E4,4.85582E3,1.0819084E4,1.8478984E4,9.308053E3,2.623176E2,8.986229E1,4.078816E1,2.6450957E3,5.8999673E3,1.9721948E2,2.3988506E3,3.3282428E2,4.6533957E2,2.4809705E2,1.2851637E2,1.1425548E2,4.684238E1,2.454839E2,1.0647792E2,3.7930515E2,1.0699002E2,1.529227E2,2.2214917E2,7.332437E1,3.1383184E1,5.191211E1,1.2723564E2,-4.04883E0,1.9142351E1,6.457015E1,2.7693176E1],"categories":[],"categories_nodes":[],"categories_segments":[],"categories_sizes":[],"default_left":[0,0,0,0,0,0,0,0,0,0,0,0,0,0,0,0,0,0,0,0,0,0,0,0,0,0,0,0,0,0,0,0,0,0,0,0,0,0,0,0,0,0,0,0,0,0,0,0,0],"id":30,"left_children":[1,3,5,7,9,11,13,-1,15,17,19,21,23,25,27,29,-1,31,33,35,37,39,-1,-1,-1,41,43,45,47,-1,-1,-1,-1,-1,-1,-1,-1,-1,-1,-1,-1,-1,-1,-1,-1,-1,-1,-1,-1],"loss_changes":[1.6962347E10,1.8837012E9,1.8428867E9,7.887094E8,1.6079995E9,4.667136E8,1.7526349E8,0E0,1.3063946E9,1.8429414E8,9.599918E8,1.6670618E8,9.582544E6,9.693293E7,4.084456E7,5.904384E7,0E0,1.330048E6,1.4622816E7,1.3455462E8,9.00907E8,1.094487E8,0E0,0E0,0E0,1.5121192E7,2.4688448E7,4.4456585E6,1.656496E7,0E0,0E0,0E0,0E0,0E0,0E0,0E0,0E0,0E0,0E0,0E0,0E0,0E0,0E0,0E0,0E0,0E0,0E0,0E0,0E0],"parents":[2147483647,0,0,1,1,2,2,3,3,4,4,5,5,6,6,8,8,9,9,10,10,11,11,12,12,13,13,14,14,15,15,17,17,18,18,19,19,20,20,21,21,25,25,26,26,27,27,28,28],"right_children":[2,4,6,8,10,12,14,-1,16,18,20,22,24,26,28,30,-1,32,34,36,38,40,-1,-1,-1,42,44,46,48,-1,-1,-1,-1,-1,-1,-1,-1,-1,-1,-1,-1,-1,-1,-1,-1,-1,-1,-1,-1],"split_conditions":[2.826042E-1,-6.0748076E-1,1.4684949E0,-3.1073165E-1,-1.0796406E0,3.601998E-1,1.8164508E0,3.6726703E2,-1.6776176E-1,-1.82113E-1,-1.268817E0,9.695107E-2,9.683242E-1,-6.506184E-1,7.5008065E-2,9.6940994E-1,5.586918E2,-6.5523314E-1,-5.78728E-1,-2.2063743E-1,1.8915656E0,-1.587142E-1,2.623176E2,8.986229E1,4.078816E1,-2.6382655E-1,-2.4279603E-1,3.6008573E-1,1.480031E0,3.3282428E2,4.6533957E2,2.4809705E2,1.2851637E2,1.1425548E2,4.684238E1,2.454839E2,1.0647792E2,3.7930515E2,1.0699002E2,1.529227E2,2.2214917E2,7.332437E1,3.1383184E1,5.191211E1,1.2723564E2,-4.04883E0,1.9142351E1,6.457015E1,2.7693176E1],"split_indices":[32,32,32,19,26,23,32,0,2,2,35,3,28,33,29,26,0,8,8,22,11,7,0,0,0,2,18,0,20,0,0,0,0,0,0,0,0,0,0,0,0,0,0,0,0,0,0,0,0],"split_type":[0,0,0,0,0,0,0,0,0,0,0,0,0,0,0,0,0,0,0,0,0,0,0,0,0,0,0,0,0,0,0,0,0,0,0,0,0,0,0,0,0,0,0,0,0,0,0,0,0],"sum_hessian":[5.55E2,3.72E2,1.83E2,1.68E2,2.04E2,1.02E2,8.1E1,7.8E1,9E1,2.4E1,1.8E2,9E1,1.2E1,4.4E1,3.7E1,4.4E1,4.6E1,1.2E1,1.2E1,2.4E1,1.56E2,6.4E1,2.6E1,6E0,6E0,1.8E1,2.6E1,1.3E1,2.4E1,3.2E1,1.2E1,8E0,4E0,8E0,4E0,1.8E1,6E0,1.5E2,6E0,3.6E1,2.8E1,8E0,1E1,4E0,2.2E1,9E0,4E0,1.2E1,1.2E1],"tree_param":{"num_deleted":"0","num_feature":"36","num_nodes":"49","size_leaf_vector":"1"}},{"base_weights":[1.5018568E4,1.843734E4,6.3592144E3,2.0204414E4,1.44178125E4,9.000885E3,3.0247373E3,1.7924404E4,2.2437484E4,5.9313135E3,1.5399374E4,1.0100967E4,4.3005176E3,3.9689146E3,1.1289861E3,1.7338664E4,5.398974E2,3.2668274E2,2.509236E4,5.4152763E1,1.3714803E2,9.2888545E3,1.6588021E4,1.0419571E4,7.368012E1,1.09810936E2,4.736382E1,1.3904406E3,4.5944067E3,-5.0717635E0,1.6517076E3,3.5151288E2,1.4944864E2,3.4173172E2,5.348387E2,1.1948923E2,2.1737799E2,2.5113132E2,3.963986E2,8.483731E1,2.1468954E2,3.2651646E1,1.5466675E1,1.0263209E2,4.4671165E1,3.6840122E1,2.1246468E1],"categories":[],"categories_nodes":[],"categories_segments":[],"categories_sizes":[],"default_left":[0,0,0,0,0,0,0,0,0,0,0,0,0,0,0,0,0,0,0,0,0,0,0,0,0,0,0,0,0,0,0,0,0,0,0,0,0,0,0,0,0,0,0,0,0,0,0],"id":31,"left_children":[1,3,5,7,9,11,13,15,17,19,21,23,25,27,29,31,-1,-1,33,-1,-1,35,37,39,-1,-1,-1,41,43,-1,45,-1,-1,-1,-1,-1,-1,-1,-1,-1,-1,-1,-1,-1,-1,-1,-1],"loss_changes":[1.6875643E10,2.6279444E9,1.4173819E9,1.03868826E9,9.8323456E8,4.2710067E8,1.2797312E8,3.0231347E8,1.8424381E9,2.6212768E7,6.811853E8,1.1085926E8,3.0687552E7,7.26391E7,1.9209226E7,1.9366298E8,0E0,0E0,7.9765094E8,0E0,0E0,4.503744E7,9.889096E8,8.869683E7,0E0,0E0,0E0,3.80928E5,3.799904E7,0E0,1.73924E5,0E0,0E0,0E0,0E0,0E0,0E0,0E0,0E0,0E0,0E0,0E0,0E0,0E0,0E0,0E0,0E0],"parents":[2147483647,0,0,1,1,2,2,3,3,4,4,5,5,6,6,7,7,8,8,9,9,10,10,11,11,12,12,13,13,14,14,15,15,18,18,21,21,22,22,23,23,27,27,28,28,30,30],"right_children":[2,4,6,8,10,12,14,16,18,20,22,24,26,28,30,32,-1,-1,34,-1,-1,36,38,40,-1,-1,-1,42,44,-1,46,-1,-1,-1,-1,-1,-1,-1,-1,-1,-1,-1,-1,-1,-1,-1,-1],"split_conditions":[3.7621975E-1,-2.8428623E-1,1.4684951E0,-1.6177823E-1,-1.0961725E0,1.329932E0,-1.2431319E-1,-1.5871228E-1,-1.6266878E-1,-2.8350413E-1,-2.6979184E-1,1.7379922E0,-1.3081981E-1,-1.0422214E0,-2.6190815E-2,-1.8659833E-1,5.398974E2,3.2668274E2,-2.2602135E-1,5.4152763E1,1.3714803E2,-1.834324E0,-1.5039131E-1,-5.5801475E-1,7.368012E1,1.09810936E2,4.736382E1,4.922714E-1,1.7826189E0,-5.0717635E0,1.8268498E0,3.5151288E2,1.4944864E2,3.4173172E2,5.348387E2,1.1948923E2,2.1737799E2,2.5113132E2,3.963986E2,8.483731E1,2.1468954E2,3.2651646E1,1.5466675E1,1.0263209E2,4.4671165E1,3.6840122E1,2.1246468E1],"split_indices":[31,31,31,4,26,30,7,16,7,21,7,21,19,26,28,15,0,0,16,0,0,35,0,8,0,0,0,34,29,0,31,0,0,0,0,0,0,0,0,0,0,0,0,0,0,0,0],"split_type":[0,0,0,0,0,0,0,0,0,0,0,0,0,0,0,0,0,0,0,0,0,0,0,0,0,0,0,0,0,0,0,0,0,0,0,0,0,0,0,0,0,0,0,0,0,0,0],"sum_hessian":[5.73E2,4.1E2,1.63E2,2.82E2,1.28E2,9E1,7.3E1,1.44E2,1.38E2,1.4E1,1.14E2,7.2E1,1.8E1,4.8E1,2.5E1,1.38E2,6E0,4.4E1,9.4E1,4E0,1E1,2E1,9.4E1,6.8E1,4E0,1E1,8E0,1E1,3.8E1,7E0,1.8E1,1.34E2,4E0,1.8E1,7.6E1,8E0,1.2E1,4.4E1,5E1,4E0,6.4E1,6E0,4E0,3E1,8E0,1.2E1,6E0],"tree_param":{"num_deleted":"0","num_feature":"36","num_nodes":"47","size_leaf_vector":"1"}},{"base_weights":[1.413523E4,1.7262502E4,4.994359E3,1.8888383E4,1.313124E4,7.6260435E3,2.8098127E3,1.7433533E4,2.1231809E4,6.606084E3,1.4028455E4,8.79776E3,3.6622976E3,4.243296E3,1.3776561E3,1.0571783E4,1.7825715E4,3.0568246E2,2.4041512E4,1.6767865E2,5.7371628E1,1.552624E2,1.4870049E4,6.6356772E3,1.0780895E4,5.245025E1,1.12665184E2,2.739887E3,5.300747E3,3.2494266E2,2.278927E3,2.579467E2,8.542825E1,3.5934628E2,1.8382503E2,4.9702533E2,1.5469298E2,2.5298189E2,3.4973383E2,1.4378932E2,5.522184E1,2.3290138E2,1.379027E2,2.5799273E1,6.619693E1,1.1942763E2,5.8296E1,-3.6992908E0,2.0507631E1,6.71562E1,2.3814322E1],"categories":[],"categories_nodes":[],"categories_segments":[],"categories_sizes":[],"default_left":[0,0,0,0,0,0,0,0,0,0,0,0,0,0,0,0,0,0,0,0,0,0,0,0,0,0,0,0,0,0,0,0,0,0,0,0,0,0,0,0,0,0,0,0,0,0,0,0,0,0,0],"id":32,"left_children":[1,3,5,7,9,11,13,15,17,19,21,23,25,27,29,31,33,-1,35,-1,-1,-1,37,39,41,-1,-1,43,45,47,49,-1,-1,-1,-1,-1,-1,-1,-1,-1,-1,-1,-1,-1,-1,-1,-1,-1,-1,-1,-1],"loss_changes":[1.646506E10,2.6469745E9,8.35178E8,6.7651174E8,6.3913165E8,2.789527E8,1.6455034E8,3.3630208E8,1.5209144E9,8.890899E7,4.5930496E8,1.4713216E8,2.006528E7,5.065677E7,4.005676E7,1.3538227E8,5.8597376E7,0E0,7.98122E8,0E0,0E0,0E0,3.308933E8,3.8082176E7,3.653376E6,0E0,0E0,1.143152E7,1.9395968E7,7.69008E6,2.3004544E7,0E0,0E0,0E0,0E0,0E0,0E0,0E0,0E0,0E0,0E0,0E0,0E0,0E0,0E0,0E0,0E0,0E0,0E0,0E0,0E0],"parents":[2147483647,0,0,1,1,2,2,3,3,4,4,5,5,6,6,7,7,8,8,9,9,10,10,11,11,12,12,13,13,14,14,15,15,16,16,18,18,22,22,23,23,24,24,27,27,28,28,29,29,30,30],"right_children":[2,4,6,8,10,12,14,16,18,20,22,24,26,28,30,32,34,-1,36,-1,-1,-1,38,40,42,-1,-1,44,46,48,50,-1,-1,-1,-1,-1,-1,-1,-1,-1,-1,-1,-1,-1,-1,-1,-1,-1,-1,-1,-1],"split_conditions":[6.3792527E-1,-1.9793127E-1,1.4684951E0,-1.7603718E-1,-1.0858772E0,3.601998E-1,1.8164506E0,-1.0831053E0,-2.5063157E-1,-1.1080515E0,-3.3866084E-1,1.0224701E0,1.4914249E0,-6.506184E-1,7.5008065E-2,-6.6705245E-1,1.122759E0,3.0568246E2,-5.700464E-2,1.6767865E2,5.7371628E1,1.552624E2,-1.4593945E-1,1.1003861E0,1.2953701E0,5.245025E1,1.12665184E2,-8.633415E-1,9.3456864E-2,3.6008573E-1,1.480031E0,2.579467E2,8.542825E1,3.5934628E2,1.8382503E2,4.9702533E2,1.5469298E2,2.5298189E2,3.4973383E2,1.4378932E2,5.522184E1,2.3290138E2,1.379027E2,2.5799273E1,6.619693E1,1.1942763E2,5.8296E1,-3.6992908E0,2.0507631E1,6.71562E1,2.3814322E1],"split_indices":[31,31,31,6,26,23,31,26,2,26,2,26,8,33,29,8,28,0,4,0,0,0,18,8,8,0,0,26,33,0,20,0,0,0,0,0,0,0,0,0,0,0,0,0,0,0,0,0,0,0,0],"split_type":[0,0,0,0,0,0,0,0,0,0,0,0,0,0,0,0,0,0,0,0,0,0,0,0,0,0,0,0,0,0,0,0,0,0,0,0,0,0,0,0,0,0,0,0,0,0,0,0,0,0,0],"sum_hessian":[5.78E2,4.3E2,1.48E2,3.06E2,1.24E2,6.6E1,8.2E1,1.94E2,1.12E2,1.6E1,1.08E2,5E1,1.6E1,4E1,4.2E1,1.2E1,1.82E2,3.8E1,7.4E1,1E1,6E0,1.4E1,9.4E1,2.6E1,2.4E1,1.2E1,4E0,1.8E1,2.2E1,2E1,2.2E1,8E0,4E0,1.78E2,4E0,7E1,4E0,5.4E1,4E1,2.2E1,4E0,1.8E1,6E0,6E0,1.2E1,1.6E1,6E0,1.2E1,8E0,1E1,1.2E1],"tree_param":{"num_deleted":"0","num_feature":"36","num_nodes":"51","size_leaf_vector":"1"}},{"base_weights":[1.4823775E4,1.7999562E4,6.3071826E3,1.9412584E4,1.4686874E4,8.464693E3,3.1896328E3,2.2046398E4,1.777743E4,7.137318E3,1.5868109E4,9.42871E3,3.7137483E3,4.4376567E3,1.677679E3,2.520958E4,2.9999524E2,1.6661559E2,3.588769E2,5.5697342E1,1.7863826E2,8.260377E3,1.7088145E4,8.232738E3,2.5040744E2,5.1481937E1,1.1868144E2,2.5946052E3,5.5428003E3,2.687183E3,1.0689968E3,2.5673663E2,5.315392E2,1.1460475E2,1.974537E2,3.6664307E2,1.8794281E2,1.9091457E2,1.2340556E2,2.5344141E1,5.924172E1,1.18493164E2,6.271804E1,7.201633E1,3.30138E1,5.9149046E0,2.7171488E1],"categories":[],"categories_nodes":[],"categories_segments":[],"categories_sizes":[],"default_left":[0,0,0,0,0,0,0,0,0,0,0,0,0,0,0,0,0,0,0,0,0,0,0,0,0,0,0,0,0,0,0,0,0,0,0,0,0,0,0,0,0,0,0,0,0,0,0],"id":33,"left_children":[1,3,5,7,9,11,13,15,17,19,21,23,25,27,29,31,-1,-1,-1,-1,-1,33,35,37,-1,-1,-1,39,41,43,45,-1,-1,-1,-1,-1,-1,-1,-1,-1,-1,-1,-1,-1,-1,-1,-1],"loss_changes":[1.5167963E10,1.6387277E9,1.015552E9,8.354775E8,1.01929984E9,3.8176205E8,1.1520653E8,1.9622871E9,1.350574E8,1.2353165E8,8.7054746E8,1.7423616E8,2.7740992E7,5.690701E7,1.617552E7,8.60033E8,0E0,0E0,0E0,0E0,0E0,1.2774784E7,7.1752294E8,9.545395E7,0E0,0E0,0E0,3.562888E6,7.20896E5,4.47236E6,4.300284E6,0E0,0E0,0E0,0E0,0E0,0E0,0E0,0E0,0E0,0E0,0E0,0E0,0E0,0E0,0E0,0E0],"parents":[2147483647,0,0,1,1,2,2,3,3,4,4,5,5,6,6,7,7,8,8,9,9,10,10,11,11,12,12,13,13,14,14,15,15,21,21,22,22,23,23,27,27,28,28,29,29,30,30],"right_children":[2,4,6,8,10,12,14,16,18,20,22,24,26,28,30,32,-1,-1,-1,-1,-1,34,36,38,-1,-1,-1,40,42,44,46,-1,-1,-1,-1,-1,-1,-1,-1,-1,-1,-1,-1,-1,-1,-1,-1],"split_conditions":[3.7621975E-1,-2.8428623E-1,1.4684951E0,-2.126361E-1,-1.0831053E0,3.601998E-1,1.800175E0,3.9976436E-1,-1.7844331E-3,-3.329268E-1,-3.2374936E-1,8.115057E-2,1.7475767E0,-1.1737192E0,1.294458E-1,-2.1041037E-1,2.9999524E2,1.6661559E2,3.588769E2,5.5697342E1,1.7863826E2,-1.2122958E0,5.7641394E-2,9.927579E-1,2.5040744E2,5.1481937E1,1.1868144E2,8.7516886E-1,9.3456864E-2,9.798079E-2,-3.064702E-1,2.5673663E2,5.315392E2,1.1460475E2,1.974537E2,3.6664307E2,1.8794281E2,1.9091457E2,1.2340556E2,2.5344141E1,5.924172E1,1.18493164E2,6.271804E1,7.201633E1,3.30138E1,5.9149046E0,2.7171488E1],"split_indices":[31,31,31,11,26,23,31,12,33,22,2,3,12,33,1,16,0,0,0,0,0,27,22,31,0,0,0,26,33,3,22,0,0,0,0,0,0,0,0,0,0,0,0,0,0,0,0],"split_type":[0,0,0,0,0,0,0,0,0,0,0,0,0,0,0,0,0,0,0,0,0,0,0,0,0,0,0,0,0,0,0,0,0,0,0,0,0,0,0,0,0,0,0,0,0,0,0],"sum_hessian":[5.64E2,4.1E2,1.54E2,2.84E2,1.26E2,9E1,6.4E1,1.04E2,1.8E2,1.8E1,1.08E2,7.4E1,1.6E1,3.4E1,3E1,7E1,3.4E1,4E0,1.76E2,6E0,1.2E1,1.6E1,9.2E1,5.6E1,1.8E1,1.2E1,4E0,1.4E1,2E1,1E1,2E1,8E0,6.2E1,8E0,8E0,7.8E1,1.4E1,3.2E1,2.4E1,4E0,1E1,1.6E1,4E0,4E0,6E0,6E0,1.4E1],"tree_param":{"num_deleted":"0","num_feature":"36","num_nodes":"47","size_leaf_vector":"1"}},{"base_weights":[1.3988254E4,1.7714186E4,6.7546235E3,1.5256175E4,1.929124E4,9.241777E3,3.1570837E3,1.0053496E4,1.5984856E4,1.3674193E4,2.1025648E4,4.951009E3,1.0467167E4,4.909528E3,1.090971E3,2.6589313E2,5.898373E3,1.6654842E4,8.725383E3,1.6541507E2,3.0635083E2,1.655884E4,2.3129994E4,1.3139531E2,3.218012E3,6.990739E1,1.0940443E4,5.8969585E3,2.1772227E3,9.412162E1,1.6055637E3,1.3950778E2,6.421711E1,3.3690323E2,1.804516E2,2.323898E2,9.1695564E1,3.4522845E2,1.1599297E2,4.806083E2,2.5519514E2,8.46993E1,4.13896E1,1.05461716E2,2.2647044E2,7.3463135E1,1.3021495E2,2.4938633E1,4.9042522E1,-9.001349E0,8.92935E0,8.501315E0,3.620349E1],"categories":[],"categories_nodes":[],"categories_segments":[],"categories_sizes":[],"default_left":[0,0,0,0,0,0,0,0,0,0,0,0,0,0,0,0,0,0,0,0,0,0,0,0,0,0,0,0,0,0,0,0,0,0,0,0,0,0,0,0,0,0,0,0,0,0,0,0,0,0,0,0,0],"id":34,"left_children":[1,3,5,7,9,11,13,15,17,19,21,23,25,27,29,-1,31,33,35,-1,-1,37,39,-1,41,-1,43,45,47,49,51,-1,-1,-1,-1,-1,-1,-1,-1,-1,-1,-1,-1,-1,-1,-1,-1,-1,-1,-1,-1,-1,-1],"loss_changes":[1.4973477E10,1.1360748E9,1.6887675E9,4.041687E8,1.8655314E9,5.423145E8,2.843029E8,2.0439718E8,4.8210125E8,3.6169626E8,1.1867423E9,5.4600576E7,2.4882074E8,1.0317267E8,1.9341628E7,0E0,9.441536E6,1.796096E7,1.0250925E8,0E0,0E0,3.307643E8,7.2984576E8,0E0,8.755248E6,0E0,1.161431E8,1.8397312E7,2.6662E5,2.8853392E6,5.2689E6,0E0,0E0,0E0,0E0,0E0,0E0,0E0,0E0,0E0,0E0,0E0,0E0,0E0,0E0,0E0,0E0,0E0,0E0,0E0,0E0,0E0,0E0],"parents":[2147483647,0,0,1,1,2,2,3,3,4,4,5,5,6,6,7,7,8,8,9,9,10,10,11,11,12,12,13,13,14,14,16,16,17,17,18,18,21,21,22,22,24,24,26,26,27,27,28,28,29,29,30,30],"right_children":[2,4,6,8,10,12,14,16,18,20,22,24,26,28,30,-1,32,34,36,-1,-1,38,40,-1,42,-1,44,46,48,50,52,-1,-1,-1,-1,-1,-1,-1,-1,-1,-1,-1,-1,-1,-1,-1,-1,-1,-1,-1,-1,-1,-1],"split_conditions":[1.21516E-1,-2.1316665E-1,1.3455659E0,-1.0796406E0,-2.4346292E-1,-1.1599236E0,1.8164506E0,-6.5523314E-1,-5.372064E-2,8.9872915E-1,-2.4338405E-1,2.3495452E-1,-5.663467E-1,1.6069987E0,-3.6587662E-1,2.6589313E2,-1.6884665E-1,2.7114257E-1,1.01454526E-1,1.6541507E2,3.0635083E2,-2.0630582E-1,7.310911E-1,1.3139531E2,9.683242E-1,6.990739E1,-2.1306391E-1,-1.9221741E-1,1.5359704E0,-1.9774023E-1,-9.031425E-1,1.3950778E2,6.421711E1,3.3690323E2,1.804516E2,2.323898E2,9.1695564E1,3.4522845E2,1.1599297E2,4.806083E2,2.5519514E2,8.46993E1,4.13896E1,1.05461716E2,2.2647044E2,7.3463135E1,1.3021495E2,2.4938633E1,4.9042522E1,-9.001349E0,8.92935E0,8.501315E0,3.620349E1],"split_indices":[31,16,31,26,7,35,31,8,13,26,19,23,8,28,29,0,0,22,2,0,0,0,28,0,28,0,24,29,8,0,28,0,0,0,0,0,0,0,0,0,0,0,0,0,0,0,0,0,0,0,0,0,0],"split_type":[0,0,0,0,0,0,0,0,0,0,0,0,0,0,0,0,0,0,0,0,0,0,0,0,0,0,0,0,0,0,0,0,0,0,0,0,0,0,0,0,0,0,0,0,0,0,0,0,0,0,0,0,0],"sum_hessian":[5.59E2,3.68E2,1.91E2,1.48E2,2.2E2,1.12E2,7.9E1,2E1,1.28E2,5.4E1,1.66E2,2.6E1,8.6E1,4.2E1,3.7E1,1E1,1E1,1.16E2,1.2E1,1.4E1,4E1,5.6E1,1.1E2,1.2E1,1.4E1,6E0,8E1,3E1,1.2E1,1.3E1,2.4E1,6E0,4E0,1.12E2,4E0,6E0,6E0,5.2E1,4E0,1E2,1E1,6E0,8E0,6E0,7.4E1,8E0,2.2E1,4E0,8E0,5E0,8E0,4E0,2E1],"tree_param":{"num_deleted":"0","num_feature":"36","num_nodes":"53","size_leaf_vector":"1"}},{"base_weights":[1.3651014E4,1.7156016E4,5.801087E3,1.8895498E4,1.4133955E4,8.553638E3,2.5143557E3,1.6450514E4,2.0535688E4,7.281839E3,1.5523167E4,1.0151895E4,5.687492E3,3.9563777E3,9.4066327E2,1.7225146E2,3.335131E2,1.678711E4,2.4206217E4,3.8912454E3,1.8094806E2,8.389294E3,1.6362478E4,8.276721E1,1.0501292E4,1.9699333E2,4.564176E3,2.508702E3,1.07070465E2,4.314895E1,3.6276816E2,3.0403363E2,4.0280054E2,2.712557E2,5.14574E2,9.102846E1,4.3774555E1,1.0601529E2,1.9718655E2,2.7410413E2,3.8231485E2,9.177169E1,2.1721912E2,1.0167439E2,5.458619E1,6.615452E1,2.6726557E1,-5.866549E0,1.4470504E1],"categories":[],"categories_nodes":[],"categories_segments":[],"categories_sizes":[],"default_left":[0,0,0,0,0,0,0,0,0,0,0,0,0,0,0,0,0,0,0,0,0,0,0,0,0,0,0,0,0,0,0,0,0,0,0,0,0,0,0,0,0,0,0,0,0,0,0,0,0],"id":35,"left_children":[1,3,5,7,9,11,13,15,17,19,21,23,25,27,29,-1,-1,31,33,35,-1,37,39,-1,41,-1,43,45,-1,-1,47,-1,-1,-1,-1,-1,-1,-1,-1,-1,-1,-1,-1,-1,-1,-1,-1,-1,-1],"loss_changes":[1.572103E10,1.8198774E9,1.597886E9,6.6072576E8,1.3052969E9,3.8660045E8,1.846297E8,4.1662464E7,1.5887401E9,